%YAML:1.0
---
opencv_ml_ann_mlp:
   format: 3
   layer_sizes: [ 72, 64, 32, 2 ]
   activation_function: SIGMOID_SYM
   f_param1: 6.6666666666666663e-01
   f_param2: 1.7159000000000000e+00
   min_val: 0.
   max_val: 0.
   min_val1: 0.
   max_val1: 0.
   training_params:
      train_method: BACKPROP
      dw_scale: 1.0000000000000001e-01
      moment_scale: 0.
      term_criteria:
         epsilon: 1.0000000000000000e-02
         iterations: 1000
   input_scale:
      - 1.
      - -1.0260193049907684e-01
      - 1.
      - -6.7070327699184418e-02
      - 1.
      - -6.5124429762363434e-02
      - 1.
      - -1.3459832966327667e-01
      - 1.
      - -2.0522846281528473e-01
      - 1.
      - -6.1903152614831924e-02
      - 1.
      - -6.2368169426918030e-02
      - 1.
      - -7.5981058180332184e-02
      - 1.
      - -9.2684321105480194e-02
      - 1.
      - -1.7790569365024567e-01
      - 1.
      - -9.2163488268852234e-02
      - 1.
      - -1.2416976690292358e-01
      - 1.
      - -2.9357594251632690e-01
      - 1.
      - -2.9357594251632690e-01
      - 1.
      - -1.6369807720184326e-01
      - 1.
      - -1.1174523085355759e-01
      - 1.
      - -1.2642765045166016e-01
      - 1.
      - -1.5002118051052094e-01
      - 1.
      - -1.5940690040588379e-01
      - 1.
      - -1.1825901269912720e-01
      - 1.
      - -1.6552063822746277e-01
      - 1.
      - -1.5906223654747009e-01
      - 1.
      - -1.7439900338649750e-01
      - 1.
      - -1.0116493701934814e-01
      - 1.
      - -1.0190463066101074e-01
      - 1.
      - -1.6081003844738007e-01
      - 1.
      - -1.7819656431674957e-01
      - 1.
      - -1.2809357047080994e-01
      - 1.
      - -1.3739836215972900e-01
      - 1.
      - -2.3269234597682953e-01
      - 1.
      - -2.9357594251632690e-01
      - 1.
      - -2.9357594251632690e-01
      - 1.
      - -1.9271652400493622e-01
      - 1.
      - -1.7567913234233856e-01
      - 1.
      - -1.9450862705707550e-01
      - 1.
      - -1.4623498916625977e-01
      - 1.
      - -4.5451071113348007e-02
      - 1.
      - -3.9955455809831619e-02
      - 1.
      - -4.0467508137226105e-02
      - 1.
      - -2.0416012406349182e-01
      - 1.
      - -3.0454716086387634e-01
      - 1.
      - -2.3601557314395905e-01
      - 1.
      - -1.0159295797348022e-01
      - 1.
      - -8.2872323691844940e-02
      - 1.
      - -8.0349393188953400e-02
      - 1.
      - -6.5258868038654327e-02
      - 1.
      - -4.6130258589982986e-02
      - 1.
      - -5.8094013482332230e-02
      - 1.
      - -2.6208785176277161e-01
      - 1.
      - -3.0454716086387634e-01
      - 1.
      - -2.4371585249900818e-01
      - 1.
      - -1.0715754330158234e-01
      - 1.
      - -7.0329040288925171e-02
      - 1.
      - -9.0263687074184418e-02
      - 1.
      - -9.0201124548912048e-02
      - 1.
      - -5.3504414856433868e-02
      - 1.
      - -3.4105688333511353e-02
      - 1.
      - -9.4250068068504333e-02
      - 1.
      - -2.9871663451194763e-01
      - 1.
      - -1.6660191118717194e-01
      - 1.
      - -1.5368181467056274e-01
      - 1.
      - -1.8502128124237061e-01
      - 1.
      - -1.9328698515892029e-01
      - 1.
      - -1.0091839730739594e-01
      - 1.
      - -5.2033934742212296e-02
      - 1.
      - -6.3768401741981506e-02
      - 1.
      - -2.0071995258331299e-01
      - 1.
      - -3.0454716086387634e-01
      - 1.
      - -2.4924173951148987e-01
      - 1.
      - -1.7639480531215668e-01
      - 1.
      - -1.5216161310672760e-01
      - 1.
      - -1.5190181136131287e-01
   output_scale:
      - 1.
      - 1.
      - 1.
      - 0.
   inv_output_scale:
      - 1.
      - -1.
      - 1.
      - 0.
   weights:
      -
         - -9.8298355490146700e-04
         - 8.3234009042758067e-04
         - 2.5802060954466799e-02
         - -1.7882125778292107e-02
         - -1.4615980918451898e-03
         - 3.1093153920043953e-02
         - -1.3780103605019534e-03
         - 1.5882135074886831e-02
         - -2.3554179013900972e-02
         - 1.4706052879200964e-02
         - 1.6169286392773385e-02
         - -2.6809131109977461e-02
         - 2.5233429036054886e-02
         - 1.2885263491881909e-03
         - -2.1520853339916164e-02
         - 5.2940571254470698e-03
         - 4.4680579964855456e-04
         - -1.7929642836920737e-02
         - -7.2767162903194342e-03
         - -6.8297619189737072e-03
         - -2.2540987684079847e-02
         - -9.4433398586355587e-03
         - 2.0521606386540457e-02
         - 6.2679656711150753e-03
         - 2.3974409035696972e-02
         - 2.4444323242562932e-02
         - 1.3824168192415873e-02
         - 2.7566607874297110e-03
         - 1.4351343698138281e-02
         - -1.3259940716483417e-02
         - -2.6387943871170900e-02
         - -2.3656480985211670e-02
         - -1.7557596691917941e-02
         - 6.7145905335567319e-04
         - -2.0560533675347509e-02
         - 2.4749810475717407e-02
         - 1.6552311420122319e-02
         - -1.5223566635179552e-02
         - 6.9280060221716582e-03
         - -2.5605774625128593e-02
         - -7.1881027654032521e-03
         - 1.5370760379969985e-02
         - -6.1852558187572172e-03
         - 8.9283024983175339e-03
         - 2.1697731926175690e-02
         - -1.7651128742783840e-02
         - -1.3712757543302595e-02
         - -2.5589471324159691e-02
         - -5.4112305191531358e-03
         - -1.1542470532053163e-02
         - -3.9503698381908991e-03
         - -4.8733720159025570e-03
         - -2.2118502909375656e-02
         - -1.7596559830879835e-02
         - 2.1489181916976899e-03
         - -5.0150516819754383e-03
         - 1.9196092513015656e-03
         - -2.1944634528637152e-02
         - -1.8321049406011224e-02
         - 2.1544089568565995e-02
         - -2.5010001424805393e-02
         - -2.7831992740127424e-02
         - -2.1242477148301360e-02
         - 1.7304865167464850e-02
         - 5.4299514744211626e-03
         - -6.7198447253875504e-03
         - -1.6458822168642171e-02
         - 1.6057537010889567e-02
         - -9.4196664458991793e-04
         - 4.2024001494537430e-03
         - 8.8303691141114488e-03
         - 1.9468194539300411e-02
         - -2.5643355392883302e-02
         - -2.4685193402282486e-02
         - 4.7868424467391521e-03
         - -3.8500320190571316e-05
         - -2.6188815097532910e-02
         - -1.3693854773159014e-02
         - 1.6503177817039690e-02
         - -1.4296308603415972e-02
         - -9.2960065460301663e-03
         - -7.9993466376138828e-03
         - 2.4665076823294704e-02
         - 2.3351232450178398e-02
         - 7.9566263370246457e-03
         - -9.5975474186312977e-03
         - -2.1936367230326565e-02
         - 1.6153172885724945e-02
         - 2.2728134291051149e-02
         - -8.0887931148087618e-03
         - 1.3680334171040674e-02
         - 2.7651537492635322e-04
         - 2.1548303293951840e-02
         - 9.7953490112826867e-03
         - -1.7170961005096023e-02
         - 1.9557497481246886e-02
         - 2.7490808750721418e-02
         - -9.8301055114780409e-03
         - 1.1528071983671945e-02
         - 1.0802099519166504e-02
         - 2.4729081084523329e-02
         - -1.0529931387274906e-02
         - 1.3861071768766364e-02
         - -1.6023055628303799e-02
         - -1.9401343576417037e-02
         - -2.0836179289118632e-02
         - -1.5040598111230759e-02
         - -1.6329305799362648e-02
         - 2.0022348957687008e-02
         - -5.2006376511620316e-03
         - -2.7518000108874223e-02
         - -2.8576292319483720e-03
         - 1.6713420730995011e-02
         - 2.7178240390993084e-02
         - -5.4631926031053317e-03
         - 1.2594125235772569e-02
         - -1.8772180994460470e-04
         - 1.3298870492919307e-02
         - -2.2491722920535136e-02
         - -1.6347700410956387e-02
         - 2.4591856495329870e-02
         - -3.9455927591505501e-03
         - -2.1795857620110631e-02
         - 2.1145279790129316e-02
         - 1.9930315832197978e-02
         - 2.6293023564122098e-02
         - -1.7800626379144702e-02
         - -2.0774841356982710e-02
         - 1.2134513954060368e-02
         - -2.0150223298312363e-02
         - 2.5221867376541102e-02
         - -1.3387970136253431e-02
         - -5.5837161246405382e-03
         - -2.7540818788848415e-02
         - 1.4242393641459794e-02
         - -2.0367242830259362e-03
         - -1.9018423020791111e-02
         - -1.1240076902629778e-02
         - -5.0200396675875890e-03
         - 9.8895584287669591e-03
         - -4.5745596909646980e-04
         - -2.2211008191754745e-02
         - 1.5771606301333618e-02
         - -7.1180523613340067e-03
         - -4.9472772438103919e-03
         - 1.7549843817437412e-02
         - -2.4044837412406529e-02
         - 1.7632039806782480e-02
         - -1.9023069484372750e-02
         - -1.5068409856147880e-02
         - 1.6793345115404409e-02
         - 7.5942585251821005e-03
         - 1.0224740392165079e-02
         - -1.0985790988269300e-02
         - -2.7201166072707589e-02
         - -3.6611441823632732e-03
         - 1.0095567748018322e-02
         - 2.9605315037959175e-03
         - -8.4988565728723875e-03
         - 5.3624823036179632e-03
         - 2.1014262353459063e-02
         - -1.3390487608526283e-02
         - -6.3924264555216366e-03
         - -2.4070683048100661e-02
         - -1.0709714425832486e-02
         - 2.1474264765433116e-02
         - 9.4796481519320054e-03
         - -2.5812709453704656e-03
         - 1.2904657722038339e-02
         - -1.7808208929109285e-02
         - -1.9605740084340791e-02
         - -8.6374720015790461e-03
         - 1.2735016797983049e-03
         - -9.9688302593816461e-03
         - 1.9977528153191898e-02
         - 1.0544716621178297e-02
         - 9.0397685477134823e-03
         - -4.7857912424374791e-03
         - 1.9852431586350108e-02
         - 1.8589636978628526e-04
         - -3.7455039216333966e-03
         - -2.0980563037321567e-02
         - -1.7001217661132211e-02
         - 1.7210780370667953e-02
         - 6.9709219136751205e-03
         - 2.2035758344657621e-02
         - -6.7002688452566880e-05
         - 7.1062979108691641e-04
         - -5.4279801648232711e-03
         - 2.6867384389580470e-02
         - -8.0927806705343441e-03
         - -1.4712729617472853e-02
         - -9.8503327350625836e-03
         - -7.6580248867276577e-03
         - -1.9508324948031518e-02
         - 7.5982751222341610e-03
         - -5.9867983716383171e-03
         - -4.7311549466798564e-04
         - -1.0180810960491692e-02
         - 2.8782940964617956e-03
         - 3.9684398656627661e-03
         - 1.9417806170221531e-02
         - -2.3794072656089529e-02
         - 2.0427500902218173e-03
         - 2.1124733755764669e-02
         - 9.5242461077754484e-03
         - -1.2454475700287963e-02
         - 1.8711439373701150e-02
         - -2.4510072328367011e-02
         - -3.2108365229779829e-03
         - -3.1296373681378845e-03
         - 1.4623892594431611e-02
         - 5.5141288811588682e-03
         - -1.2923221060937278e-02
         - 2.0801435714197559e-02
         - -1.5394036322738463e-02
         - 1.3065134628044461e-02
         - -7.6545275003907925e-03
         - 3.6301662059666467e-03
         - -2.4354709211378712e-02
         - -2.2267194075000565e-02
         - 2.5116707938431015e-02
         - 3.9766549966177827e-03
         - 1.6503101943995895e-02
         - -2.0370496175761074e-02
         - -5.1369683568057729e-03
         - -1.8662782645658745e-02
         - 1.8868148008414975e-02
         - 1.8495989511778319e-02
         - 2.3009750604089409e-02
         - 8.3898584037766961e-03
         - 2.0838372441190862e-02
         - 2.5860731415181831e-02
         - -8.8813810969224256e-03
         - -2.8106552083730231e-02
         - 1.1468541035207024e-02
         - 3.1767325422158697e-03
         - 2.0399738634526623e-02
         - -1.4866264652347546e-03
         - 1.2209738086148747e-02
         - 3.6660435678225476e-03
         - 2.0218782898197257e-02
         - -1.9540238643327986e-02
         - 2.1420663673182370e-02
         - -1.7206130200628247e-02
         - -1.2301075293539678e-03
         - -2.6174527713505365e-02
         - 9.7154130128157233e-03
         - 1.6455537846077607e-02
         - -6.6171550241728820e-03
         - -1.9182266375730311e-02
         - -1.5730756653048798e-02
         - 2.2579542929046348e-02
         - -2.4813012171898231e-02
         - -7.6605731829699152e-04
         - -2.1822846999166153e-02
         - 1.6616312937150109e-02
         - -4.0141272505111398e-03
         - 1.7862258203423846e-02
         - -1.9805667807047834e-02
         - -3.2952004138753284e-03
         - -2.2088060549124247e-03
         - 7.3065472695125842e-03
         - 1.3386987034401734e-02
         - -2.5833920554538198e-03
         - -9.2334190341114685e-03
         - -1.5103423637332154e-02
         - 2.7674950980686071e-02
         - 1.9265099401138460e-02
         - -1.9587940081864912e-03
         - 2.2165367342255469e-02
         - -2.1335541596155361e-02
         - -1.0735919820151830e-02
         - -2.0108754213689906e-02
         - -2.3469049338834393e-02
         - 2.7098824684642954e-02
         - 2.7748115969744778e-02
         - 2.5661362875980527e-03
         - -1.6184318749780772e-02
         - -1.6248515228958347e-02
         - 1.6170624347035061e-03
         - 5.2092360854377878e-03
         - -6.9539415445756360e-04
         - 2.5595103273170168e-02
         - -1.5553773359842588e-02
         - 1.7957010736638405e-02
         - -2.8875358941247906e-02
         - 2.5047610357305398e-02
         - -1.5167408567523792e-02
         - 2.9669369083014659e-02
         - 4.0147586701288832e-03
         - 1.1828099819513596e-02
         - -1.9388480660378817e-02
         - 9.1188443197245499e-03
         - -2.0059474170604996e-02
         - 1.6253274703717544e-02
         - -7.6821957685488671e-03
         - 1.8113546199621272e-02
         - -2.3840058447641314e-02
         - -2.5801434630397902e-02
         - 2.2849385561712923e-02
         - 1.0180952349739375e-02
         - 2.4182022503950559e-02
         - -1.0992183767196113e-03
         - 1.3609455496788294e-02
         - 1.1007924927002378e-02
         - -1.7359353730744834e-02
         - -3.1011625021538564e-03
         - 1.2048936345344961e-02
         - -7.2091763871251690e-03
         - -1.3181730871430250e-02
         - 3.6618249447721773e-03
         - 3.9402687750193072e-05
         - -2.1796025687636826e-02
         - 5.7814682434596905e-03
         - -2.1458474184013185e-02
         - 2.0607614994235337e-03
         - -1.6607178943886278e-02
         - 5.9764788999036233e-03
         - 5.9896653715651993e-04
         - 3.7337859199125792e-03
         - -1.3026260508206372e-02
         - 3.6999897740545864e-03
         - -1.0846065267086924e-02
         - -1.8760013821533209e-02
         - 5.2749419364558322e-03
         - -2.4759017481021571e-02
         - 4.1431175486673025e-03
         - 1.5067683721619915e-03
         - -6.4255529184609880e-03
         - 1.8154677492437103e-02
         - 2.8213862353613253e-02
         - -3.4362846820957830e-03
         - -1.4815771519647667e-02
         - -1.1602026460219758e-02
         - 2.3262591980374305e-02
         - -2.4654628971463571e-02
         - -1.3801838803668406e-02
         - -8.5558608390697306e-03
         - 1.3900219702331660e-02
         - -1.4171803833100776e-03
         - 1.3283375190859075e-02
         - -1.1806971688637381e-02
         - 2.4153756036459480e-02
         - 1.8351223741183881e-02
         - 1.0903941484051551e-02
         - -1.4971377659944088e-02
         - -2.3386199676973463e-02
         - -2.4467029295629775e-02
         - -3.2755721213504297e-03
         - 1.6393802178946058e-02
         - 1.1840509120310629e-02
         - 1.5239831196094390e-02
         - -2.4274213066908617e-02
         - -1.9672011275795865e-02
         - -1.4785308348792391e-02
         - 1.1540935732757895e-02
         - -4.8981242373642144e-03
         - 8.9687143426943668e-03
         - -1.4749293030644005e-02
         - 2.4801273095911545e-02
         - -6.4537836097685404e-04
         - -1.2594094226139298e-02
         - -5.1330836604641661e-03
         - 2.1130280829974653e-02
         - 1.0860910529228678e-02
         - -5.4465634269901676e-04
         - -1.0092590446982561e-02
         - 2.1136198610703611e-02
         - 2.6029854132275719e-03
         - 2.2531236381248247e-04
         - 1.0439181155147966e-02
         - 1.6592867660535342e-02
         - -2.4524940698499940e-02
         - -1.5296269927899347e-02
         - 2.3686883796916313e-02
         - 2.6201474346205043e-02
         - -2.2277914604909806e-02
         - 9.7647676776211785e-03
         - 2.5970524170245552e-02
         - 2.5065663973778848e-02
         - -6.0719889795335632e-03
         - 7.2534295439556301e-03
         - 5.0557987284728222e-04
         - -1.7290898125459517e-02
         - 7.3022616685431462e-03
         - -2.5423482382066681e-02
         - -5.7464992524367013e-03
         - 1.8075273211966409e-02
         - -1.9382469384400136e-02
         - 1.1236374528051972e-02
         - 1.6152258635304072e-02
         - 6.3497695536312588e-03
         - 1.3593173918354743e-02
         - -1.5647563726844047e-02
         - 1.4106079165508533e-02
         - -2.1930904699184760e-02
         - 1.5661038261874500e-02
         - 8.1059171699523237e-03
         - -1.3803342920218410e-02
         - -1.7774214181139315e-02
         - 8.7661315038056603e-03
         - 1.5410315316846838e-02
         - -1.6828685024304745e-03
         - 1.0656269655777866e-02
         - 2.1339885175861509e-02
         - 6.1589341546152369e-03
         - -5.9124528214710573e-03
         - -6.8353766459112782e-03
         - -4.6719529796210380e-03
         - -1.2751597542473649e-02
         - 1.8555693488185896e-02
         - -1.4550111602915987e-02
         - 6.8504018250298039e-03
         - -2.6562069434080061e-02
         - -1.9335370913388470e-02
         - 3.0587936696975706e-03
         - -1.5638013097349864e-02
         - 1.5175064310402489e-02
         - -1.7367769841026781e-02
         - 2.5973897299070566e-02
         - -2.4989622704594646e-02
         - 7.6793356608095067e-03
         - -2.0259315057996790e-03
         - -1.3345587089532056e-02
         - -2.4637400081487178e-02
         - 1.1351041756476997e-02
         - -5.9529114993127734e-03
         - -1.5037683738027283e-02
         - -1.6700403263020080e-02
         - -1.4645777549740210e-02
         - -1.0902292828065001e-02
         - -1.9123535627294210e-02
         - 1.8786016796154608e-03
         - -7.2874952875841984e-03
         - -8.1666022466167637e-03
         - -1.4740123633788068e-02
         - 6.3236917557697100e-03
         - -1.1209931026438429e-02
         - -1.2784198727391161e-02
         - 9.2272763622330990e-03
         - -1.7378144179587007e-02
         - 1.2355605765759224e-02
         - -1.7579705380665441e-02
         - 6.2710078287638721e-04
         - -1.3065281514929318e-02
         - 9.0119193472264734e-03
         - 8.6006224302279770e-03
         - 7.3584150772935701e-03
         - -2.1862178008142250e-02
         - 5.0943734416507049e-03
         - -3.4303121893854678e-03
         - 2.1138837464948084e-02
         - -3.1437755161402799e-02
         - 2.4854938327561315e-02
         - 5.0529768757537714e-03
         - 4.8457605014958719e-03
         - 4.6113380569869702e-03
         - 2.1736973254130175e-02
         - 5.0046874755755545e-03
         - 6.5331664551747668e-03
         - 2.2344342822128396e-02
         - 3.1593536530402210e-03
         - 2.0763329246657948e-02
         - -1.1713830305208953e-02
         - -1.6928525383462834e-02
         - 1.9586046392632020e-02
         - 1.3715260633758001e-02
         - 8.0428653902225953e-03
         - -2.2474131592500314e-02
         - 1.3906389236116480e-02
         - 2.5690241741623166e-03
         - 2.5446861187971261e-02
         - -1.8080636207650720e-02
         - -1.6158993866185592e-02
         - -2.6356801475264969e-02
         - -2.3969603314727174e-02
         - 1.2690732242020233e-02
         - -2.0930026087436816e-02
         - -5.9421532361759516e-03
         - 1.4133593327634303e-02
         - -8.8662867188459647e-03
         - -1.0591053518253754e-02
         - 1.5431026015116077e-02
         - 7.6922937410277520e-04
         - 2.2743211579286150e-02
         - 5.9292501695179549e-03
         - -1.0953536161883855e-02
         - 1.9798481322987758e-02
         - 3.3344568991761489e-03
         - -1.6649643675492935e-02
         - 2.4255817606155708e-02
         - 1.4284937919434500e-02
         - 2.0862796945337016e-02
         - -9.0170662321421985e-03
         - -1.8210084526651283e-03
         - -1.5513926561589486e-02
         - 8.6948749057126542e-03
         - -1.1604148839763531e-02
         - -1.3578377134717018e-02
         - -4.9546280566513054e-04
         - 1.5663934199669619e-02
         - -4.4103383471764627e-03
         - -1.1097161928804221e-02
         - 1.6266063457484690e-02
         - 1.7297865831576890e-02
         - 8.1182028779863743e-03
         - 1.1707517360184569e-02
         - -2.4562697740111733e-04
         - -4.6688881505237778e-03
         - 8.2403065136873836e-03
         - -1.3264745723189445e-02
         - 1.9748831047006225e-03
         - 2.1309739574159815e-02
         - -2.1836226426432876e-03
         - 7.0927195269596139e-03
         - 2.7314531930886505e-03
         - 1.3701639555825856e-02
         - -1.2941356350184315e-02
         - -2.3700087899735559e-02
         - 1.0899094800997110e-02
         - 5.9952071945711706e-03
         - 7.2935445037956830e-03
         - -2.6312363883470583e-02
         - 4.8517582903049410e-03
         - 8.5723232833193920e-03
         - -2.1155635723295582e-02
         - -3.2884709188761010e-03
         - 1.4122290390843312e-02
         - 4.3581840176795802e-04
         - -1.3778161193341899e-02
         - -6.3537939162688047e-03
         - -8.7875721607290503e-03
         - -2.4777751299342233e-03
         - -2.1549676023955130e-02
         - 6.6613280008531372e-03
         - 2.2992697569023692e-02
         - -1.0334447100309310e-02
         - 1.3587959224374498e-02
         - 1.9123994734526129e-02
         - 1.5153584243132777e-02
         - -2.6153661885951921e-02
         - -2.1208670205828391e-02
         - 4.3545466272940066e-03
         - 1.5378921371187374e-02
         - -7.5395311677630885e-03
         - -1.3461500337762297e-02
         - 1.5659906860917790e-02
         - -2.7865054158722263e-03
         - 3.6453281370611682e-03
         - 4.7685728809748751e-03
         - 1.0698143812095984e-02
         - 9.8450978095975909e-03
         - 2.3060627265478674e-02
         - 1.4895474974856269e-02
         - -2.2313049975792566e-02
         - -1.9971279110359418e-02
         - 1.4865145414358922e-02
         - 2.1423558371602570e-02
         - 1.0279239980895329e-02
         - -2.1618427072115372e-02
         - 1.6751054715120246e-02
         - 2.1069900122991571e-02
         - -6.6443516348345579e-03
         - 3.6316880067742740e-03
         - -1.7986502236635990e-02
         - -2.4226969433169356e-02
         - -1.2324981520613692e-02
         - -3.9523687882221572e-03
         - -1.3535944653077746e-02
         - -1.4806338627598200e-02
         - -4.9356195564232855e-03
         - -2.5290195707575120e-03
         - 5.9875790457282023e-03
         - -2.3910324989444044e-02
         - 8.1062907092603869e-03
         - 1.4169784252023716e-02
         - -3.1131301015018282e-03
         - 1.3469808464150385e-02
         - 2.0186326781445961e-02
         - -1.7219953966988354e-02
         - -1.9837237055226359e-02
         - -2.6700115036827447e-03
         - -9.1070104615760261e-03
         - 8.9160916518974138e-03
         - 9.0136019551894635e-03
         - -2.6375011294532014e-02
         - 8.2291423068850747e-03
         - -1.2391541537921907e-02
         - 9.4400553924348530e-03
         - 2.3458381649882950e-02
         - 5.2708078724571688e-03
         - 4.5104213269037147e-03
         - 1.1020709148177030e-02
         - -1.6660377162413569e-02
         - 1.6342343213917483e-02
         - -2.5945933094823900e-02
         - 2.1315924123909872e-02
         - 1.7064588243670558e-02
         - 1.1612297492387756e-02
         - 1.7617787081279299e-04
         - -2.5958085671155408e-02
         - -4.6781102457536267e-03
         - 5.6350954574642398e-03
         - 1.1486685334210503e-02
         - 2.1647846006218947e-02
         - 4.0916100400796929e-03
         - -2.4112248321061538e-02
         - -1.7650012291742408e-02
         - -3.2201074913806543e-03
         - -1.7010296280162693e-02
         - -5.0643524846760886e-03
         - -1.0111412911761014e-02
         - -1.7424122217830604e-02
         - -2.4859916409446601e-02
         - -1.3837917519535758e-02
         - -2.2238439541999874e-02
         - -3.9614486835932916e-03
         - 2.0592719398666495e-02
         - 1.2011987364061727e-02
         - 2.4166178395042932e-02
         - -4.4179259452854580e-03
         - -1.8922386092131527e-02
         - 8.5013249212066537e-03
         - -2.1473442161705290e-02
         - -2.1370955910195825e-02
         - 2.3871180679171048e-02
         - 4.3855553601972680e-03
         - -2.3939464930619363e-02
         - 2.4211834398154171e-02
         - 5.0494952309476423e-03
         - -2.1585872951048826e-02
         - 4.3567581803422469e-03
         - 1.7860246190221672e-02
         - 1.9030266414049282e-02
         - -7.9140758508532815e-03
         - 2.7598021978895342e-03
         - 4.1289728274880979e-03
         - -1.4074616382845222e-02
         - -2.2896341230898298e-02
         - 1.3290711873632285e-02
         - -2.1144755316336833e-02
         - -7.1553106410199279e-03
         - 9.4600965923392673e-03
         - 2.7282382008693682e-02
         - -8.1171241791031419e-03
         - -6.3713418525033760e-03
         - 2.9152789512394126e-02
         - 1.2499543090142402e-02
         - -1.2768626485010384e-02
         - 1.4156264570965258e-02
         - -2.9091465783104564e-02
         - 1.3481121055776766e-02
         - -2.1221690523994259e-02
         - 1.8106006125771967e-02
         - 1.7072573475545590e-02
         - -4.1514141296815693e-03
         - -1.1987088737401203e-02
         - 4.5636022679625722e-03
         - -5.4148487756674676e-03
         - 1.3791560306159190e-02
         - 2.4093088919191399e-02
         - -1.1246480859898706e-02
         - -9.8429489204639887e-03
         - 1.8301385510890063e-02
         - -1.1832488730172735e-02
         - -2.7177600795841569e-02
         - -3.9985067311323972e-04
         - 2.0388146350231052e-02
         - -1.0150341783555561e-02
         - -3.6743394102333089e-04
         - 2.4309493993892418e-02
         - -1.0086717051729832e-02
         - 1.1020296994635583e-02
         - -1.0978726598025517e-02
         - 2.6267586064239287e-02
         - 1.4720137717568386e-02
         - -1.9220344689021725e-02
         - 1.0317649991511777e-02
         - -7.4266425235677593e-03
         - -1.8903540680257191e-02
         - 2.4777003038250946e-02
         - -2.8733464453493677e-02
         - -1.0058692474000560e-02
         - 1.1859201228816183e-02
         - -1.6829737312384171e-02
         - 1.8907211980552343e-03
         - -4.9137097205261019e-03
         - 5.6064752758622702e-03
         - 1.7949060571345304e-02
         - -2.2243584328606240e-02
         - 7.6855292340402576e-03
         - 1.5314239706112436e-02
         - 4.4677580025805162e-03
         - 7.6221331877515696e-04
         - 1.0461082557477857e-02
         - -1.8321793255468857e-02
         - 4.3076852271386129e-03
         - -7.5100857877777793e-04
         - -7.0202155248753218e-03
         - 1.9221292774196663e-02
         - 2.2856017147490824e-03
         - 2.6960947264787339e-03
         - -2.4219178150717828e-02
         - -2.2308149430495673e-02
         - 8.1450810786774866e-03
         - -6.1978516761241643e-04
         - 1.2997853711581993e-02
         - -9.0133697348065249e-03
         - 2.5238464558454216e-02
         - 2.3230524244219099e-02
         - 8.2018401672025940e-03
         - 2.2688481394467368e-02
         - -1.6438763299509784e-02
         - -5.0221649840872448e-03
         - -6.1969305344913485e-03
         - 9.3268760550240873e-03
         - 2.5882703081600136e-02
         - -1.3952927954420317e-02
         - -1.9874753359928658e-02
         - -2.1774430206186286e-03
         - 7.2377596121336717e-03
         - -8.6469559981346839e-03
         - -1.2829142509126918e-02
         - -2.0539042361220707e-02
         - -1.6352887847617646e-02
         - 1.2023115689354881e-02
         - 1.2896957526626006e-02
         - -1.5022016320979168e-02
         - 1.3692090558620871e-02
         - 6.0101104550594848e-03
         - 6.6539107667373514e-03
         - 1.4977260053164129e-04
         - -2.0957353472791793e-02
         - -2.5366430757373645e-02
         - 7.2013093721894047e-03
         - 1.0591446367568015e-02
         - -4.3067949159085244e-04
         - -1.0822036485448527e-02
         - -2.6308159685131086e-03
         - -2.7220988130748278e-02
         - 1.0067739656484604e-02
         - 1.9465873960775909e-03
         - -1.3853472251623982e-02
         - -7.2498106489875336e-03
         - -1.3415153251736894e-02
         - -1.7338981157341123e-02
         - 2.2372842603308928e-02
         - -6.3248395960391179e-03
         - 1.7970244509794599e-02
         - 2.6473156844311150e-02
         - -5.2883579057924901e-03
         - -1.8965941219728270e-02
         - -2.6764047897919613e-02
         - -1.0729017029706104e-02
         - -1.5408349365860285e-02
         - -1.2938308876893555e-02
         - -1.0164495835637635e-02
         - 1.4614721622907074e-02
         - 1.6757552826038167e-02
         - -1.8749471555040663e-02
         - -3.3986860580728757e-03
         - 1.9962876345952285e-02
         - 2.2370365273014125e-02
         - 2.0695525181192741e-02
         - -3.0905251472493961e-03
         - 7.7803170431147541e-03
         - -1.3755818138889462e-02
         - -1.5156887674666311e-02
         - 1.7245181162938176e-03
         - -1.1519678361653442e-02
         - -2.6419446925401669e-03
         - -1.5083032398904808e-02
         - -2.5539956905132052e-02
         - -5.0748236264493802e-03
         - -1.8349853863453301e-02
         - 4.8492969416851842e-03
         - -1.4289257254538718e-03
         - 1.7927659786681472e-02
         - -5.3759740617485060e-03
         - -5.6417342503876282e-04
         - 1.2672858360735249e-02
         - -7.4064865056246215e-03
         - 2.7051731188368667e-02
         - -1.6338095642306708e-03
         - -1.3720688854082013e-02
         - -2.0523368753877325e-02
         - 2.3404298444377445e-02
         - -1.7248921157405683e-02
         - -1.9320556113156848e-02
         - -1.5006768513375872e-02
         - 1.6739756737469136e-02
         - -2.2148710777728578e-02
         - 2.4186305219495011e-02
         - 1.7939516212358318e-02
         - -1.3527825378419393e-02
         - 1.7716091244714717e-02
         - -2.6600033176798319e-03
         - -1.5381200103439756e-02
         - 5.5847369120582248e-03
         - -1.7136052978728885e-02
         - 2.7274990295724296e-03
         - 2.4636562200189515e-02
         - 2.0499080271682200e-02
         - 2.1446257366926993e-03
         - 2.3214165955735864e-02
         - -2.6353211016305188e-02
         - -1.5182540912480350e-02
         - -5.8284072491471819e-03
         - -2.5644266929864498e-03
         - -7.5558297540676553e-04
         - -4.5741538029004901e-03
         - 5.4480804909589455e-03
         - 1.5434895929085318e-02
         - 1.5420210182095384e-02
         - 1.4807484605065060e-02
         - -1.7373703688287594e-02
         - -7.3298821450968289e-03
         - 1.8226432856645866e-02
         - 7.6400261271284227e-03
         - -1.1427366635536415e-02
         - 5.1007188536117062e-04
         - 2.2821874784970622e-02
         - 9.5615008131834951e-03
         - -4.1995443503015659e-03
         - -1.3889076923017392e-02
         - 1.4051261423134075e-02
         - 1.1843209916783601e-02
         - 1.7102971553851663e-03
         - 2.0903356750021376e-02
         - -2.1621185599820233e-02
         - 1.2751615668029632e-03
         - 1.6297427234849827e-02
         - 8.3980314151127448e-03
         - -1.0837506334065442e-02
         - 1.0120593407311642e-02
         - 1.6158404331909602e-02
         - -1.5182299405973499e-03
         - 2.1008068311821438e-02
         - -1.8310730389944165e-02
         - 8.9145127677956616e-03
         - 2.3283172037573518e-02
         - -6.0026165700471385e-03
         - -2.7236222405477100e-03
         - 1.7281742766372753e-02
         - 8.9431811591834942e-03
         - -3.6828775638380285e-03
         - 7.4825138873802722e-03
         - -1.5440394204816120e-02
         - -1.3339195494251548e-02
         - 1.7468972890855843e-02
         - -8.7288958386768419e-03
         - -5.4436750686622480e-03
         - 2.2000039647794022e-02
         - 2.0235370147855383e-02
         - 2.5517103683585535e-02
         - -1.1435841801209472e-02
         - 7.8096430204053395e-03
         - -2.7374154810482335e-02
         - -2.3835826639000975e-02
         - 1.2814714348503909e-02
         - -2.6017445970850893e-02
         - 6.7473496005277783e-03
         - 1.2639280529706599e-02
         - -1.8346073835266311e-03
         - 2.3323319619260551e-02
         - -1.7146457263277175e-02
         - -1.5429535748112471e-02
         - 9.7435257668389164e-03
         - -1.3442125845284311e-02
         - -4.1587137536777466e-03
         - 2.2066942645427873e-02
         - 1.6300878239852056e-02
         - -1.6741247634810886e-03
         - 1.4114340427068241e-02
         - 4.5316293630931342e-03
         - 7.9313254569786575e-03
         - 1.2180135124473282e-02
         - -9.5600429570332126e-03
         - 1.3078648525613884e-02
         - 1.8919518422794979e-02
         - 1.5618911537202892e-02
         - -2.0130015861418642e-02
         - -4.1593800242420752e-03
         - 2.2672497531546223e-02
         - 7.8361443696954997e-03
         - 2.6630425134140314e-03
         - 1.4930704465899398e-02
         - 1.5194800014007080e-02
         - 7.9863628766942037e-03
         - 2.5456257535652425e-02
         - 2.5477923215994708e-02
         - 1.4737721799550086e-02
         - -1.1829361095452863e-02
         - 2.2981692117426025e-02
         - -2.4723137335797715e-02
         - 1.3150568604191818e-02
         - 1.4707781636461421e-02
         - 2.2497283466111163e-02
         - -1.8227186715160625e-02
         - -1.6266908968540356e-03
         - -3.8232632816830531e-03
         - 9.7299972023148183e-03
         - -1.0978319094592770e-02
         - -1.8408069968494718e-03
         - -1.9544272146405084e-02
         - -2.2975186626842739e-02
         - 6.7124302060681974e-03
         - 1.8231757004967403e-02
         - -7.0861323170484051e-03
         - 2.0466805052237583e-02
         - -2.4601363154430397e-02
         - 1.9009241733147008e-02
         - 6.3209003597079257e-03
         - -6.2814483215021784e-04
         - -2.6973174664522669e-02
         - 2.0772527812902446e-02
         - 4.1706931519218029e-03
         - -2.1230703040832924e-02
         - -2.3959424313870967e-02
         - 5.2036885346889202e-04
         - 4.0065086881366924e-03
         - 5.3645412179167164e-03
         - -1.1238149109817087e-02
         - -7.2090690877819755e-03
         - 4.9069827273881591e-03
         - 1.8213897674871148e-02
         - 1.4099365475079272e-02
         - -4.6223424651699978e-03
         - -4.3728439355860292e-03
         - 2.7733845733484918e-03
         - 5.0881436160444757e-03
         - 1.7964232654337445e-02
         - 1.2772516801415910e-02
         - -1.6562866652047859e-02
         - -2.9485887195057230e-03
         - 1.9525238763421781e-02
         - -7.5039189660302055e-03
         - -5.4854468255054406e-03
         - 1.9353196763696408e-02
         - 2.0242102335723034e-02
         - 1.3369093134762988e-02
         - 2.7555374596935755e-02
         - 1.4837687146401296e-02
         - 9.7698381696935017e-03
         - -2.1798015379061429e-02
         - 1.0478163085627644e-02
         - 2.2244403642133717e-02
         - -4.7586822433252022e-03
         - -1.4005212048995682e-02
         - 2.1856400466772718e-03
         - -5.5782125318894534e-03
         - -1.2812730367578582e-02
         - 9.5020152904909672e-03
         - 2.1979700007210948e-02
         - 9.9343013037753885e-04
         - -7.0090196302918404e-03
         - 3.4854839978538362e-03
         - 1.4825873565991911e-02
         - -2.2104836930913283e-02
         - 1.8583178310220140e-02
         - 1.6504026103582783e-02
         - -1.4496929582810444e-02
         - 1.5450123364979600e-02
         - -2.1110046678252056e-02
         - 9.5100134395440759e-03
         - 1.6359686454913227e-02
         - 1.7483648897538735e-02
         - 1.6580866270005386e-02
         - -2.1760796958686386e-02
         - -2.6632867391449471e-02
         - -2.7676483666226950e-02
         - -1.5940131893926224e-02
         - 8.7101588408308849e-03
         - 2.0703035273833869e-03
         - -4.5272301364716978e-03
         - 2.2978473037464468e-02
         - 1.6643066445941466e-02
         - 8.9660987315129653e-03
         - 8.9613105184406013e-03
         - -2.1125733375799892e-02
         - 2.0213412831023809e-02
         - -4.9436807137953559e-03
         - -4.0476683519097877e-03
         - -2.1010044269190523e-02
         - 2.3220700474462026e-02
         - 2.6626521672199237e-02
         - -6.4037470257528898e-03
         - -1.0057762839556962e-02
         - 5.5713117051454748e-03
         - -9.2745430583826179e-03
         - 9.9620327541889587e-03
         - -6.3417401169889552e-03
         - 1.9905990504518949e-02
         - 7.4296187517929185e-03
         - -2.1916176101100728e-02
         - 1.3561898427617566e-02
         - 1.2596671205343036e-02
         - 1.6604136546303758e-02
         - 2.2800893726087616e-02
         - -1.6830680465326334e-02
         - 1.4004172743439489e-02
         - 5.6182911418838962e-03
         - -1.3166500028095673e-02
         - 2.5771738168928509e-02
         - 1.9616755435751171e-02
         - -1.6199322534853604e-02
         - 1.6617102793765871e-02
         - -1.8214063565569500e-02
         - -9.6440544823885588e-03
         - 1.6393860992390041e-02
         - -2.2353263892275085e-02
         - -1.9200441308169766e-02
         - -4.4768690901232635e-03
         - 2.3656906460382088e-03
         - -1.2358527082322452e-02
         - -4.3966973898484875e-03
         - -1.5867362498689593e-02
         - 1.3187222692400389e-02
         - -2.6145163574532483e-02
         - -4.0481311532522633e-03
         - 1.9463080957877413e-02
         - -6.7865485308378042e-03
         - 2.5795991663439200e-02
         - -9.6908339395357351e-03
         - -1.9627023335165795e-02
         - -1.6369568490243847e-02
         - -1.1126118999711417e-02
         - -1.0850203654919245e-04
         - 1.9534673571646882e-02
         - 1.4935591137086722e-03
         - 7.3840398015261660e-03
         - 1.2320623128060752e-02
         - 2.6166023283298347e-03
         - -2.5553108903255593e-02
         - 2.8883281739528113e-02
         - -1.2777077108230481e-03
         - 8.6448599811894712e-03
         - -2.1210803396444117e-02
         - 1.9765360211311367e-02
         - -2.5662484056560273e-02
         - 2.4088942255518799e-02
         - 1.6933205212622360e-02
         - 1.9602195088898735e-02
         - 9.4020294008156802e-03
         - -8.9745221946850098e-03
         - -2.2901549483411922e-02
         - 1.7513706485134384e-02
         - 1.7411146206465359e-03
         - -1.0013680839337648e-03
         - 2.1526425579051406e-02
         - 2.8656628015029634e-02
         - 1.1896183327811597e-02
         - -1.1296268170199025e-02
         - -2.3549625849673520e-02
         - 1.6276970094988061e-02
         - -3.6195481414769744e-03
         - -2.1300672802850612e-02
         - 1.6246025262489742e-02
         - -1.2093488305594032e-02
         - 2.0044735083473621e-02
         - -1.2796014796107587e-03
         - -1.4080547613020014e-02
         - 9.0416316975840075e-03
         - -2.0327980157501192e-02
         - -1.2379362735263428e-02
         - 2.6357183270958207e-02
         - -2.3303885062125520e-02
         - -1.5773238179346592e-02
         - 1.5174633488084852e-02
         - 2.1374403587272755e-02
         - 2.1390876603432731e-02
         - -2.2702735019282196e-03
         - -2.2584896877875269e-02
         - 5.7417816100321191e-03
         - 2.9202805526815860e-02
         - 1.5947971502081992e-02
         - 2.0600305771612763e-02
         - 1.4953423939063718e-02
         - 2.2114971905875559e-02
         - -1.1782734853412122e-02
         - -5.9471652171126080e-04
         - -5.7419312076032814e-03
         - 9.8556845204103571e-03
         - -2.4394365390847637e-02
         - 2.1446219046402336e-03
         - -2.0187314657416125e-03
         - -7.6980892383850443e-03
         - -3.7712815950146795e-03
         - 7.6373790910892608e-03
         - -1.0804944991677170e-02
         - 1.0877236146329855e-02
         - -2.4298190915512472e-02
         - 5.5649838403840314e-03
         - 1.7436923096588966e-02
         - 2.1065325945900985e-02
         - -4.7365304746643053e-03
         - -1.3646494864069003e-03
         - 5.9777651046366894e-03
         - -4.4864843654806924e-03
         - 1.3156769387631865e-02
         - 2.0050166586279023e-02
         - 1.2740606435398432e-02
         - 2.4743673985559558e-02
         - -2.4104130301158041e-02
         - 1.8324347396455481e-02
         - 8.3923296273184303e-03
         - -1.9082766126735151e-02
         - -1.8843933932499429e-02
         - 1.3208703819879252e-02
         - -2.7991860322030167e-03
         - 2.1846597004053895e-02
         - -1.5971269471181760e-02
         - -2.8130967595122468e-02
         - 1.4431201225754342e-02
         - -2.6600427238283438e-02
         - -2.5165930391189834e-02
         - -1.7549840645878202e-02
         - -2.1973332797927094e-02
         - 5.2302406584068557e-03
         - -2.3754375209001691e-03
         - 7.2552691025967756e-03
         - -6.7379113256352801e-03
         - 2.5005345754665603e-02
         - -2.8630612217082622e-02
         - 4.9001771200617257e-03
         - -2.0282051686504477e-02
         - 1.4327438360715278e-04
         - -3.1455920735835578e-02
         - -1.4029354170918315e-02
         - -1.6216670490765570e-02
         - -1.0588403969224582e-02
         - 1.2050061448909122e-02
         - -2.5611024166150999e-02
         - -4.1941228631596512e-03
         - 2.6020178928787215e-02
         - -1.4262852414073964e-02
         - 1.8332434378349912e-02
         - 1.9875993436716241e-02
         - -3.8810686196020516e-03
         - 2.5393957040480458e-02
         - -4.4973619885521343e-03
         - 8.2252987231094497e-03
         - -5.3527392337202702e-03
         - -2.0056364454532915e-02
         - 2.3237858023561341e-02
         - 1.0872333879193140e-02
         - 4.9524128884115574e-04
         - -2.2679323466259678e-02
         - 2.5796177557910133e-03
         - 1.3599430467859547e-02
         - -1.8380194097431461e-02
         - -3.8159538616836537e-03
         - -1.6209034811076998e-05
         - -4.7462020752880108e-03
         - 2.1513929913407922e-03
         - -2.5062290448974772e-02
         - -1.3417614738867781e-02
         - -1.7021905615186632e-04
         - -5.3058837372182955e-04
         - -2.3108799931900001e-02
         - -2.4457276764186877e-02
         - -2.1678885357832689e-02
         - -8.7846800259347192e-03
         - -2.5926312706186894e-02
         - 1.1103767063717936e-02
         - -1.2712205113442874e-02
         - -1.1499179109505518e-03
         - 2.5381431788771190e-02
         - 3.9970515389765853e-03
         - 1.1384884237484150e-02
         - 6.6994735022460781e-03
         - 1.7965595068616769e-02
         - -2.5721333656831605e-02
         - -5.9725796828322851e-03
         - 1.9154691592577447e-02
         - -5.7006608285408746e-03
         - 2.9063100758942098e-02
         - 1.7117343773808583e-02
         - -2.3491996157177772e-02
         - 1.8909364102630472e-02
         - -9.3597482276288526e-03
         - -5.3781885470566230e-03
         - -1.2924088915865802e-02
         - 5.9838865015649041e-03
         - 1.3304129422913476e-02
         - 4.8140932685555545e-04
         - 1.3527442960147070e-02
         - 1.5500469190793290e-02
         - 1.6249533936238639e-02
         - 5.1816793377196810e-03
         - 2.8712621163329102e-03
         - 8.3330400133641916e-03
         - 1.7698554560850822e-02
         - -1.2547526246463223e-02
         - -1.5239653333499591e-02
         - -1.9739531291305370e-02
         - -1.7521979069081900e-02
         - -1.2210502862923417e-02
         - -9.4605390297466067e-03
         - -2.3646902418484163e-03
         - 1.3089217974908274e-02
         - 9.8078312693730650e-03
         - 4.2449118056046876e-03
         - 1.6680710945990346e-02
         - 1.7661397268284114e-03
         - -1.8739410909193840e-02
         - -2.3918489105103798e-02
         - -1.8507821522652283e-02
         - 1.1424355625788319e-02
         - 4.3378243935136623e-03
         - -5.1212451201908104e-03
         - -3.0087766151966288e-03
         - -1.4679730299317537e-03
         - -1.8634341858428181e-03
         - -1.1658693347171857e-02
         - -1.8345769822590115e-02
         - 6.9148864659692314e-03
         - -2.1408659669100855e-02
         - -1.3626754016393394e-03
         - 7.3466221932330508e-03
         - 1.2311541669011602e-02
         - 1.9764458473338142e-02
         - -1.8528557366553084e-02
         - 1.9378665043903551e-02
         - -2.2935202744922698e-02
         - 3.9320523297668060e-03
         - 6.1972651093339329e-03
         - -2.2078492206924944e-02
         - 1.7853053923043916e-02
         - -2.3441646439084727e-02
         - -5.3611786816924285e-03
         - 9.8686950823342542e-03
         - 8.0947254911349995e-03
         - 3.3676588948271988e-03
         - 1.0273902257047189e-02
         - -1.4646720006036004e-02
         - -3.8695058207955371e-03
         - -1.2899373665820552e-02
         - -9.3587164895594134e-03
         - 1.0218401510449478e-03
         - -1.7841974419748666e-02
         - 4.3283359028467045e-03
         - -7.1279896582660445e-03
         - -2.8755293610224719e-02
         - 1.1415072879717564e-02
         - 6.8853837214338433e-03
         - 1.7511593436525443e-02
         - -2.8366701392933012e-03
         - 1.3600859316662151e-02
         - 7.0298137603924298e-03
         - 3.3913781598828097e-03
         - 1.7235113155166508e-02
         - -2.3410801857240336e-02
         - 4.0430025868083714e-03
         - 6.9936966402562679e-03
         - -8.0420529466489442e-03
         - 2.4097982538487918e-02
         - 8.6417477276665589e-03
         - -2.1598760780439857e-02
         - -2.1360956550770881e-02
         - -8.9386815796925739e-03
         - 8.1706159006388213e-03
         - 2.2178530405604809e-02
         - -1.8451984277541137e-02
         - 1.3073472989446043e-02
         - 2.4955310035715501e-02
         - 4.9905404925792993e-03
         - 2.4947914749412707e-02
         - 1.7159856796036710e-02
         - -1.3570964212998351e-02
         - 2.5753445835467216e-02
         - 1.3520238434719641e-02
         - -2.2904274441916238e-02
         - 2.2851435733255501e-02
         - 1.9837237733156474e-02
         - 4.8131345201208138e-03
         - 3.5771793595815215e-03
         - 2.4564572444612191e-02
         - -1.6975832645530469e-02
         - -5.8930615503548249e-03
         - -2.9533696717357928e-02
         - 1.5615975106977507e-02
         - 7.6806599194857474e-03
         - -4.9013403933750692e-03
         - -6.4609968183266158e-03
         - -9.1753220774749740e-03
         - -1.1545354467018704e-02
         - 1.9057739420891034e-02
         - -2.3400935930805784e-02
         - 2.6115538262836382e-02
         - -6.1964276758680143e-03
         - 1.0570702278209694e-02
         - 1.9823132396230587e-02
         - 1.7051222874718493e-02
         - -1.0219174360167758e-02
         - 2.0080803226302960e-02
         - 1.6443781339581645e-02
         - -1.5272554347283933e-02
         - -2.1070499850759650e-02
         - 1.5557349252985284e-02
         - 6.9468445379736775e-03
         - -4.9075796781669085e-03
         - 2.6720670316534391e-02
         - 5.7383769493890525e-03
         - -2.4810440530047991e-02
         - -3.6509364869004805e-03
         - -1.1083726232007658e-02
         - 9.0195064221670878e-03
         - -1.8520088033417884e-02
         - 7.1342202343480142e-03
         - -1.8436083401687797e-02
         - -1.0437690993464182e-02
         - 1.0343461089709436e-02
         - -2.1774498012109865e-02
         - -2.0904130020434970e-02
         - -5.1819107690655860e-03
         - 2.0824245934416393e-02
         - -4.0736909249580776e-03
         - -1.8523691465388178e-02
         - 7.3755821781408219e-03
         - 1.0664600444829702e-02
         - 2.5568395279537463e-02
         - -2.2511475267762759e-02
         - -9.6153128733661251e-03
         - 2.5683415247088035e-02
         - 1.3159662705362694e-02
         - -8.4914640552112338e-03
         - -2.6025900006684664e-02
         - -1.4631820917351197e-02
         - 3.0482375938641966e-03
         - -1.4360693554933662e-02
         - -1.1484251645370613e-03
         - -1.1505590844666095e-03
         - 2.8895293911084620e-02
         - 2.3456145161373839e-02
         - 5.1251952037615883e-03
         - -9.4240787558902868e-03
         - -7.1572049584763759e-03
         - 2.7215622970230336e-03
         - -4.5085672977472502e-03
         - -7.6363750608497549e-03
         - -1.8100827127975300e-02
         - -2.2241136168962450e-02
         - 2.7688045271923516e-02
         - 2.6436220397978973e-02
         - -2.1379285621384147e-02
         - 1.4006396413586929e-02
         - -2.1248057835259536e-02
         - -1.7740687172271730e-02
         - 1.9990272337923474e-02
         - -2.4318539279025025e-02
         - 8.7740155192532303e-03
         - 1.1752696470908803e-03
         - 1.5603020927611585e-02
         - -2.1386798902706852e-02
         - 1.3393490873088431e-02
         - 2.0821618616464040e-02
         - -1.4648308324541984e-02
         - -2.0382896729456118e-02
         - -3.4668011365120808e-06
         - -1.7908421560725945e-03
         - -2.3041628950972622e-02
         - 2.9862835537384658e-03
         - 2.7301857426316006e-02
         - 1.0478975309992136e-02
         - 1.6995589240562180e-02
         - -8.5773709403745672e-03
         - 8.5652515556712411e-03
         - 2.5961594284022074e-02
         - 2.1944592300799461e-02
         - 2.6862767959558987e-02
         - -4.8414224315577424e-03
         - -1.1708677586104227e-02
         - -2.5912896231441447e-02
         - 1.6810774160623505e-02
         - 2.0802589355777706e-02
         - 4.0217498914123821e-03
         - 1.2896509376509624e-02
         - 1.9225394768415387e-02
         - 2.1940012643231522e-02
         - -2.2909505633231908e-02
         - 5.8100864346119115e-03
         - -2.0010709872405497e-02
         - -1.5482005231232441e-02
         - -8.3519842910188720e-03
         - 1.3608708663300802e-02
         - -4.1968805468781704e-03
         - 1.8969228237561860e-02
         - 4.2335555376285527e-03
         - -1.2142957784797901e-02
         - -2.1870367425600678e-02
         - -1.1171585577037037e-02
         - -7.8955478100548818e-03
         - 1.6612200868899047e-03
         - 3.8284628226688310e-03
         - -1.1926767880695526e-02
         - 1.5740335566924002e-02
         - -1.0315550955894792e-04
         - 1.2605585364423442e-02
         - -7.4173840376476532e-03
         - 1.7447537927939277e-02
         - 1.7422031325837660e-02
         - 2.4273816108267990e-03
         - 6.0433521349641389e-03
         - 2.2877507582490225e-02
         - 2.3168044361055483e-02
         - -1.3831437923075307e-02
         - -7.6060410636453590e-04
         - 1.0637135938384477e-02
         - 2.5684920035826467e-02
         - -1.2284300214478357e-02
         - -7.1544212069970733e-03
         - -3.6144418014948474e-03
         - 2.0009723811552676e-02
         - 2.5387719302539708e-02
         - -2.3823183506175672e-02
         - 2.1148892599371003e-04
         - -1.4869123965310260e-02
         - 2.7782448374767722e-02
         - -1.2655134240387120e-02
         - 1.5481733959937552e-02
         - 1.4643255860925566e-02
         - -2.8826692913132227e-02
         - 2.1840493951863004e-02
         - -2.3224856069351089e-02
         - 1.4981948264772003e-02
         - -9.8516363070769008e-03
         - 1.9333663942257311e-02
         - -1.8605112373711871e-02
         - 1.3277189068108713e-03
         - 8.5536935756786309e-03
         - -1.0464872659305466e-02
         - -2.8077119099405020e-02
         - -2.6935456185702730e-03
         - -1.1232174725030660e-02
         - 2.8651752993589810e-02
         - -2.1516738442268570e-02
         - -6.4656057796703007e-03
         - 1.3872216167440976e-02
         - -1.7417016380976216e-02
         - 2.9795384004351586e-02
         - -2.7619734223014045e-02
         - 1.9261657136132083e-02
         - -2.0518995770131894e-02
         - 2.4608544281184419e-02
         - -2.4218191192791800e-02
         - 2.5628484806738707e-02
         - -2.4220763891095804e-02
         - -2.6322834968059254e-02
         - -2.5096433241350450e-03
         - 1.6659428638612719e-02
         - 2.3205916259836080e-02
         - -1.8117368209208903e-03
         - 1.2048325981011442e-03
         - 5.7760389814788884e-03
         - 1.9713754972431802e-02
         - 2.7128392090673310e-02
         - 2.4213491625770404e-02
         - 1.0250892369885389e-02
         - -1.6075155187012601e-02
         - 1.8768537077167528e-03
         - 1.7785537697701075e-02
         - 2.6283161351924211e-02
         - -1.3398572998613599e-02
         - -1.4070694923387615e-02
         - 2.0821778525339441e-02
         - 1.2746264298527042e-02
         - 2.5865912012772420e-02
         - 1.1332373211737532e-02
         - -8.1702618089038968e-03
         - 2.0035683165581356e-02
         - 1.0628703686318306e-02
         - 1.3729587327332116e-02
         - 1.0900044353204002e-02
         - 1.1044882432313493e-02
         - -1.0157342153184713e-03
         - -3.6315736811030333e-03
         - 1.0998062145809987e-02
         - -7.8600393181026094e-03
         - -2.1329730140133625e-02
         - 2.1474993977381420e-02
         - 5.9978502160956569e-03
         - 1.6136378764667537e-02
         - 8.1690651518428071e-03
         - -1.0967741930220078e-02
         - -1.9570846581629366e-02
         - 2.8775587336344308e-02
         - 2.2402329899594859e-02
         - -1.9431817791138367e-02
         - 1.4176847321915124e-02
         - -4.9877525299732092e-03
         - 1.3592971522441259e-03
         - -2.1262500612829388e-02
         - -2.2385662638850772e-02
         - 9.4733084679408004e-03
         - 2.2723740891001234e-02
         - -1.4184132921103113e-02
         - 2.8203909276834770e-02
         - -1.3463846059446876e-03
         - 1.4407429741231929e-02
         - 1.9330651210127319e-02
         - 1.9073075643002507e-02
         - 1.3694104410362274e-02
         - -2.3410988739672456e-02
         - 3.0316192964635370e-03
         - 2.0027362013860732e-02
         - -1.2076709992308405e-02
         - -5.8027137955718681e-03
         - -7.9657162341046257e-03
         - 1.7647359287659068e-02
         - 1.4414971962341240e-02
         - -9.3554208999894388e-04
         - 2.4852595649025142e-03
         - 2.1254868319601308e-03
         - 1.1758359032157299e-02
         - -2.3943389474412328e-02
         - -2.2193818860441479e-02
         - -2.6146754467600994e-02
         - 1.0126089370705783e-02
         - -9.7446406088766372e-03
         - 4.1742166753929669e-03
         - -2.0563956025241213e-02
         - 1.8850118296227861e-02
         - -5.8957538830496830e-03
         - 2.5820268079924276e-02
         - 1.3621876682275470e-02
         - 2.1382632926174500e-02
         - -1.5963151989730931e-02
         - -5.8276899415284425e-03
         - 9.6090931825658973e-03
         - -1.0242554170492161e-02
         - 2.4084354827899418e-02
         - -2.5032812494850998e-02
         - -1.2124642439144757e-02
         - -8.1599884006553491e-03
         - -7.0004115027227252e-03
         - -4.1069874576979718e-04
         - -3.9337462720886287e-03
         - -9.0749807260096810e-03
         - 2.0948701941843190e-02
         - -1.6945479922701234e-02
         - 2.4647593921563665e-02
         - -1.3365796839911280e-02
         - 1.8765765909983995e-02
         - -2.2621316118324315e-02
         - -2.5540287947487646e-02
         - 6.7364561861547765e-03
         - -1.4896266799265520e-02
         - 1.3158310724411383e-02
         - -2.0769400200144664e-03
         - -1.0402165286668413e-02
         - 2.5296264904947425e-02
         - -1.3197910656312040e-02
         - 4.9511075508129878e-03
         - 2.0337120507363970e-02
         - 2.5344972894657314e-02
         - -7.8578756695041971e-03
         - -2.0676256006617093e-02
         - -4.7454207743492455e-03
         - 1.1356658278356925e-02
         - -1.9576239739654269e-03
         - 1.6149412746511192e-02
         - -1.9641802160589278e-02
         - 5.7678969054590634e-03
         - 3.8321449892618339e-03
         - -1.0535879445481278e-03
         - -2.0477409848285253e-02
         - 9.3602099396098530e-03
         - -2.9235068234631158e-02
         - 1.1347076555876665e-02
         - 1.2113321039695365e-02
         - -5.7477964360705958e-03
         - -8.5620416521431323e-03
         - 1.5013279898516132e-02
         - 1.0597056858191371e-02
         - 2.5840172538775293e-02
         - 2.5035155685357947e-02
         - -1.6828388434290298e-02
         - 2.2799011799134520e-02
         - 2.3497331876762676e-02
         - -1.4982995749124449e-03
         - 1.5656042856955286e-02
         - 1.8939467965743743e-02
         - 9.6861573820544531e-03
         - 2.6471789046990064e-02
         - 4.2803819700077605e-03
         - -1.2180994511145361e-02
         - 3.0110542612750203e-03
         - 4.3953405760572785e-03
         - -1.5396679840695373e-02
         - 1.2419292251994602e-02
         - -1.7451830749729169e-02
         - 9.3063275885569910e-03
         - -1.3280992728255272e-02
         - 8.0102157780303444e-03
         - 2.2443276641843615e-02
         - 2.4560531523094720e-03
         - 1.9428814821132546e-02
         - -2.5298267565309663e-02
         - 2.9058229505487847e-02
         - 2.5742628342344566e-02
         - 2.8506575156138632e-03
         - -4.2873513813745292e-03
         - -1.9520246345458216e-02
         - -2.7378952451131280e-02
         - 2.1076553938934345e-02
         - 2.6096056850235172e-03
         - 1.9585711874946343e-02
         - -2.0605322073648898e-02
         - -1.1164798259504038e-02
         - -2.1340185069329602e-02
         - -2.1815996141425376e-02
         - -2.1431348724493801e-02
         - 1.3919948760375356e-02
         - -8.7038404802592447e-03
         - 8.6589016723802332e-03
         - 7.2867620816911708e-03
         - -2.0655413192996411e-02
         - 5.0650656727705013e-03
         - -9.0381909034598822e-04
         - 1.7659834503592674e-02
         - -3.9375451409294536e-03
         - -1.8324948937427522e-02
         - 1.2506030783019919e-03
         - -5.5854331901456110e-03
         - 2.7612953009067999e-02
         - -7.4088328035364090e-03
         - -8.5737504643853546e-03
         - 6.6011312256532223e-03
         - 1.2236508741818830e-02
         - -2.3157882129983473e-02
         - -2.3614369260427794e-02
         - -9.9720538369424006e-03
         - -1.8537977510019583e-02
         - 2.3911079841735208e-02
         - -5.8393900630125976e-03
         - 1.8214280411179957e-02
         - 1.6191738260427427e-02
         - 2.7233501114715529e-02
         - 9.4640898243345279e-03
         - -1.0746996271117793e-02
         - 2.4644122399800628e-02
         - 1.9362094232257852e-02
         - 2.0220539848785227e-03
         - -9.8451939979666138e-04
         - -1.6247813075156305e-02
         - 2.6173590128725905e-02
         - 1.3867206131074528e-02
         - 1.2045823173190992e-02
         - -7.7232616204785352e-03
         - -1.6126652926098814e-02
         - -1.3866634538197435e-02
         - 2.6737756445717287e-02
         - 2.0430715058071761e-02
         - 1.1889900083465027e-02
         - -1.8867203676096189e-02
         - -3.9950212480748173e-03
         - 6.3538458866092976e-03
         - -1.0234393767824970e-02
         - -1.0762158803360745e-02
         - -1.4721679794017024e-02
         - -2.4727260180029385e-02
         - -5.9848064421338725e-03
         - 2.0229119618491966e-02
         - 1.0822142794901013e-02
         - 1.9125457329635723e-02
         - -1.8726559804741246e-02
         - -2.4173419596469257e-02
         - -1.9477271319206166e-02
         - 1.9323385568063428e-03
         - 2.5320282145680269e-02
         - -5.1489246350289652e-03
         - -1.9149351348508745e-02
         - -2.1640200835582084e-02
         - -7.9349599640497144e-05
         - 1.1480234382308621e-02
         - -1.4749416176800258e-02
         - -9.0596839694278303e-03
         - 2.1046652584639069e-02
         - -6.5572259143064672e-03
         - -1.9640958104369520e-02
         - 9.9453858965085403e-03
         - -4.0337785857077748e-03
         - 1.2331076967440020e-02
         - -1.9932480527903508e-02
         - -1.8717826919146058e-02
         - -1.7434548960414940e-02
         - -2.2773330702357771e-02
         - 1.3771516752775243e-03
         - -2.5094559803066473e-03
         - 2.3196187963620250e-02
         - -1.7314957177278318e-03
         - -2.4686910036002176e-02
         - -2.1083064200134180e-03
         - -1.4497276301205819e-02
         - -1.6492449740199078e-02
         - -1.6402628626039972e-02
         - 1.5237271315341260e-02
         - 2.2132671034602255e-02
         - -3.1235207940049693e-03
         - 1.6445728961566222e-02
         - -2.2152092568302026e-03
         - -1.7340702387526531e-02
         - -2.0971870989026729e-02
         - 1.8407040925544793e-02
         - 2.6909108575131714e-02
         - -1.5103157571318240e-03
         - 1.9011223308294096e-02
         - 1.7941875740449170e-02
         - -1.3203612954833448e-02
         - -1.6439586919450694e-03
         - -1.3896356655485198e-02
         - -2.4219366032003736e-02
         - -1.6497223262563951e-03
         - -5.8336565475146287e-03
         - 2.1847560340163538e-02
         - -1.9679705696781898e-02
         - 1.4217875149740317e-02
         - 1.3696308740248967e-02
         - 1.8432073805642449e-02
         - -2.1380300317489102e-02
         - -1.2328684716898229e-03
         - 8.8721240714991854e-03
         - -2.3610658298466560e-02
         - -2.5437089838370546e-02
         - -1.4988005637181888e-02
         - -2.8714418408975792e-03
         - -2.3584972887896578e-02
         - 1.1917180811974975e-02
         - -1.0420696155435406e-02
         - 1.5903981826645559e-02
         - -1.9676702869928349e-02
         - 1.5528138134224833e-02
         - 1.5626580635650790e-02
         - -2.3846588464502719e-02
         - 2.4967788373217625e-02
         - 8.4083604187382439e-03
         - 1.6006100340239156e-03
         - 1.7699176529540513e-02
         - -2.1644073849236171e-02
         - -2.0167409704658867e-02
         - 1.1482664919070990e-02
         - -1.7231082915797363e-02
         - 5.2957540027059038e-03
         - -1.4622078374034585e-02
         - -8.8608200340820186e-03
         - 2.1861149318694231e-03
         - 2.6629540051757654e-02
         - -2.4981292266789929e-02
         - 2.7544818035537899e-03
         - -2.5774241708111698e-02
         - 5.1593709395124253e-03
         - 9.3664858095515952e-04
         - -2.7124834728379562e-02
         - -3.9084754017897263e-03
         - -9.8750409891738052e-04
         - -2.6816367779982087e-02
         - 1.3206794061642177e-03
         - 9.4110081240663668e-03
         - 1.2843977083010227e-02
         - -1.2893668864059085e-02
         - 2.9706502728462265e-02
         - 2.4456682807112106e-03
         - 1.3589047710929909e-02
         - 3.2626710959916248e-03
         - 2.7871069978350597e-02
         - 5.7849734492313948e-03
         - -2.3240564419143826e-02
         - -3.0427827337934342e-04
         - -1.3739522779764051e-02
         - -8.3866457046134976e-03
         - -3.0379137128092436e-03
         - 2.4508938037535070e-02
         - 1.7164898733968044e-02
         - 4.8548884837925726e-04
         - -1.0434904323738026e-02
         - -3.8566219047368811e-03
         - 1.9197233021642474e-02
         - 1.3024096562048258e-02
         - 1.0953654327566814e-02
         - 6.6285968016765260e-03
         - -2.5498372907630972e-02
         - -1.5294850258711268e-02
         - -2.2748898130400819e-02
         - -1.5154277773957495e-03
         - 2.1642706112617600e-02
         - 2.6489452463676108e-02
         - 1.8284821254604271e-02
         - 1.4974850239715532e-02
         - -7.3642144926586378e-03
         - -1.6191316125758810e-02
         - -1.7410701839708856e-03
         - 2.4660794497005076e-02
         - 1.9862592663681150e-02
         - -2.3948907856719583e-03
         - 8.5602602895589394e-03
         - 1.6431094697937673e-02
         - 9.7819875953469339e-05
         - -1.9481192305501230e-02
         - -2.8097579901804051e-03
         - -1.2314225224843513e-02
         - -1.3825253940119301e-02
         - -2.5846590000692296e-02
         - -1.1477216896025846e-02
         - -5.4470508150164356e-03
         - 2.2409573401421974e-02
         - -1.5060186359676608e-02
         - 2.5327098891801198e-02
         - 1.7190856335461586e-02
         - -1.6757306608146533e-02
         - 1.7851823191065399e-02
         - -3.1375901397192080e-03
         - -1.0596794614435646e-02
         - -1.2547799610005465e-02
         - -1.3025384826389867e-02
         - 1.6719026284099218e-02
         - 1.4638683243189392e-02
         - 2.4829425390856988e-02
         - -9.8465241842870979e-04
         - -3.7607582477535845e-03
         - -1.1407556267593188e-02
         - 8.5976806896041792e-03
         - 1.4990161363052963e-02
         - 1.4888021825249498e-02
         - 2.2403852293520978e-03
         - 2.0607207021877485e-02
         - -1.4697834405514275e-02
         - 5.3103202959863096e-03
         - 8.4588903869404382e-03
         - -5.7969329442714959e-04
         - -1.9234975985657161e-02
         - -2.2512687691188766e-02
         - 1.4908435836108146e-02
         - -1.4985254269416370e-05
         - -1.8986242726353360e-02
         - -2.1942189189615723e-02
         - 2.2589239776440945e-03
         - 6.2148431731250441e-03
         - 2.7752774725533551e-02
         - 9.4712256346284329e-03
         - 5.0431588130289062e-03
         - -2.3830262015112857e-02
         - 7.9923748280713875e-03
         - -1.8776472411975241e-02
         - 1.4449866689197016e-02
         - -4.0402765620710848e-03
         - 5.4502064748311226e-05
         - 4.1623708936894830e-03
         - 1.9801694762904123e-02
         - -2.2800867299897287e-02
         - -1.9306664432465495e-02
         - -4.1891504504376854e-03
         - -2.7173987056602202e-02
         - 8.7782732950193072e-03
         - 2.4644425454248574e-02
         - -2.9016809997125550e-02
         - 7.0604001491383298e-03
         - 1.1129069683761905e-02
         - 1.8913046861718585e-02
         - 2.9156951767630127e-02
         - 1.6829488357876728e-02
         - 1.4745990639032836e-02
         - 2.8033503899072142e-03
         - -2.3209755075368110e-02
         - 2.5516929318204502e-02
         - -6.9719143260575803e-03
         - 8.0103737406602184e-03
         - -1.9180082157235288e-02
         - -1.7118251524801047e-02
         - -1.5412089406910929e-02
         - 1.6696148839964547e-02
         - 1.6856115186999296e-02
         - -8.4246290598683935e-04
         - -1.0616158780848019e-02
         - -8.8401853033838428e-03
         - 1.1100947162699435e-02
         - -8.4312895512054058e-03
         - 1.5498686577935445e-02
         - 2.3207235815283677e-02
         - -9.7589020141233308e-03
         - 2.1152108112981711e-04
         - 1.4141246551294284e-02
         - 2.7568557204250819e-03
         - 2.1773410029792283e-02
         - -2.0002889293568756e-03
         - -2.7637252001835960e-02
         - 1.5670774377680406e-02
         - -1.8503127031441996e-02
         - 7.6382362645966272e-03
         - -2.9014130817033714e-02
         - 9.0749609751108878e-03
         - 2.7500399670219808e-02
         - 6.1593920238466457e-03
         - -2.1016658084476113e-03
         - -2.7518153750597813e-02
         - -1.4720677737667236e-02
         - -2.0472938674159100e-02
         - -1.0105508906729999e-02
         - -2.4832434843394684e-02
         - 9.5064699507074104e-03
         - -2.0119414526172913e-02
         - 8.6674344954180711e-03
         - -1.5171405642853820e-03
         - -1.5972173666143948e-02
         - -2.0868670534229920e-02
         - 2.3299112422753364e-02
         - -1.5910921378347261e-02
         - -1.5772831029330664e-02
         - -9.2253877091472113e-03
         - 1.2076707091487870e-02
         - -1.3808391522633953e-02
         - 1.9594138979914959e-02
         - -1.7930548300979437e-02
         - 1.7296954586937911e-02
         - -2.5430273412814501e-02
         - -1.8094970645248652e-02
         - 1.9786816676165154e-02
         - 6.5864159656741084e-03
         - 3.0555509184144584e-03
         - 1.0808934015402049e-02
         - 2.8221858892904933e-02
         - 1.6041420481301178e-03
         - -2.5301588023299088e-02
         - 2.1911762089310633e-02
         - -4.4111991968124979e-03
         - 2.4606738418249265e-02
         - 1.8583080877532822e-03
         - 1.2382971864326145e-02
         - 2.6441447161076125e-02
         - -2.5241548493286820e-02
         - 9.4979409857812742e-03
         - -1.2359414188982062e-02
         - 1.2286419969914825e-02
         - -3.9622939471438585e-03
         - -8.4488791738857160e-03
         - 2.4530334784354780e-02
         - -6.3412677773555331e-04
         - -9.5083754391039037e-03
         - 1.0354080187412673e-03
         - -2.2875381761168035e-02
         - -1.6463869155072027e-02
         - 2.5595519877422628e-02
         - 1.7778108222064985e-02
         - 6.4568652160604603e-03
         - 1.6728436662345282e-02
         - -1.9031785847009288e-02
         - -7.9349306384051375e-03
         - -1.2205435104122994e-02
         - -1.8264646485041745e-02
         - -2.5871035852987969e-02
         - -2.3635490408474610e-02
         - 1.4691196482541465e-02
         - 2.8739173042937209e-02
         - -2.2227888253607362e-02
         - -2.1390791441791901e-02
         - 4.4461532455136142e-03
         - -1.9035643502845059e-02
         - 2.7181286192537582e-02
         - -4.1612287048558754e-03
         - -2.8055417637471217e-02
         - -1.6440875017007653e-02
         - -2.3968102216359133e-03
         - 1.0619893457948859e-03
         - 6.9816762886647605e-03
         - -1.9546000697524678e-02
         - 2.0280189323825439e-02
         - -9.7125776448828624e-03
         - -2.2038354523634909e-02
         - -1.8874130755426953e-02
         - -4.8179171906042968e-03
         - -1.9469173022721723e-02
         - 1.5155923198432092e-02
         - -2.2580051080041109e-02
         - -2.4394461242032372e-03
         - 1.4038584366086253e-02
         - 5.5531450854609064e-03
         - 1.7600085346787465e-02
         - -1.8058166012959440e-02
         - 2.0801570892474797e-02
         - -1.2567303458134999e-02
         - -1.9957722673149943e-02
         - -1.2302272600449773e-02
         - 1.6029005971403103e-02
         - -1.8518314263191220e-02
         - -1.0935545567296314e-03
         - 1.1649922548422736e-02
         - -2.2609253207931931e-02
         - 5.2916261731179252e-03
         - -2.9057219288427603e-02
         - 2.2957200485816693e-02
         - -2.9767351087904036e-02
         - -1.8866727556874335e-02
         - -3.8176296237887233e-03
         - -2.3758359940107686e-02
         - -1.7047833781861782e-02
         - -7.2633741031660239e-03
         - 2.1549824106587928e-02
         - -1.9001843257013012e-02
         - -2.2731311554825322e-02
         - 1.5144842050337231e-02
         - -2.4480575708153147e-03
         - 1.4280857156235009e-03
         - 1.4619177798133440e-02
         - -1.2091445484687716e-02
         - 3.4589145478173162e-03
         - 1.4456463976231907e-02
         - 1.5021343844413555e-03
         - 7.9872276868217171e-03
         - -2.9396974761880367e-03
         - -2.6846593589188623e-02
         - -2.5035801986754251e-02
         - -1.3188787925518149e-02
         - -1.6039257471893848e-02
         - 1.4982958460069177e-02
         - 2.1709387790951690e-02
         - 2.6831511691997600e-02
         - 4.6133903880741988e-03
         - 7.5376552887043537e-03
         - -5.2188267616208595e-03
         - 2.2124932735721446e-02
         - -1.1983151246935863e-02
         - 1.0828131964760434e-02
         - 2.7758217512866359e-02
         - 1.4865632100199233e-03
         - 1.3443462088011230e-02
         - -2.1061950158361580e-02
         - 1.5344853270681021e-02
         - 3.1313630787795136e-03
         - -2.4181504927881708e-02
         - -2.3469107298645736e-02
         - -8.1637895038086748e-03
         - -1.1320962973102427e-02
         - 2.6480921281291685e-02
         - -2.3881663810521297e-02
         - 1.1570714939150325e-02
         - -2.0567568580435663e-02
         - -2.5527922821505792e-02
         - 2.7572236468484210e-02
         - -6.7523800236804195e-04
         - -2.4383133239491126e-02
         - -7.0936143904532759e-04
         - -2.4651552392771531e-02
         - 7.6354689222609372e-04
         - 9.8547125896334391e-03
         - -1.7907596754606465e-02
         - -1.4103915468605394e-02
         - -1.4462974680450673e-02
         - 8.9412167210656621e-03
         - -4.2259006019983291e-03
         - 1.8432407264052927e-02
         - 1.7242256687972749e-02
         - 9.6616623441646374e-03
         - -1.3882422636371461e-02
         - -2.1394688064408866e-02
         - -2.0900269855514022e-03
         - -1.9052373823471413e-03
         - -2.0734110002766721e-02
         - -3.2525176703890510e-03
         - 2.4528522337456057e-02
         - 2.1774017271639124e-02
         - -1.6095629745263754e-02
         - 2.1725032148343964e-02
         - 1.6521084053824277e-02
         - -7.9220565439779757e-03
         - 9.9360454874558822e-03
         - 2.7296866551261624e-03
         - 1.9707908697972329e-02
         - -1.0608709252766458e-02
         - 3.3769154119688114e-03
         - -1.7244626252720965e-02
         - -2.9265692886250003e-02
         - -1.4696201872858920e-02
         - 1.3956933287783101e-02
         - -9.9684274236981393e-03
         - -2.6399319765560349e-02
         - 1.8316444799810282e-02
         - -2.4481710535801657e-02
         - 1.0434035970424230e-02
         - -2.1389333194084370e-02
         - -3.5572332187164290e-03
         - 2.6415925397316114e-02
         - 2.5625419918401400e-02
         - 2.3321616400238821e-02
         - -6.0006885333967041e-03
         - 2.3086059227826070e-02
         - -1.3659844633643564e-02
         - 1.2732286534573797e-02
         - -1.9837208235675547e-02
         - 8.2529672078402207e-03
         - -9.3488181916555873e-03
         - 1.6063518320214683e-02
         - -2.2038557301001856e-02
         - 1.1179164431672918e-02
         - -1.8555077417490084e-02
         - 1.2108490698848237e-02
         - 1.8824028274823268e-02
         - 1.4664410959190990e-04
         - -1.4488117564568708e-02
         - 2.9236488520601976e-02
         - -1.8980449644245941e-02
         - -2.2553234248100566e-02
         - -2.7954534864459004e-02
         - -4.8613893487003054e-03
         - -2.8464589781695731e-02
         - -5.1445299293950671e-03
         - 4.9569381056928149e-03
         - -1.5011032609735960e-02
         - -1.5910891145395480e-02
         - -1.4256689094606810e-02
         - 1.7126626164888428e-02
         - -1.4521005560091230e-02
         - -9.9127953561815724e-03
         - -1.7166130098805150e-02
         - 1.6165094361555909e-03
         - -2.5457333284339842e-02
         - -1.6796920683528345e-02
         - -5.2090622410136899e-04
         - -1.9899902745329500e-02
         - -1.9546995561278622e-02
         - 1.8810910667394182e-02
         - -3.7547782267377419e-04
         - 7.2393466257495266e-04
         - -2.3633304994640468e-02
         - 2.7106094441718805e-02
         - -7.0123459265560338e-03
         - 2.1717825617437628e-02
         - -2.5912700045554203e-02
         - -6.5479942586110281e-03
         - 1.3456116694842679e-02
         - 2.3114826074952310e-02
         - -2.3000119972519113e-02
         - 1.5478734549291244e-02
         - 6.8719689297871570e-03
         - 7.3279291014741229e-03
         - -1.9906675645756013e-02
         - 1.7499716174863095e-02
         - -5.4664115713265165e-03
         - -2.3028278914589639e-02
         - 1.2639989452950723e-02
         - 2.4759284642578386e-02
         - -1.7452301565398183e-02
         - -2.1152990408721335e-02
         - 4.4941890564841516e-03
         - 1.1411116939200447e-02
         - -1.0840144188109437e-02
         - 6.2878064630674949e-03
         - -1.3961618718712382e-02
         - 7.8346572119127600e-03
         - -1.5350217423814501e-03
         - -2.0024417729083571e-02
         - 4.5204117138972115e-03
         - 3.4188265950569688e-03
         - -1.0244515609758172e-02
         - 2.5626556378456775e-02
         - -2.4963508103982738e-02
         - -2.2819502458590390e-02
         - 1.6009676135683062e-02
         - -1.5915549101841630e-02
         - -1.2832519429673703e-02
         - -6.1754473179431802e-03
         - 1.9365612348802679e-02
         - -2.0625257678264581e-02
         - 2.6362296943885127e-02
         - -4.7842326596772480e-03
         - 3.7015208029854392e-03
         - -4.0575777101343434e-03
         - 1.8288118826267706e-02
         - 2.4843497507003265e-02
         - 4.8470188398327708e-03
         - -1.6579485030287812e-03
         - 2.4453444094443076e-02
         - 2.4480758951837475e-02
         - -4.0286829791373550e-03
         - 2.0528847610853617e-02
         - 5.8682962073976653e-03
         - 1.5615430080183106e-02
         - -1.7687956841051629e-02
         - -1.4517434230299806e-02
         - -1.1417142775893055e-02
         - 1.2669939301294906e-02
         - 1.2114241444793311e-02
         - 2.0569755583786337e-02
         - 2.5019518523560633e-02
         - -2.5491688483475897e-02
         - -1.7305458384144698e-02
         - -2.1233691746836845e-02
         - 1.8704024223381401e-03
         - -1.8043337430044257e-02
         - 1.5116026041905465e-02
         - -1.0862583190108124e-02
         - -3.0529926928484696e-03
         - 2.2466870274011366e-02
         - -5.8357400143122492e-03
         - 4.0224313597673157e-03
         - -1.6623561626498119e-02
         - -1.5509372709464685e-02
         - 1.7580872112992647e-02
         - 1.9795258278399275e-02
         - 2.0367732836297975e-02
         - -3.4317012087268480e-03
         - 1.9883748661935648e-02
         - -2.6586055781673022e-02
         - 5.5332796844390325e-04
         - -1.1676046046553619e-02
         - -1.4566542281029474e-02
         - -3.1896186265488046e-03
         - -6.9272861296428645e-03
         - -1.0907605448736377e-02
         - 1.4815474635885286e-02
         - 8.1978332428690528e-03
         - 9.9283950698209437e-03
         - -1.8284878465581321e-02
         - -1.0082015124680190e-02
         - 2.8039111349402200e-02
         - 2.0515575787748465e-02
         - 1.7064987669698924e-03
         - 2.0299565084863261e-02
         - 5.5538973160833595e-03
         - 1.8283046072239316e-02
         - 1.7631042685101947e-02
         - 6.1785688100372375e-03
         - -7.2809909777055435e-03
         - 7.3176964355809787e-03
         - 1.6867076919780757e-02
         - -1.1897108906378755e-02
         - 2.8629767722548206e-03
         - -1.5195172782291721e-02
         - 1.8899957023495437e-02
         - -1.2989697908091041e-02
         - 1.9261820322951716e-02
         - -6.8080452800410741e-03
         - 1.1858367625004406e-02
         - -2.1013222114168402e-02
         - -1.6549298200183464e-02
         - -1.6115419482788673e-02
         - -7.9598220919669723e-03
         - 2.8751507380681621e-02
         - 1.7495935806432536e-02
         - -2.3421077916941365e-02
         - -1.5336885762025708e-02
         - -1.2828531793972600e-02
         - -1.4377473404828235e-02
         - -2.4171289587307534e-03
         - 1.0003824722076488e-03
         - 2.5005274380064380e-02
         - 2.6629067987117394e-02
         - -9.2002894239066220e-03
         - -6.7409923661660301e-03
         - 2.6790347665885984e-02
         - 2.6190913063725632e-02
         - -5.5639349386868162e-03
         - 1.8510448263605799e-02
         - -6.2961799030280203e-03
         - -2.3491283607158703e-02
         - 6.9924827060716069e-03
         - 2.1841999522950486e-02
         - -8.6175407873002180e-03
         - -9.5873714819053601e-03
         - 2.8561664418789282e-02
         - -2.7518218059559688e-02
         - 2.9705510760229489e-03
         - 1.4386543617165974e-02
         - -6.0385165433969566e-03
         - 9.1831493383522315e-03
         - -2.4744694898716408e-02
         - -1.2594123497762870e-02
         - 2.8055925646698478e-02
         - 2.2785771680390074e-02
         - -1.1603149379872430e-02
         - -2.1957139517850183e-02
         - 7.5447438682026838e-03
         - 2.2269635598877419e-02
         - 1.9043537250810691e-02
         - -3.2115000043543233e-03
         - 2.2357785068235644e-02
         - -8.9845269391021429e-03
         - -1.1684539746104460e-02
         - 4.7512072223119348e-03
         - 1.9878661514633493e-03
         - 1.7929466051015471e-02
         - 1.9108800815352590e-02
         - -3.8943324399961544e-03
         - 2.3815264708526702e-02
         - 1.0617510361723868e-02
         - 1.6672043549313877e-02
         - -4.0839251402406936e-03
         - -1.6110128809889660e-02
         - -2.6808929636343209e-02
         - 2.4512663916570716e-02
         - -1.4226207876936242e-02
         - -1.6273079135011272e-02
         - 1.6176456593343491e-02
         - -2.1186702514234511e-02
         - -6.4731558770834228e-03
         - 2.2038122048239166e-02
         - 1.8328092931496436e-02
         - -1.5350724162665353e-03
         - 2.5689522219045909e-02
         - -6.7226630658754928e-03
         - -1.5340839616956113e-02
         - -8.4877057939586904e-03
         - 4.0441916587694825e-03
         - 7.1242730980976311e-03
         - -2.2013136969012203e-02
         - 8.3454686691545265e-04
         - 1.7401105111045489e-03
         - -1.6943442240137625e-02
         - 1.6498173920317594e-02
         - 1.4530694456014962e-02
         - 1.1730679205898207e-02
         - 1.4937764365363036e-02
         - -1.7352072254306527e-02
         - 1.9031156431895201e-02
         - 8.3323115197722359e-03
         - 1.3486999433255034e-02
         - 5.7358239713975706e-04
         - -2.6172752680779267e-02
         - 1.0546699539866389e-02
         - 4.3663390880355670e-03
         - 4.3775642335347363e-03
         - 2.1492683312738025e-02
         - 8.1908484440211121e-03
         - -1.6924190157986740e-02
         - 1.9684439322114031e-02
         - -1.4078229255197158e-02
         - 2.0357047740952650e-02
         - 1.6438379319746010e-02
         - 2.5774416418925309e-02
         - 1.8496961449485282e-02
         - 2.8103137434337053e-02
         - -1.4408787758781875e-02
         - -5.4938456511618352e-03
         - -6.3306604966353909e-03
         - -2.2769984723221427e-02
         - 1.3729705870572444e-02
         - -2.1738196069676179e-02
         - -1.1121284063441501e-02
         - -1.0731097085409555e-02
         - 1.1434827279615109e-02
         - 2.8361350485346975e-02
         - 1.3918675358221756e-02
         - 6.0323994924431070e-03
         - 1.7046021446293476e-02
         - -3.0561559820322082e-03
         - 1.6215667954998254e-02
         - 1.4925004268026305e-02
         - 3.2443438197980040e-04
         - -1.4523251427326434e-02
         - -1.6795695038457008e-02
         - -2.6902847070371199e-02
         - -2.4409108520741036e-02
         - -2.0473709747452898e-02
         - 2.7131269817951994e-02
         - -4.5053643485443258e-03
         - 2.8228511824463273e-02
         - -1.6713983921863566e-02
         - 1.0420713584518574e-02
         - 2.8484676121834935e-02
         - 2.0664263396162841e-02
         - -7.2603041125300569e-03
         - -1.3243942505662892e-02
         - -1.1243687043118868e-02
         - 6.9084649874945128e-03
         - -2.1833898371327390e-02
         - 2.2785771424049698e-02
         - 2.3110887539190869e-02
         - 9.0585735020335071e-03
         - -7.6619560016921622e-03
         - -2.2585464319819469e-02
         - -2.1678938099057916e-02
         - -2.3708083638749208e-02
         - 5.9482406099463274e-03
         - -7.8181971649378453e-03
         - -2.7730338329273060e-02
         - 1.1837502275314046e-02
         - 4.1958664844234106e-03
         - -8.1356907482749413e-03
         - -2.3032755111477683e-02
         - -5.0852268442963776e-03
         - 8.1531947707270611e-03
         - -1.4077109336315166e-02
         - 1.4538512154686699e-02
         - 4.4602813906940405e-03
         - -2.1771912715286921e-02
         - -1.2030885785729388e-02
         - -2.2082048339702939e-02
         - 2.2716378030823981e-02
         - -9.2141792725217390e-03
         - -1.5767860260046267e-02
         - 2.3301671676382075e-02
         - -5.5418995012378467e-03
         - 2.6604440268449773e-02
         - -1.9520883030050246e-02
         - 1.0685354305659537e-02
         - -1.8596982266176565e-02
         - -1.7720876538636618e-02
         - 1.4565597224663215e-02
         - -1.6778310862984005e-02
         - -1.4323362179455023e-02
         - 3.8955405141696087e-03
         - -2.7634300135212560e-02
         - -2.8130933132940034e-02
         - 1.8792077451278255e-02
         - -2.1330932144021212e-02
         - -1.5526942274095262e-03
         - 2.2340834028296529e-02
         - -1.4600891979781349e-02
         - 3.2355346923390311e-03
         - 1.8115475974708785e-02
         - -9.3010530245651139e-03
         - 1.8809414553009527e-02
         - -1.4157510073437993e-02
         - 1.1867653340753535e-02
         - -2.8334043191004583e-02
         - 1.5297306202544648e-02
         - -7.7010432454297081e-03
         - 3.5220609145575990e-03
         - -1.0160316266957226e-02
         - 5.8719189888380716e-03
         - 1.2149273285598415e-02
         - -9.1642062070815440e-03
         - -1.8185181474532162e-02
         - -1.9729204467392847e-02
         - 2.3004707698079645e-03
         - 1.8713921902579620e-02
         - -8.9736173884704708e-03
         - 1.7326470682212675e-02
         - 2.5788161182720005e-03
         - -9.1974959170992975e-03
         - -1.2182111413664653e-03
         - 2.5804827789772593e-02
         - 2.8980102759063216e-02
         - 1.3070604161199128e-02
         - -1.8473753406389657e-02
         - -2.3985984761064946e-02
         - -1.3292793603096736e-02
         - 1.4900188676314144e-02
         - -5.7725375744913177e-03
         - 1.4016539455172561e-02
         - -2.4810058890394865e-02
         - 1.6049423062831161e-02
         - 6.4257255235068336e-03
         - -1.7284507679427609e-02
         - 1.6759593863791336e-03
         - 1.3573281386156009e-02
         - 7.3588502139387297e-03
         - -2.6676697485324367e-02
         - 1.0366436277508401e-02
         - -5.8428366801868735e-03
         - 1.6981936846567493e-02
         - -7.2605729814479341e-03
         - -8.8740735497694657e-03
         - -2.0736470256694950e-02
         - 2.4008322882142472e-02
         - 1.1856606791078070e-02
         - 2.1374961250536326e-02
         - 2.1040190646805960e-02
         - 1.5480263851033580e-02
         - -1.9870803485271091e-03
         - 1.2129127490232048e-03
         - -9.1183149858549174e-03
         - 5.5850146842798907e-03
         - 2.0089998874904424e-02
         - 8.2232033648008632e-03
         - -2.1792914736575970e-02
         - 1.3690602239349200e-02
         - 1.9430221160493524e-03
         - 1.3546597697539822e-02
         - 5.7118669761533859e-03
         - -1.1574782296579810e-02
         - 1.9785253587223453e-02
         - -9.2300727503239648e-04
         - 1.7384712146077494e-02
         - 2.9132551751514337e-03
         - 1.5920801848682452e-02
         - -5.1642888379116129e-03
         - -1.2848990740856521e-02
         - -2.3926792950969566e-02
         - -1.2883870985158568e-02
         - -2.2940480741659511e-02
         - -9.7904926448628225e-03
         - 7.6373571573954595e-03
         - 2.4591722204063407e-03
         - 1.2879800416876853e-02
         - -6.1132827999074001e-03
         - -1.4128328759178742e-03
         - -2.2451190922653155e-02
         - -1.2832858529835702e-02
         - 6.2928615372543368e-03
         - -9.0586663305940677e-03
         - -2.3879846929528777e-02
         - 9.5112384568340723e-03
         - 6.4941541665148922e-04
         - -1.6243554342033555e-02
         - 2.1008900408076969e-02
         - 1.3210445941752207e-02
         - 1.5194869393831727e-02
         - -1.9973409115971820e-02
         - -1.2583845071656505e-02
         - 2.4304469800352231e-02
         - -2.7186875370919007e-02
         - -1.5865519046910168e-02
         - 7.2275729225038414e-03
         - 8.4193926649509601e-03
         - 2.4865610789590216e-03
         - 1.1659703958944452e-02
         - 1.2553587432858178e-02
         - 2.5412740749521717e-03
         - -2.2489419955122283e-02
         - 5.4052230883595391e-03
         - -1.3250981966179869e-02
         - 2.1475024435769024e-02
         - 1.9154878170025293e-02
         - 1.8004468544442702e-02
         - -1.6380501974526753e-02
         - 2.0730884205228317e-03
         - 1.3407531251303851e-02
         - -4.2529555252123529e-03
         - -1.8679821980893033e-02
         - -1.9109969973238477e-02
         - 2.2181752816333871e-02
         - -1.6293462786074506e-02
         - 8.1099044683938092e-03
         - -2.7901557088006707e-02
         - -1.5365004665341643e-03
         - 2.1694469975323091e-02
         - 2.1908117858718924e-02
         - -2.0465570404746999e-02
         - 2.2508380239246221e-02
         - -4.8523736797637584e-03
         - 4.3130352934907775e-03
         - -1.5480540478786754e-02
         - 1.6932738010624206e-02
         - 2.5779606969414903e-02
         - 2.3149307430164169e-02
         - 4.3352335075035747e-03
         - 2.1121197525343239e-02
         - -5.3932584444543732e-03
         - -2.4918948701153679e-03
         - -2.0385082278109277e-02
         - -6.7717815886936608e-03
         - -8.2735472265020281e-03
         - -2.7018500699149368e-02
         - -1.9151788930457493e-03
         - -1.4541416634488916e-02
         - 1.6743621452987446e-02
         - 5.1729537358883018e-03
         - 2.4957720978851478e-02
         - -1.4977452743130965e-02
         - 1.9084092200412951e-02
         - 2.1065259219441031e-02
         - 6.1244991115866117e-03
         - -8.7964829228821852e-03
         - -1.0557499826331276e-02
         - 1.8269193641939210e-02
         - 2.0053075315093819e-02
         - -1.5355920317900808e-02
         - 1.0434151498513729e-02
         - -7.4736548839588425e-03
         - -1.0094855178098511e-02
         - -8.3191231361445326e-03
         - -6.7367508359320550e-03
         - 1.9604541545064059e-02
         - -1.1046638002014286e-02
         - 8.9041312639185511e-03
         - -1.1211756461119327e-03
         - -4.2955594273045329e-03
         - -9.2862939811595938e-03
         - -9.6380848510630205e-04
         - 2.8727737958711879e-03
         - -3.4251486042712474e-03
         - 2.6013747036349556e-02
         - 6.6922435728731231e-04
         - 3.7154662362954665e-04
         - -9.2699191986085512e-03
         - -2.4215815623456539e-03
         - 2.4159279595096114e-02
         - 1.6225694349499376e-02
         - 1.2486865534459652e-03
         - -6.4979589183994796e-03
         - -1.6497809538187531e-02
         - 1.4879551103748329e-02
         - -4.2813798824432375e-03
         - -1.8914301410151681e-02
         - -2.2283454995125931e-02
         - -1.9411860343902767e-02
         - -2.4690094446821784e-02
         - 2.5699251875520770e-02
         - 1.4371730149499402e-02
         - -1.3157203233777373e-02
         - 7.8458664428063471e-03
         - -2.5059005945159672e-02
         - 2.0411163137298381e-02
         - 2.5192929298106743e-02
         - 2.0092411371263191e-02
         - -1.3960064434094250e-02
         - 1.9413736053072360e-02
         - -7.6998574040462661e-03
         - 9.1553164868969084e-03
         - -1.7683970693178688e-02
         - 1.2413374194069526e-02
         - 2.1923740384321593e-02
         - -2.2028732067944094e-03
         - 1.6047513599069512e-02
         - 2.0844660195499859e-03
         - -1.0864552910282342e-02
         - -3.1129018683176239e-03
         - 1.3652694457052477e-02
         - -1.2978239797400120e-03
         - 7.6900384014052517e-03
         - -2.5818410598351202e-02
         - -1.4452026858521655e-02
         - 1.1991179550349371e-02
         - 2.8427169616884122e-02
         - -2.0627960808209143e-02
         - 1.1542364613076655e-02
         - -6.0724213879369496e-03
         - 1.1276263749918299e-02
         - -1.9235668117127035e-02
         - 1.0971475543529776e-02
         - 3.6287351148891589e-04
         - 2.7078217064486175e-02
         - 9.1605564198704824e-03
         - 1.9918330973459766e-02
         - 2.1971401395556093e-02
         - -2.5548539757890277e-02
         - 2.2257866905866456e-02
         - 1.4929796997938149e-02
         - -2.0440061138769977e-02
         - 1.4367928613203578e-03
         - -2.3689897944729196e-02
         - 2.4827299836653854e-02
         - 7.5004757026187509e-03
         - -1.1746249393741673e-02
         - -1.0239419137636631e-02
         - 2.7064275305660506e-02
         - -2.5391650963769016e-03
         - -1.7731891320577082e-03
         - 1.3033947045104587e-02
         - 2.3337253404334082e-02
         - -1.8342159447550389e-02
         - -2.2984724231758086e-02
         - -2.1721252549571083e-02
         - 1.1297610614512978e-02
         - 9.9015312771749200e-03
         - -1.6189914261093494e-02
         - 2.9247750107964376e-02
         - 2.6538710362355347e-02
         - -2.0340515662583707e-02
         - -2.6660094879423238e-02
         - -6.4566461587848255e-03
         - -7.6654383438706872e-03
         - -1.7171475239103375e-02
         - -1.3626630856608914e-03
         - 2.2004501838600865e-02
         - 2.0600241932611913e-02
         - -2.7814527076495718e-02
         - 2.5085479374142503e-02
         - 1.3210185347309941e-02
         - 1.4773521039118002e-02
         - 2.2810626933753016e-02
         - 1.8639302143082358e-02
         - -4.4757025760258735e-03
         - -1.4344468172489470e-02
         - -2.5850475842049372e-02
         - 7.4074937206826978e-03
         - -8.8998362570629191e-03
         - -1.4084354732400368e-02
         - 8.1090121336744349e-03
         - -3.9693691132119385e-03
         - -2.4514437274601623e-02
         - -5.6787948655080255e-03
         - 4.8018751407034495e-03
         - -1.9176559256620457e-02
         - 2.7816589151660579e-02
         - -6.0557636929068842e-03
         - 1.4237724632146028e-02
         - -2.5413006259649533e-02
         - -1.2395008023084079e-02
         - -1.0791311837214839e-02
         - 1.3827246588151943e-02
         - -2.1007390713627457e-02
         - -1.4169027259066559e-02
         - 1.1654242178329031e-02
         - -1.8853116433381795e-02
         - 3.2770234955554681e-04
         - 2.0103704796587213e-02
         - -4.0687394201946309e-03
         - 1.7190045743823722e-02
         - 2.5109666367115167e-02
         - -1.4066890989937996e-02
         - -1.5274637556246671e-02
         - -2.3796280305720709e-02
         - -5.3086837108417585e-03
         - 8.6766853763753924e-04
         - 2.3248934110233526e-02
         - -1.6419063785479204e-02
         - -9.6053626709299705e-03
         - 2.3070099702499139e-02
         - 1.5436080285986016e-02
         - 1.5940803541429991e-02
         - -9.6519250978049573e-03
         - -1.6813899712952208e-02
         - -2.5491569736292546e-02
         - 1.7572526633192392e-02
         - 1.3513564819419736e-02
         - -9.6937075087991237e-03
         - -1.1579171220606501e-02
         - -2.6066376179174545e-02
         - 2.1640023803292319e-02
         - 2.5802940180941814e-02
         - -1.3050545192980857e-02
         - 2.0176067463349472e-02
         - 2.3403788741554681e-02
         - 2.0072403011321766e-02
         - -1.6120601947536912e-02
         - -2.6727834686974070e-02
         - -2.2442399472985854e-02
         - 9.2770729425792169e-03
         - 1.5171066518305234e-02
         - -2.4446038665242423e-02
         - -1.0258453346394370e-02
         - -2.5360371747851981e-02
         - 1.9114284341819963e-02
         - 7.4908638194727522e-03
         - -1.5486144978789532e-02
         - 1.7097483347901737e-03
         - 3.0555497180442537e-02
         - 1.7594982116784171e-02
         - 1.2813089901500820e-02
         - 1.5516132914671847e-02
         - -1.6154349129605779e-02
         - -2.5394954852057710e-02
         - -1.9065432913667645e-02
         - -2.2846354043334276e-02
         - 2.3364062905909162e-02
         - -2.0657798520302344e-02
         - -1.8492578815188739e-02
         - -1.7711672506475328e-02
         - 1.0529720474182238e-02
         - -1.6040169348853838e-02
         - -1.0963706261728844e-02
         - -2.3576243316798133e-02
         - 2.3616210804894497e-02
         - -2.2763840323888403e-02
         - 2.2753012999873330e-02
         - -4.1606790753674898e-04
         - -1.7607256157218840e-02
         - 7.7617202072002697e-03
         - 1.5156026859092135e-02
         - 1.9962956463321139e-02
         - 1.1576505765296589e-02
         - 2.7318031834098019e-02
         - -5.8182212708070965e-03
         - -2.2023081986492100e-02
         - -1.1450344181457892e-02
         - -2.3027981358012244e-02
         - 2.2035229968534201e-02
         - -1.0352035961527315e-02
         - -2.2172616396042802e-02
         - 1.7047251681532205e-02
         - -2.7880434134120172e-02
         - 1.0218040201999075e-02
         - 1.5108572783450524e-02
         - 6.5723724383535062e-03
         - 1.8200458134915970e-02
         - 1.9106497804655519e-02
         - 1.1210212758441109e-02
         - -2.0645094916903948e-02
         - 2.0246355675474566e-02
         - 4.4956347335619882e-03
         - 5.9852947396495442e-03
         - 4.5858404617564316e-03
         - -6.0752542505811526e-03
         - 2.3632341846983086e-02
         - 1.3278185021576207e-02
         - 2.7156755726524921e-02
         - 1.4245690942785183e-02
         - 2.8010017123648086e-02
         - -1.5154071974450092e-03
         - -4.1515808838370697e-03
         - -1.6661224482849693e-02
         - 3.9412252652872327e-03
         - -4.1686784462773350e-04
         - -1.3971506659155666e-03
         - 4.8896506674794811e-03
         - 1.3584803553948465e-02
         - 1.1536129025827034e-02
         - 1.8430162959443400e-02
         - -2.4418105387904666e-02
