%YAML:1.0
---
opencv_ml_ann_mlp:
   format: 3
   layer_sizes: [ 72, 64, 32, 2 ]
   activation_function: SIGMOID_SYM
   f_param1: 6.6666666666666663e-01
   f_param2: 1.7159000000000000e+00
   min_val: 0.
   max_val: 0.
   min_val1: 0.
   max_val1: 0.
   training_params:
      train_method: BACKPROP
      dw_scale: 1.0000000000000001e-01
      moment_scale: 0.
      term_criteria:
         epsilon: 1.0000000000000000e-02
         iterations: 1000
   input_scale:
      - 1.
      - -6.6417887806892395e-02
      - 1.
      - -1.2342840433120728e-01
      - 1.
      - -1.3170519471168518e-01
      - 1.
      - -2.1832303702831268e-01
      - 1.
      - -2.1832303702831268e-01
      - 1.
      - -1.9184638559818268e-01
      - 1.
      - -1.4245881140232086e-01
      - 1.
      - -1.0569658130407333e-01
      - 1.
      - -7.8035317361354828e-02
      - 1.
      - -1.1453958600759506e-01
      - 1.
      - -1.5333762764930725e-01
      - 1.
      - -1.8246641755104065e-01
      - 1.
      - -2.1832303702831268e-01
      - 1.
      - -2.1832303702831268e-01
      - 1.
      - -2.1832303702831268e-01
      - 1.
      - -1.5167838335037231e-01
      - 1.
      - -1.0789969563484192e-01
      - 1.
      - -8.9098282158374786e-02
      - 1.
      - -6.8881735205650330e-02
      - 1.
      - -1.4080509543418884e-01
      - 1.
      - -1.8857866525650024e-01
      - 1.
      - -2.1606722474098206e-01
      - 1.
      - -2.1832303702831268e-01
      - 1.
      - -2.1832303702831268e-01
      - 1.
      - -1.5132544934749603e-01
      - 1.
      - -1.1545178294181824e-01
      - 1.
      - -8.3181738853454590e-02
      - 1.
      - -1.2795257568359375e-01
      - 1.
      - -1.8406477570533752e-01
      - 1.
      - -2.1547833085060120e-01
      - 1.
      - -2.1832303702831268e-01
      - 1.
      - -2.1832303702831268e-01
      - 1.
      - -2.1832303702831268e-01
      - 1.
      - -1.6645032167434692e-01
      - 1.
      - -1.2589983642101288e-01
      - 1.
      - -8.4249518811702728e-02
      - 1.
      - -1.2304658442735672e-01
      - 1.
      - -1.7000101506710052e-01
      - 1.
      - -1.4511317014694214e-01
      - 1.
      - -2.5918385386466980e-01
      - 1.
      - -2.5918385386466980e-01
      - 1.
      - -2.5918385386466980e-01
      - 1.
      - -1.2279819697141647e-01
      - 1.
      - -1.3411714136600494e-01
      - 1.
      - -9.5392823219299316e-02
      - 1.
      - -6.7552477121353149e-02
      - 1.
      - -6.1479598283767700e-02
      - 1.
      - -8.5594989359378815e-02
      - 1.
      - -1.8514530360698700e-01
      - 1.
      - -2.5918385386466980e-01
      - 1.
      - -1.5870536863803864e-01
      - 1.
      - -8.2788012921810150e-02
      - 1.
      - -7.9357340931892395e-02
      - 1.
      - -6.8814583122730255e-02
      - 1.
      - -1.4862532913684845e-01
      - 1.
      - -1.7615371942520142e-01
      - 1.
      - -1.6599480807781219e-01
      - 1.
      - -2.5918385386466980e-01
      - 1.
      - -2.5918385386466980e-01
      - 1.
      - -2.5918385386466980e-01
      - 1.
      - -1.0698547959327698e-01
      - 1.
      - -1.1484559625387192e-01
      - 1.
      - -1.2928290665149689e-01
      - 1.
      - -7.1150973439216614e-02
      - 1.
      - -7.0751309394836426e-02
      - 1.
      - -1.2363179028034210e-01
      - 1.
      - -2.3881956934928894e-01
      - 1.
      - -2.5918385386466980e-01
      - 1.
      - -1.9230644404888153e-01
      - 1.
      - -8.3973415195941925e-02
      - 1.
      - -5.4508797824382782e-02
      - 1.
      - -9.1083280742168427e-02
   output_scale:
      - 1.
      - 1.
      - 1.
      - 0.
   inv_output_scale:
      - 1.
      - -1.
      - 1.
      - 0.
   weights:
      -
         - 2.2818622241368666e-03
         - 1.6638443201821690e-03
         - -1.9657684371980413e-02
         - -1.4334413654389158e-03
         - -1.2222645756105698e-02
         - 2.8463289350859480e-02
         - -2.5400683209203967e-02
         - 9.6442882411799918e-03
         - 8.1441935783322355e-03
         - 1.9801538563290252e-02
         - -1.9009492862504355e-02
         - 1.9160368255718995e-02
         - 1.7407206796396880e-02
         - 9.4820273528014760e-03
         - -8.4731005170167340e-03
         - 1.3000864539640769e-02
         - -1.9938621034860191e-02
         - -8.7676488124661025e-03
         - 2.4710362392499290e-02
         - -8.3318321936149374e-03
         - 2.5579588667342112e-02
         - -1.7786538576976416e-02
         - -1.3197930288143103e-02
         - 2.8453474581533869e-02
         - 1.6305077019123770e-02
         - 1.5042391393468014e-02
         - -7.2541069464453940e-03
         - -2.8378695535025691e-03
         - 2.0348550675169781e-02
         - -2.3697863150380562e-02
         - -2.6790492010152194e-02
         - 2.1970965590270647e-02
         - -1.8168991838948115e-02
         - -1.7033537660952239e-02
         - 1.0161086530632871e-02
         - 7.1532224446859761e-04
         - 1.9974211941893298e-02
         - 1.9921461065650192e-02
         - 1.9571958577591950e-02
         - 2.2257510077104810e-02
         - 1.7664525386255715e-02
         - 2.3109680231803660e-02
         - -4.5027068002531931e-03
         - -8.6304882865904081e-03
         - 2.7644258257170573e-03
         - -2.3842536168506869e-02
         - -2.6506747803001541e-02
         - -1.3574871466460867e-03
         - 1.4530433778385076e-02
         - -8.4782087980136735e-03
         - -2.6703124758332909e-02
         - -1.7354261634025623e-02
         - 2.4900312476420508e-02
         - 1.5455796194150407e-02
         - 1.1735263864711114e-02
         - 2.0454791127573538e-02
         - 1.3099416070854554e-02
         - -6.9370829120370637e-03
         - -7.2933035972125989e-03
         - -1.9186550292800003e-02
         - -2.7103768201598301e-02
         - -2.6401788931905201e-02
         - 2.5584778562901627e-02
         - -1.7292796633103624e-02
         - -1.3009507702676592e-02
         - -6.5912908586938813e-03
         - 1.6234188840333078e-02
         - -1.7878677428074790e-02
         - 2.1326441413693376e-02
         - 8.9880715405982817e-03
         - -1.7533275826904778e-02
         - -9.2857379326820502e-03
         - -8.0641619739381352e-03
         - 1.8122790771602632e-02
         - 1.4392819762031940e-04
         - -6.8290180019155147e-03
         - -1.0895867119800595e-02
         - 1.1180588312147502e-02
         - 1.5250144436185605e-02
         - 4.1684590923019241e-03
         - -8.7629044189957862e-04
         - 2.4561464412079649e-03
         - 1.6209339321357659e-02
         - 1.9625748743315179e-02
         - -2.7432564894182402e-03
         - 1.7872481332440567e-02
         - -2.1311883011384015e-03
         - -1.9540068772460475e-02
         - 2.5593504927970422e-02
         - 1.9193012160770309e-02
         - -2.0357596522319159e-02
         - -1.4067079663010946e-02
         - 1.1804890499503211e-03
         - -2.3626908215687477e-03
         - 5.5457052362577449e-03
         - -1.4863951622236389e-02
         - -1.7802830075063829e-02
         - 1.9233466470773432e-02
         - -1.1170636905264014e-02
         - -1.8570296650180615e-04
         - 2.5769369203283248e-02
         - 1.8790004539376952e-03
         - 2.0744194016383086e-03
         - 1.7327248973926651e-02
         - -1.3616817483533971e-02
         - -1.6905470629419519e-02
         - -7.9228052306494750e-03
         - 4.4883710866299477e-03
         - 2.3334686849625398e-02
         - -1.8372411442708417e-02
         - -1.7713259782290217e-02
         - 8.2378447365065530e-03
         - 4.0053626482674911e-03
         - 2.5992350801800984e-02
         - -2.5718322742400218e-04
         - 1.4518809166582674e-02
         - -2.2276078577741651e-02
         - 1.5342542687984672e-02
         - -6.3577101998481896e-04
         - 6.0799442260160135e-03
         - -7.0959195023432694e-03
         - -2.3735724768302678e-02
         - -1.6657159598074196e-02
         - 9.4803915791290775e-03
         - -1.1808270494551290e-02
         - -2.4699749252638716e-02
         - 3.5336306808513413e-03
         - -1.8763145573766429e-02
         - -2.5376447628539942e-02
         - 2.7100433295414783e-02
         - -9.5395042059404356e-03
         - -2.2066253283965886e-02
         - 6.0864774332734968e-03
         - -1.6156181105727127e-02
         - 2.0716768448494311e-02
         - -2.0924803516680728e-02
         - -2.4721543475423286e-02
         - -8.6714122719067400e-03
         - 1.3507366915296075e-02
         - -2.7211812421202321e-02
         - -2.0362588988649389e-02
         - 2.6117328599362995e-03
         - 2.4509052891085487e-02
         - 2.1930079320220695e-02
         - -1.2238839168957870e-02
         - 2.9797390185536495e-04
         - 1.4192404385988460e-02
         - -6.9034415074173431e-03
         - 2.6039252480299373e-03
         - 2.9701917443599839e-05
         - 1.5309827165409231e-02
         - -2.1012644423248586e-02
         - -2.1319081447398847e-02
         - -2.0456297562573915e-03
         - -7.6002755034571198e-03
         - -2.6197561866613251e-02
         - 5.7972701561384617e-03
         - -1.9538245392697037e-02
         - 2.0266224572332521e-02
         - -2.9891056117114720e-02
         - -1.5694811259906259e-02
         - 2.7895700777051245e-02
         - -7.0880872119162006e-03
         - -1.9329877800394472e-02
         - 2.2856606719018877e-02
         - 2.7128713847518554e-02
         - -2.4913369239455099e-02
         - -2.1023885421789359e-02
         - -1.2517378457386876e-02
         - -1.8920806776964692e-02
         - 2.6164654324299399e-02
         - 2.0182029989531652e-02
         - -1.2055131252984999e-02
         - -2.0438373692661348e-02
         - 8.7134433142772652e-03
         - -1.0668934218391159e-02
         - 1.9986682263813824e-02
         - -6.8289034932180583e-03
         - -9.9439692828514562e-03
         - -3.6188089748497997e-04
         - -2.1581769571450863e-02
         - -2.4220773338674045e-02
         - -1.7056879887032131e-03
         - 7.8845380491175882e-04
         - 2.2797075408634480e-02
         - -4.2575104308308449e-03
         - 7.5079922330826849e-03
         - -1.2780272766379301e-02
         - -2.5915982121807742e-02
         - 2.2330769880935020e-02
         - 1.2879798343446741e-02
         - -2.7219007671023993e-02
         - 7.0809177901964716e-03
         - 1.5020701544539081e-03
         - 1.6511211155934642e-02
         - -1.6825676215358472e-02
         - -1.5521482913103403e-02
         - -1.6742609350719116e-02
         - 1.5570718643068715e-02
         - 7.0131593238699809e-03
         - 8.8672385325153629e-03
         - -1.1577991241103109e-02
         - 2.1080061720027812e-02
         - 1.0230319320835285e-02
         - 1.7229897658621110e-02
         - 6.3523073510659139e-03
         - -1.2616765818264802e-02
         - -1.7897838807250915e-02
         - -2.2649584790345918e-02
         - 2.6699672561330046e-02
         - 2.2255058647945886e-02
         - -1.6491439780744861e-02
         - 3.4713688394865118e-03
         - 2.0536062204192081e-02
         - -1.4313919479307286e-02
         - 1.3429393499787078e-02
         - -9.9912726806187305e-03
         - 4.1496345620599170e-03
         - -7.5302553642102024e-03
         - 2.7715076218189777e-02
         - 1.6130250304329248e-02
         - -2.0759404591947837e-02
         - -2.7112133677937106e-02
         - 2.9632388983834589e-02
         - 7.3157500787995808e-03
         - -1.8911996040976958e-02
         - 2.4165880476534715e-02
         - -1.6660242568846070e-02
         - -1.1533753641772494e-02
         - 1.4086818915263094e-02
         - -2.2414387630480301e-02
         - 8.6562879813918397e-03
         - 1.6344686930278136e-02
         - -1.1740833611499380e-02
         - 9.4564655202010531e-03
         - -2.1061026323249632e-02
         - 1.0943258513613814e-02
         - 7.3314447056946255e-03
         - -1.6922159442459818e-02
         - -1.8718790288689113e-02
         - 1.6396641864076368e-03
         - -1.4975695757842541e-02
         - 2.4890608251571598e-02
         - -5.3003502080151794e-03
         - -1.7064372429366616e-02
         - 5.0044140849160122e-03
         - 2.7373427023445897e-02
         - 2.7009136299093440e-03
         - 2.0590006543586468e-02
         - -7.2957144085592160e-03
         - 1.5152065269264162e-02
         - -1.6932726572412005e-02
         - 2.3797976185653540e-02
         - -3.8429683858312532e-03
         - -1.5116767679470492e-02
         - 4.0046071516500609e-03
         - -6.7274465221957150e-04
         - 1.8601887113621411e-03
         - 4.6646769757308760e-04
         - -1.2033871253736927e-02
         - 1.0547232697656776e-02
         - 1.3073177118702168e-02
         - -2.3341712450328702e-02
         - -8.4532241915340287e-03
         - 4.8788773824234039e-03
         - -2.3602599114363600e-02
         - -1.6759567341080028e-03
         - 1.0379656531554851e-02
         - -3.1074781754673328e-03
         - 1.9199416830113690e-02
         - 7.4138634742620980e-03
         - 1.2337923525902161e-02
         - 3.2361597362415102e-03
         - 5.8172116693085731e-03
         - -2.0886559310743270e-02
         - 1.7881499739105550e-02
         - -1.2101209119328856e-02
         - 1.9484479976794547e-02
         - -2.2067828855244352e-02
         - 2.9759407018027966e-02
         - -1.8378981482505986e-02
         - 7.1556849010848882e-04
         - -2.2611406574500611e-02
         - 1.9055192021098143e-02
         - -5.6814890626788852e-03
         - -1.0929942983483468e-02
         - -1.9470334074926050e-02
         - -1.6001205360028144e-02
         - -4.3403348421469021e-03
         - 2.6854293480976305e-02
         - 2.3708107735696881e-02
         - 2.3946448393038212e-02
         - -1.1907413660707482e-02
         - 1.0500804548680567e-02
         - -1.9661952935247157e-02
         - -5.4559221120032580e-04
         - 9.1055803406786193e-04
         - 4.4013397492226039e-03
         - 2.4000906254263078e-02
         - -2.5272517489959213e-02
         - -2.2799326263538644e-02
         - 6.8099028474896152e-04
         - 4.1767316385014804e-03
         - -2.6613809768644150e-02
         - -1.9897013734135886e-02
         - 4.9222901339305691e-03
         - -2.6145492724339470e-02
         - -1.5624840087531108e-02
         - 8.0940427699499589e-03
         - -2.4027877390940304e-02
         - 2.9506813056139228e-02
         - -8.1391595525770882e-03
         - 2.3300393481313363e-02
         - -2.6932345453937658e-03
         - -1.0248374794551193e-02
         - -9.3350258369199104e-03
         - 9.4689927581790238e-03
         - 2.7501414506646730e-02
         - -1.1976935546177734e-02
         - -6.6004237706898819e-03
         - 8.4910904028775505e-03
         - -2.6755387471059582e-02
         - 2.5220729731854095e-02
         - -1.1834326075843496e-02
         - 9.7290172827954203e-03
         - -2.3653897915864714e-02
         - -1.9341032530250612e-02
         - -2.3950926726919553e-02
         - -2.5496922320241575e-02
         - 2.0244258964042796e-03
         - 1.6222358331837109e-02
         - 1.9961703520701788e-02
         - -2.1586613526025783e-02
         - -1.4640585531425407e-02
         - 1.6705886824406841e-02
         - 2.0296326036733699e-02
         - -9.8290897256557777e-03
         - 1.8430920026670985e-02
         - -2.0323366485823481e-02
         - -1.7244807248849140e-02
         - -2.2052807191291140e-02
         - -1.8001351584350136e-02
         - 1.8560811865616193e-02
         - 2.2264735300771620e-02
         - -3.6687226285196956e-03
         - -4.8557751169343273e-03
         - 1.5469338154099080e-02
         - -9.3495930409682650e-03
         - 2.0968005580907244e-02
         - -2.2281550898895656e-02
         - 2.7945620175727895e-02
         - -1.9148825053891674e-02
         - -2.0709770328624505e-02
         - 1.2303065720817188e-03
         - 1.1433277481466299e-02
         - -6.1791456363701680e-03
         - -8.5255834710189701e-03
         - 3.5012093318760374e-03
         - 1.5233121354081667e-02
         - -1.2152180924114717e-02
         - -1.4345421925635662e-02
         - -1.0016688524829256e-02
         - -2.7609217510094024e-02
         - -2.4886174983107790e-02
         - -3.5801978519920531e-03
         - -2.5034598748659268e-02
         - 6.0175871791366521e-03
         - -1.2364969030044023e-02
         - 1.6423112899418182e-02
         - -1.4497925851899072e-02
         - 1.7247215201229948e-03
         - 5.4655753450423986e-03
         - -1.8957218163979224e-02
         - 2.3358559427863530e-02
         - 1.0227609672741059e-02
         - -1.3148130549801110e-02
         - 2.1950713992421596e-02
         - 1.3565435359067790e-02
         - 4.0251320547725006e-03
         - 1.2884236608867776e-02
         - -2.9154854744767023e-02
         - -1.2375720313036170e-02
         - 2.3529802580137850e-02
         - 1.6456733420882851e-02
         - -2.8662868729122222e-02
         - 6.8997134299125275e-03
         - -1.9082503782403785e-02
         - 1.2342591533230959e-03
         - 1.3484930242731822e-02
         - 6.7722428052958790e-03
         - -2.0741809944067328e-02
         - -1.4144429030313002e-02
         - -6.5036705955670189e-03
         - 9.3656834818377447e-03
         - -1.7990873265779344e-02
         - 1.2133906413025019e-02
         - -2.0456495609402915e-02
         - -7.5390154903625653e-03
         - 1.2768625601423691e-02
         - -1.5816243957937865e-02
         - 1.3095787634642192e-02
         - -1.7516220231791359e-02
         - 1.1568605086648366e-02
         - 1.2817504061155260e-02
         - 1.2128871946912778e-02
         - 2.6201814061203661e-02
         - -2.3454742496662087e-02
         - -1.0608845579205994e-02
         - -2.4870915938590133e-02
         - 1.1170861830491570e-02
         - -2.1738814798491490e-02
         - 1.5550785156941067e-02
         - 5.2781849098281017e-03
         - -2.0159152305401183e-02
         - -1.0484386203434410e-02
         - -1.3110095771758985e-04
         - 1.5081716546693895e-02
         - 1.4662784033393127e-02
         - 1.2079504834997373e-02
         - 8.4451735388237567e-03
         - 4.0990862181067506e-03
         - -7.6422771909610519e-03
         - -4.3568972442362764e-03
         - -1.5000605321651868e-03
         - 1.8713838512357361e-02
         - 2.2340278791593296e-02
         - 4.1667845643614844e-03
         - 4.2127526929965483e-03
         - -2.2744187470795423e-02
         - 6.1860053489646051e-03
         - -2.6499843806409591e-02
         - 7.0473484693837326e-03
         - -1.2255571969432126e-02
         - -8.0550658867614613e-03
         - -3.3984739371115107e-03
         - 1.3610305052986228e-02
         - -1.9930302174052270e-02
         - 3.6107245677499404e-03
         - 1.3073638126198602e-02
         - 1.2812363449856489e-02
         - -5.7022791109783751e-03
         - 2.0324109144310518e-02
         - 1.1409128047655124e-02
         - 1.9412656377691202e-02
         - -1.9062650027225743e-02
         - -2.1553293374782595e-02
         - 1.7913211403587946e-02
         - -2.2477002655408779e-02
         - -2.5976309875229121e-02
         - -1.7008118114667334e-02
         - 1.4114963873273241e-02
         - -1.2833688636671991e-02
         - -7.8822203019127159e-03
         - -2.2255209431460327e-02
         - -2.4852336466613164e-03
         - -1.0623361267338023e-02
         - 1.0992856856848801e-02
         - 6.4562678989459662e-03
         - 7.2025099467392080e-03
         - -6.9442436661867422e-03
         - 1.3208641335061741e-02
         - 3.2114099631615160e-03
         - -9.1132657260468673e-03
         - 9.8422040479400705e-03
         - -1.6363541959329500e-02
         - -1.3887270430846285e-03
         - -2.4956565559814819e-02
         - -7.2869318553397946e-03
         - -1.9252176363579968e-02
         - -2.6533991602811256e-02
         - -2.4527832033961267e-02
         - -1.4648880910559228e-02
         - 2.1221936744765319e-02
         - 1.4204259857197855e-02
         - 1.0721489763072219e-02
         - -2.9575348701265956e-02
         - 1.5172081178756845e-02
         - 1.2803543816490612e-02
         - -1.2623987377968066e-02
         - 2.3087830883595790e-02
         - -1.9786874848908443e-02
         - -8.7239642636723364e-03
         - -2.2756427207502269e-03
         - -4.7105865428281939e-05
         - 1.0232313919944018e-02
         - 8.0872549380398874e-03
         - -1.5507466926718458e-02
         - 6.7069233034744106e-03
         - 5.4962419911772460e-03
         - 4.9036812527078902e-03
         - -2.6775967831994100e-02
         - 7.5845497043537553e-03
         - 1.5647849991585276e-04
         - -7.7325063409398086e-03
         - -7.0586942164911712e-03
         - 1.5656501880557581e-02
         - -2.1404811438666103e-02
         - 1.2925312692449009e-02
         - 7.6136460744944184e-03
         - -2.8879024768871029e-02
         - 2.2699829201358334e-02
         - -2.1166933563331364e-03
         - 1.8703132766641692e-02
         - 1.5126669219573731e-02
         - 8.7443015299561461e-03
         - -1.9019941309111763e-02
         - 2.8069548921339636e-02
         - 2.9119997724043421e-02
         - 1.4739696895050419e-02
         - 1.2604827621810732e-02
         - 1.0104353924051212e-02
         - -2.8007418363194102e-02
         - -6.3426589557446312e-03
         - -2.0230089841535931e-02
         - -2.2073209577378626e-03
         - 2.3164117812387586e-02
         - -2.2866491723481083e-02
         - -1.6021764670311404e-02
         - 1.0240992067038100e-02
         - -2.3336940681828011e-02
         - 1.8393106601370061e-02
         - 1.6488187773411139e-02
         - 1.0879489118027984e-02
         - 1.9019156837356849e-02
         - -1.5780500200376822e-02
         - 2.4645588931800431e-02
         - 1.9433715924224861e-02
         - 1.0507492758314869e-02
         - 1.8791039294117923e-02
         - -2.4606101640825065e-02
         - 1.8191876107934539e-02
         - -6.3969509953108340e-03
         - 2.6619110625979957e-02
         - 1.2192881956012765e-02
         - 1.1313709717221560e-02
         - -9.7335361562982947e-03
         - -7.7546680178273196e-03
         - -7.3870430049545162e-03
         - -5.9034226855514118e-03
         - -2.0609780021904223e-02
         - 8.9887345495204031e-03
         - -2.2317328383640967e-02
         - -2.5958429202098020e-02
         - -2.2628182128162359e-02
         - 4.3824366507015883e-04
         - 1.2185162295546115e-02
         - -1.6493266180690025e-02
         - 6.7674783743247790e-03
         - 3.3068911353909790e-03
         - -2.3742755310624860e-02
         - 1.1229428389810239e-02
         - 2.0701476767538134e-02
         - 1.9850470795655592e-02
         - 9.5993443974590042e-03
         - -1.0615874252210097e-02
         - -3.0399736063723513e-03
         - 1.4385534799142195e-02
         - 1.4278656163806917e-02
         - -2.3446811751503913e-02
         - -1.4128525056095300e-02
         - 2.3460611855137096e-02
         - -1.7921734520220677e-02
         - -2.5767723424308695e-02
         - -2.4716699233770796e-02
         - 2.4308109734514249e-02
         - 6.1041298376302853e-03
         - 1.1674865951604411e-02
         - 1.8862987318773880e-02
         - 2.2044895399230898e-03
         - -1.4888150658946631e-02
         - -4.9447866322843356e-03
         - -2.8861623559126297e-02
         - 3.3957059648794183e-03
         - -2.0005297353624153e-02
         - -1.1393313415406241e-02
         - -2.0891595046231712e-02
         - -6.2555022062736687e-03
         - 1.4145709277678640e-02
         - 2.1877831581301205e-02
         - -1.1860680270323786e-02
         - 8.5393642481083297e-03
         - 2.0132082389077537e-02
         - -1.5322052942783014e-02
         - 8.8700325491993873e-03
         - -6.3979171898908204e-03
         - 1.8395865183960816e-02
         - 1.3196218056281990e-02
         - 1.1924027869722648e-02
         - 2.1091305136378274e-02
         - -5.5282923920111160e-03
         - 2.7647584424308536e-04
         - -2.6354419831415170e-02
         - -2.7482784771480678e-02
         - 2.2821346207986551e-02
         - 3.0537817634082296e-03
         - 6.8553735004863413e-03
         - -2.0273874910172560e-02
         - 4.7032069978705697e-03
         - -1.7895256259988883e-02
         - -7.4130249921832442e-03
         - 2.1889152292728691e-02
         - 1.6293186775452464e-02
         - -2.4605966189387624e-02
         - 1.0664342289564477e-02
         - 2.6523569650325918e-02
         - 1.7378371690230428e-02
         - -1.5284510960674470e-02
         - 3.1950777470486380e-03
         - 1.9001728669455872e-02
         - 9.7728671953614225e-03
         - -3.0049231453181009e-02
         - -4.6144112632973662e-03
         - -1.4836851024587474e-02
         - 2.5177886450888792e-02
         - 4.0960777823962893e-03
         - -2.2819693249450851e-02
         - -1.6128432878107054e-02
         - 5.0510810562706199e-03
         - 8.4592848472121243e-03
         - -1.0181363290363446e-02
         - -3.5776405051810584e-03
         - 1.2106371589214862e-02
         - -2.3955643020820632e-02
         - 2.4554322777012385e-02
         - -1.3978101655899493e-03
         - -3.9172278075123969e-03
         - -1.1236846774329294e-03
         - 1.2395978992602185e-02
         - 1.4251704927242353e-02
         - -6.7240029578764298e-03
         - 2.2722993948944319e-02
         - -1.3069209055246479e-02
         - -1.7719730164778378e-02
         - 9.9778969507256666e-03
         - -3.4254029313935758e-04
         - 1.3601076117382644e-03
         - 7.6584329124692830e-03
         - 1.4611767433418446e-02
         - 1.9071677322612657e-02
         - 8.4079120908348536e-03
         - -1.2617931023430017e-02
         - 4.8010604502083882e-03
         - -1.4545176627382727e-02
         - -2.1012100547755302e-02
         - -1.3942912999202143e-02
         - -2.7634822736342116e-02
         - 1.9962489159779238e-02
         - 1.4616373352631254e-02
         - 1.6069137514991190e-03
         - -7.4921148491637092e-03
         - 5.9101874978727195e-03
         - -2.1175280711449879e-02
         - -2.2249309748954438e-03
         - 1.7008652055494219e-02
         - 2.4478045601300558e-02
         - -2.0796073163208188e-02
         - 9.9887496184905278e-03
         - -1.0716307528262734e-03
         - -4.5631131601663105e-03
         - -1.6701928020256392e-02
         - 1.6217225563900033e-02
         - -1.7963376719749253e-02
         - -1.6866997347852818e-02
         - 2.9595300541654167e-02
         - 1.9063482931025107e-02
         - 9.2395827967347542e-03
         - -2.3472938954150729e-02
         - -1.6609302182530206e-02
         - 8.2170449578871372e-04
         - 2.6053303733489042e-03
         - 2.1774111767222180e-02
         - 2.1700747367517294e-02
         - 1.6561078147837631e-02
         - -1.4127688127326898e-02
         - 2.2365778087736786e-02
         - -1.1126066470527505e-02
         - 1.8742844140458206e-02
         - -3.4995381820486764e-03
         - 2.4546796651839918e-02
         - 2.3718387514348651e-02
         - -1.4986433971808249e-02
         - 1.8698155572410412e-02
         - -6.7882839135416980e-03
         - 1.7015694458025577e-02
         - -2.1065875195258234e-02
         - 6.2908886202114366e-03
         - -6.6760292917248856e-03
         - 9.8318730446154499e-03
         - -1.1791663485306025e-02
         - -1.8060491548637064e-03
         - 1.6342785788944124e-02
         - 9.1701946568458342e-03
         - 1.1353736299753580e-03
         - 1.4308165318511973e-02
         - -2.4429546720918356e-02
         - -2.6024031468902301e-03
         - 1.4430238960140835e-02
         - 8.0711936544528365e-03
         - -2.8639918837252115e-02
         - -1.2870808206228514e-02
         - -2.6014678766852910e-02
         - 1.2932459717575600e-02
         - -2.8792083344308808e-03
         - -1.2224416137096489e-02
         - 1.3011318694104454e-02
         - 1.1994011569093164e-02
         - 2.1155238496886119e-02
         - 2.7924177576086538e-02
         - 4.8232413309659385e-03
         - 2.1388995445491055e-02
         - -5.6935748744096079e-03
         - 1.3080887138665217e-03
         - 3.0664702579742678e-03
         - -2.4660087371313904e-02
         - -2.5949774904665206e-02
         - -1.3008175403022454e-02
         - 5.8503238792071048e-03
         - 6.4900067181083718e-03
         - 1.7442780962538082e-02
         - -1.9695066985289517e-02
         - -2.4556186891151920e-02
         - -1.5685338437809022e-02
         - -2.3432018908202144e-02
         - 2.2823502545167972e-02
         - 2.7660694870926514e-02
         - -1.9135657228452833e-02
         - 7.8385295629115077e-03
         - -1.0837747878531241e-03
         - -7.3135193965670059e-03
         - 1.1671778627829732e-02
         - -2.8479282855418168e-02
         - -9.6138490465767139e-04
         - 9.6048472783692804e-03
         - -2.1237491517377572e-02
         - -1.7988573956282259e-02
         - -2.9832880865581358e-04
         - -8.6066202908458261e-04
         - 4.4868044524003512e-03
         - 5.6316212932731478e-03
         - -8.2700148561459189e-03
         - 1.2135239143992732e-02
         - -2.6699820099590450e-02
         - -2.1286897771112846e-03
         - -1.6587765419279390e-02
         - -1.2450333446328933e-02
         - 1.2314401554767051e-02
         - 1.2798694663423656e-02
         - 1.3882835147524135e-02
         - 7.8748879433541506e-03
         - -2.6857690142197805e-03
         - -1.5996192132551816e-03
         - 9.3388628434592049e-04
         - -2.6284810519760886e-03
         - -2.1512783711207385e-02
         - 2.5112967697635269e-02
         - 1.8965108921168206e-03
         - 4.9432009783944748e-03
         - -2.1977803021820796e-02
         - 1.3649296459062633e-02
         - -2.1027791764275865e-02
         - 1.7757160116303527e-02
         - -1.7729113530405561e-02
         - -1.5227565243692603e-02
         - 2.8951738173033755e-02
         - -2.0076600336672155e-02
         - -4.4386640028254588e-03
         - 2.0067534409905999e-02
         - -1.4512997845732945e-02
         - -4.5164739892727935e-04
         - 2.0762800513076180e-02
         - -7.9015990497726094e-06
         - 1.4704944266038406e-02
         - 7.1616066917474875e-03
         - -2.0604124719635318e-02
         - -3.7478260635595505e-03
         - -1.3766434740838493e-03
         - 2.6182621688792694e-04
         - 1.2340560597281841e-02
         - 8.7729051642462200e-03
         - 1.0140238325003253e-02
         - -1.3326160673069678e-02
         - -8.7763654747868881e-03
         - 1.3669059485228654e-04
         - -2.3809393120560882e-02
         - -1.4569838323023939e-02
         - 1.2526694656374106e-02
         - -7.4481687376429422e-03
         - -1.9090313410689768e-02
         - -1.5601640540579793e-02
         - -2.2966488507680113e-03
         - 2.3089260771594596e-03
         - 1.4387668860569362e-02
         - 9.3417662458726153e-03
         - 6.7341227327142044e-04
         - 1.7555212271344850e-02
         - -1.9916412982993459e-02
         - 2.6551253093512585e-03
         - -3.6561416078094156e-03
         - -2.8279259868652328e-02
         - -3.4551815879605855e-03
         - -2.9120009378244379e-02
         - 1.9710981096505253e-03
         - 1.5826976657778342e-02
         - -1.1783044764995620e-02
         - 2.1960252404037251e-02
         - 1.4547649891149277e-02
         - 2.1363253028638264e-02
         - 2.2893681371953779e-02
         - -9.1953778775458427e-03
         - 1.4740418292505275e-02
         - -5.9723352346889762e-03
         - 1.9951382218860489e-02
         - 1.2468282759451889e-02
         - -9.4492488310493235e-03
         - 1.3346053152592737e-02
         - 2.3761355017545446e-02
         - -2.1367608322739613e-02
         - 1.0545523278368602e-02
         - -5.9259896563663298e-03
         - -1.7135509136087329e-02
         - 1.2068676292282155e-02
         - 1.4410235398435368e-02
         - 7.9138107087423971e-04
         - -5.2214081683758361e-04
         - 2.4241671806554989e-03
         - -2.6315793204285239e-02
         - -2.0168608595811755e-02
         - -3.1693865018795342e-02
         - -6.5677828905759438e-04
         - -1.6811374073340046e-02
         - -9.0251658358426797e-03
         - 2.0383246524455084e-02
         - -7.0149534074437176e-03
         - -2.2687396226523191e-03
         - -5.9398913239144648e-03
         - -1.5815951087234062e-02
         - 8.4848738825119424e-03
         - -2.7265056525666298e-02
         - 2.7821734471218443e-02
         - -1.2696133392654806e-02
         - 1.2442563376693831e-02
         - 2.2920694440726364e-02
         - 1.8735831231687441e-02
         - -2.5871900425615057e-02
         - -1.6748675386343184e-02
         - 1.5511447098495491e-02
         - -2.7648617029520241e-02
         - 1.7858687555581006e-02
         - -9.9898411656790011e-03
         - -3.2762468194830278e-04
         - -1.9848200205855430e-02
         - 1.7656957510690303e-02
         - -1.8994659044507913e-03
         - 1.0293521845827307e-02
         - 4.4512515827826901e-04
         - 1.4190561908388022e-02
         - -1.3804442341365167e-02
         - -1.9909710423053045e-02
         - -1.1906089208180913e-02
         - -1.6458203712134661e-02
         - -8.9368827557170221e-03
         - 1.1736308301511318e-02
         - -1.6693496466397659e-02
         - 2.6498638906421672e-02
         - 2.2864992739074191e-02
         - -2.3368677250344489e-02
         - 2.1683418428944272e-02
         - 3.5133815764125569e-03
         - 1.7188707058222799e-02
         - -2.0864153027004902e-02
         - -1.3901330487823424e-02
         - -8.0940547269373695e-03
         - 1.5296780193477064e-02
         - -2.2269837280552589e-02
         - 3.8280551883190460e-03
         - 1.0024781775144639e-02
         - 2.2478573843454412e-02
         - 5.1357071903263864e-03
         - 1.0504106905151996e-02
         - -2.1270851935809910e-03
         - -5.2485685917134780e-03
         - -1.5326176360447412e-02
         - 4.5527551159254439e-05
         - 2.2314662601005453e-02
         - -7.8053692329500195e-04
         - -8.6793232678800732e-03
         - 2.1864264716024064e-02
         - 8.9382081836489758e-03
         - 2.4871797130264869e-02
         - -2.5513895227178857e-02
         - 2.7640697413123395e-02
         - 3.1072933942095718e-03
         - 6.6879792911487901e-03
         - -2.4162753464698331e-02
         - 1.1087738716247471e-02
         - -8.5424877179128827e-04
         - 1.7721980425974230e-02
         - -2.6576767818600983e-02
         - 1.7893436579568635e-02
         - 1.8503326829739153e-02
         - -9.0200351228307014e-03
         - -2.1765713261242950e-02
         - -2.0111786913462010e-02
         - 2.7957397448625763e-03
         - -1.0354286921079165e-02
         - 2.1457873745519027e-02
         - 1.3624243535520178e-02
         - -4.2702824103170826e-03
         - -4.4554506886325846e-04
         - -2.2554118229147352e-02
         - 6.6389195467179253e-03
         - -6.2023103776580530e-04
         - 2.3556949223669705e-02
         - -7.3716970816664704e-03
         - -8.1738374555636352e-03
         - 1.4765858969998279e-02
         - -1.4878040984475016e-02
         - -4.7428861379858857e-03
         - 1.9646800715557834e-02
         - -1.1927532210529676e-02
         - 1.6858986126589825e-02
         - 1.6946646868786608e-02
         - 1.4654896214080816e-02
         - -2.9284311737211296e-02
         - 9.4832457269792975e-03
         - -6.3088966354617471e-03
         - 2.3052189526081804e-02
         - -1.3602706099809719e-02
         - -2.5778233683459641e-02
         - 1.7159990594125332e-02
         - -1.3600345887810615e-02
         - -2.6587178543477863e-02
         - -1.3665692913345512e-02
         - -2.2502612407111672e-02
         - -3.5270916647104204e-03
         - -4.4985794228720949e-03
         - -1.2883301318192377e-02
         - 1.4786405098288305e-02
         - 1.7381172981117205e-02
         - 1.5742279393925800e-02
         - -2.5805933474120614e-02
         - -1.9351349843577691e-02
         - 1.7740837883001369e-02
         - -2.4984968535662868e-02
         - -8.9070498939951576e-03
         - 1.3767695590712605e-02
         - -8.4144944185752437e-03
         - 2.1619709757593919e-02
         - 5.8983540298941225e-03
         - 1.4494134908679780e-02
         - -1.6955647453513484e-02
         - -3.6321135488101308e-03
         - 2.2462109318448008e-02
         - 1.1959505757294838e-02
         - 1.3538702413443248e-02
         - -2.0951039397270770e-02
         - -1.7433312146785641e-03
         - -6.5740276907713903e-03
         - -1.1259039945915613e-02
         - -4.1889270760980330e-04
         - -1.6931742768833385e-02
         - 1.6191801619747079e-02
         - 2.3029039652059418e-02
         - 1.8938672241295026e-02
         - 2.6528307003465834e-03
         - -2.0033029671966806e-02
         - -1.2831000796666003e-02
         - -2.2711693065259966e-02
         - -2.0251473751631863e-02
         - -4.5079803729961617e-03
         - -5.0091589690728294e-05
         - 2.6079659962029413e-02
         - 2.4147736895507774e-03
         - -2.1855184717510811e-02
         - 1.1664216966663379e-02
         - -7.6224625140484286e-04
         - 1.1296036318134044e-02
         - -2.0553146654123423e-02
         - 2.5383833633007137e-03
         - -1.7894202176620001e-03
         - -1.5441139341139708e-03
         - 8.7876984722571241e-03
         - -1.2677014530970058e-02
         - -4.3563626891710908e-03
         - 3.5122909904184724e-03
         - -1.6301815368133271e-02
         - 4.3866335260819038e-03
         - 1.1973313437882193e-02
         - -1.0947407066245279e-02
         - 1.6934816489112291e-02
         - 2.3876221032322668e-03
         - -1.7663269744863905e-02
         - 3.9754662805483029e-03
         - 2.2681687456273678e-02
         - 2.3375061367509369e-02
         - -1.8984891771498470e-02
         - 9.6441253185427442e-03
         - 1.1715851937399180e-02
         - -1.9288220870205736e-02
         - 1.1859955083385465e-02
         - 4.3285206557879914e-03
         - 1.3136181620155515e-03
         - 5.9076012752682597e-03
         - 1.8925009574448208e-03
         - -1.3650400330686067e-02
         - 2.2603959788659686e-02
         - -1.9670839736491180e-02
         - 2.6699261862318698e-02
         - -2.0405644668051098e-02
         - 2.6005121720404197e-02
         - 2.1143350736035422e-02
         - 2.0928169465474517e-02
         - -2.5710636707664172e-02
         - -2.1087471438587108e-02
         - -2.0226770371429902e-02
         - -3.9710113188140750e-03
         - 2.1761512581982004e-02
         - -2.2171641343539501e-02
         - -1.2190975136720095e-02
         - 2.6685813314691297e-02
         - -1.6776582510890072e-02
         - 1.8168738792350796e-02
         - -2.1452191036523294e-02
         - 1.5195989844174126e-02
         - -3.1248551701893029e-03
         - 1.5604427863270100e-02
         - -1.7157213609295494e-02
         - -1.9537119397710898e-02
         - -1.3341050325882647e-02
         - -5.5563330088891014e-03
         - -9.7428575484701727e-03
         - -1.5105332708194778e-02
         - -2.2178079928715552e-02
         - 8.0717978670938779e-03
         - 1.2546031727143071e-02
         - -5.2101117932059826e-03
         - 2.3351026780526352e-02
         - -5.0358298091961427e-03
         - -3.5754922485186917e-03
         - -2.4500510215504027e-02
         - 7.8490235883188503e-03
         - -2.1887010640206293e-02
         - 1.7361284421858851e-02
         - -2.3768975493167966e-02
         - 3.9699822392041343e-03
         - 4.2008189637532060e-03
         - -1.9526875624823668e-02
         - -2.4957716120038553e-02
         - -1.3849817160458398e-04
         - 2.7846085963519583e-03
         - 2.5043217069322072e-02
         - 2.3606891903014165e-02
         - 3.0090324274754539e-03
         - -2.1765102053261501e-02
         - 1.8313935922021487e-02
         - -1.1189499848896117e-02
         - -1.3432593741697117e-02
         - -2.8542356131573544e-03
         - 1.5180163851177384e-02
         - -5.0098200517415667e-03
         - -2.5345613392509580e-02
         - -2.8340828592961129e-03
         - 6.9575566851301845e-03
         - 1.8049340171697344e-02
         - 1.3825184383558546e-03
         - 1.0516665110459431e-02
         - 6.1160675560092033e-03
         - -2.3372507418534590e-02
         - 1.5324369704003218e-02
         - 1.4422766126497811e-02
         - 8.1000678492051514e-03
         - 2.0240309917077710e-02
         - -1.0851157326937904e-02
         - 1.8147185455065534e-02
         - -1.7826204736604824e-02
         - -4.4491713456700065e-03
         - 8.7087003060826486e-03
         - -1.2609346156690586e-02
         - 6.4347426941692683e-03
         - 5.4400010780409399e-03
         - -2.2003519727190704e-03
         - -9.4861283158071356e-03
         - -1.1658917934317054e-02
         - -2.9571485731176992e-02
         - -1.2648092289711747e-02
         - 9.0008959828518122e-03
         - 4.9910408215653292e-03
         - -2.7292767138031009e-02
         - 9.9654505053460660e-03
         - 2.8820612254566447e-02
         - -1.6368747277079244e-02
         - 1.1343987692774053e-02
         - -7.4289318824136965e-03
         - -2.9326448355329431e-02
         - 2.6604542231775219e-02
         - -1.1081436858934122e-02
         - 1.1991029731228096e-02
         - -1.4087781645462170e-02
         - -1.3432014544325552e-02
         - -1.0474309729551750e-02
         - 1.8583958927998308e-02
         - -1.3059704599812354e-02
         - 7.3627484340996318e-03
         - 9.3728840380819002e-03
         - 8.7557676588134528e-03
         - -6.8513046523050614e-03
         - 9.6646496743085144e-03
         - -3.3995807546866653e-03
         - -2.6970695915199589e-02
         - 8.3929740469927631e-03
         - -2.2348354397256263e-02
         - 2.0849235000410072e-02
         - -1.6309107937996236e-02
         - 4.0534841558000191e-03
         - -2.6753147580348795e-02
         - -1.1669385944043399e-03
         - -1.3493627220034910e-02
         - -1.1497576992539487e-02
         - -2.3193917722976232e-02
         - 1.1762068162077519e-02
         - 1.9969497998463571e-02
         - -2.6811432310974548e-02
         - 6.9103979246162807e-04
         - 1.7436633826142484e-02
         - 1.5165208730665658e-02
         - -1.3643764135003853e-02
         - -6.5308853030026097e-04
         - -1.7316173303744669e-02
         - 5.0012383541359990e-03
         - -5.4827476694413240e-03
         - -7.7199171250218494e-03
         - 7.1051708134253254e-03
         - 1.3013356285974814e-02
         - 6.9412675167896069e-03
         - 8.8766506685242462e-03
         - 2.9904797692689791e-03
         - 2.0101370322407358e-02
         - 1.1461166648559685e-02
         - 2.2327303726502684e-02
         - -3.5512106729536442e-03
         - -1.4708175659952357e-02
         - -1.7753987206889459e-02
         - -7.1777524409359552e-03
         - 1.7657054065166218e-02
         - -2.5802683330834698e-03
         - 3.7216865674534549e-05
         - -2.1560050939750462e-02
         - -4.5372077872150618e-04
         - -1.8598587223688491e-02
         - -2.6093505738823575e-02
         - 2.4833655108373643e-02
         - -1.9918674193991775e-02
         - -1.4029899819014908e-02
         - 2.1383906481471735e-02
         - 1.7200638992124494e-02
         - 2.6217406477984286e-02
         - 2.4589538493060840e-02
         - 2.6143091171930829e-03
         - -1.5061162161665023e-03
         - 6.0121296588842559e-03
         - 1.9507810768522947e-02
         - 2.5293442949364104e-02
         - -1.9549484893762067e-02
         - -1.3046196567650152e-02
         - 1.9088570702233874e-02
         - 2.4148434465904183e-02
         - 2.4078214321284260e-02
         - 1.7940793833925210e-02
         - 5.5531584114051295e-03
         - -2.6998040921337382e-02
         - -2.6338399291610678e-02
         - -1.7326244881254914e-02
         - -2.3051986882330063e-02
         - -2.4932445875508632e-02
         - -1.2775971601592230e-02
         - -2.3067367634147469e-02
         - -1.4120127222318290e-02
         - 9.6089188594325903e-03
         - 9.2058164748652863e-03
         - -2.5808466211103651e-02
         - -5.6380445580038862e-03
         - 1.2179013981274888e-02
         - 5.4834807520746992e-03
         - -7.3393145769733168e-03
         - 2.0984271808460738e-02
         - 7.0997673770077331e-03
         - -2.7668853658398378e-03
         - -1.2849021542267710e-02
         - -2.5554802133914034e-02
         - 2.5557869402204787e-02
         - -5.9246543586355589e-04
         - -2.2349863268379462e-02
         - -5.5090319094995989e-04
         - -3.5848782592326459e-03
         - -2.1683620477866029e-02
         - -2.1658637840100969e-02
         - -1.3614489039107693e-03
         - 1.3957420551001134e-02
         - 1.2038016355674802e-02
         - -2.2567181606237108e-02
         - -2.1393805956812128e-02
         - -2.6086055043248662e-02
         - -2.5712170251216811e-02
         - -1.7472304868869627e-02
         - 3.7682265519751214e-03
         - 1.0788632398319785e-02
         - 1.6898830678651434e-02
         - -1.8864426012720169e-03
         - -5.7612861999191490e-03
         - 1.4197215058771335e-03
         - 3.6473287095825121e-03
         - 1.7594601053692240e-02
         - 2.2335084908112004e-02
         - 8.1717655280627091e-03
         - 2.5876620620173898e-02
         - 2.2136758973298882e-02
         - 1.1895717354738471e-02
         - -2.3743412205685838e-02
         - 1.1855569999441226e-02
         - 2.4226436530086055e-03
         - 5.7680309114555720e-03
         - -1.2015760317917295e-02
         - 2.8519298000901208e-02
         - -2.1167899531695466e-02
         - 2.6095452517722491e-02
         - 1.4354513228551278e-02
         - -1.6476026556418045e-02
         - -5.4941785507607865e-03
         - -1.4511467371175462e-02
         - 9.0549353464664563e-03
         - 2.8738866248409406e-02
         - 1.5184857348104928e-02
         - 2.1835281294210213e-02
         - -1.9829150232244454e-03
         - 1.2667159841091746e-02
         - 7.7881584061595408e-03
         - -2.5384340814976793e-02
         - -2.3140993343186807e-02
         - 2.3161351052633779e-02
         - 5.2039928586504322e-03
         - 6.8232854929347860e-03
         - -1.3100133722989061e-02
         - -1.1397319245915560e-03
         - -2.7020701840707276e-02
         - 2.1057606821872799e-02
         - -2.8642014026212686e-03
         - -3.9157713348984130e-03
         - -7.0511124636227468e-04
         - -1.1655562264248763e-02
         - -1.3960309291889390e-02
         - -1.5395434324880709e-02
         - -1.0797447231520372e-02
         - -6.9007075923806739e-03
         - -4.6543572947668737e-03
         - -1.1972003405288700e-02
         - 5.6810982823350519e-03
         - -2.5140080898009752e-02
         - -1.5030665507776663e-02
         - -1.9038255516117812e-02
         - -2.5160404500478763e-03
         - 2.0598269977960944e-02
         - -8.2111174835689093e-03
         - -7.1121902204463227e-03
         - -1.7926449961663385e-02
         - 1.0647560030107431e-02
         - -6.5826454959697208e-03
         - 2.2820297773348673e-02
         - -1.6406173882306075e-02
         - 1.7950250614342998e-02
         - 1.5218221098044356e-02
         - -2.2999253395067965e-02
         - 1.3267072889563417e-02
         - 2.2016543925598851e-02
         - -1.4698949560739223e-02
         - 1.7870334348663398e-02
         - 1.2393466760700318e-02
         - -1.0956775553709134e-02
         - -2.1682487546483782e-02
         - 2.0151604274677080e-02
         - 9.1719013925604023e-03
         - -2.7394414798396251e-02
         - -1.6902923103497274e-02
         - 2.3894755611965270e-02
         - -1.8914235688713921e-02
         - -2.5642572396699169e-02
         - -2.1495267338867155e-02
         - 2.4705147209278015e-02
         - 1.6748483109032739e-02
         - 2.1752770643661701e-02
         - -3.5196436865313182e-03
         - -1.2080476022695407e-03
         - 1.6653113315110050e-02
         - 1.0152486144024999e-02
         - 1.9504493651580142e-02
         - 7.3203023334433067e-03
         - 2.4874932370669182e-02
         - 2.8061343910304105e-02
         - 8.5961494918946404e-03
         - -7.6432064481562825e-03
         - 5.6994974526278913e-03
         - 6.2853764440394342e-03
         - 6.0862131700089488e-03
         - 6.7091154787896233e-03
         - -8.7034325999454810e-03
         - 1.4248579770006736e-02
         - 1.9277914258880233e-02
         - -1.0263941835444348e-02
         - -1.1221397943338401e-02
         - 1.8236675685907221e-02
         - 1.3156451914306297e-02
         - -1.3727494984308704e-05
         - 1.8305012535535182e-03
         - 3.5718116972149432e-03
         - -2.5634877621609855e-03
         - -2.1184247992992688e-02
         - 1.9692114479108094e-02
         - 1.8509744230960388e-02
         - -8.3488200911001342e-03
         - -1.9684753700942095e-02
         - -3.2305761393385088e-03
         - 5.5889744752625733e-05
         - 1.1931156434558126e-02
         - -2.5778497516897726e-03
         - 1.8480934553013424e-02
         - 9.1137378961717707e-03
         - 4.1693707903929667e-03
         - -2.3357369906901956e-02
         - -1.8078462399195205e-02
         - 1.2227983486087840e-02
         - -1.2556239596140602e-02
         - -6.4927941345444317e-03
         - -1.2326158549650993e-02
         - 8.1619519646547612e-03
         - -1.1473781614949895e-02
         - -1.3274338413901429e-02
         - 1.5501758167809385e-02
         - -1.3808899103135120e-02
         - 1.7592160329988237e-02
         - -6.0409806518932664e-03
         - 2.7910038105150276e-02
         - 1.1024112446808640e-02
         - -2.2645832417541947e-02
         - 1.1532021837775403e-02
         - -5.5967115494452097e-03
         - -1.5205000074584408e-02
         - -2.0039321861553976e-02
         - 1.3983036470142330e-02
         - 3.8303743922990063e-03
         - -2.1169640222891240e-02
         - 1.5199067150826409e-02
         - -2.2476911369249189e-02
         - -1.7202868803379203e-02
         - -4.5155732921718433e-03
         - -4.1262128577272310e-03
         - -5.4555624137004981e-03
         - 1.1462950830542853e-02
         - -1.0587073400990979e-02
         - 7.3304121410095830e-03
         - -1.1346937364130838e-02
         - 1.0339045261265710e-02
         - 2.7480220955173055e-02
         - 1.8113574762388292e-02
         - -6.8647576467744604e-03
         - 7.3613010790232200e-03
         - 7.9860354488932583e-03
         - 2.4674572897921444e-02
         - -1.7190429360198854e-02
         - 1.1590943276416764e-02
         - -2.4733670852475780e-02
         - -2.5367573425942140e-02
         - 1.6218514654376674e-02
         - 7.1077414507878999e-03
         - -2.2935128869977981e-02
         - -7.9933004732157358e-03
         - 1.1392952153913049e-02
         - 1.3884115435490143e-02
         - 2.0159300530830343e-02
         - -4.2730310110744036e-03
         - -2.0359216775574049e-02
         - -2.7621292455873428e-02
         - 2.0777943372706980e-02
         - 2.1411582772831731e-02
         - 2.3262307941161128e-02
         - 4.3795921849920745e-03
         - 1.8044424542703906e-02
         - -2.5390293722179606e-02
         - 5.8876468745929318e-03
         - 8.6062042533732296e-03
         - 2.3242685414279610e-02
         - -1.9525903926131259e-02
         - -1.0626663954250768e-02
         - -2.6028736042568146e-03
         - -2.2216402407585819e-02
         - 1.1959200703705810e-02
         - -2.2801330230564607e-02
         - 1.3981162128956590e-02
         - -1.5614666805062301e-02
         - 2.1863695528678097e-02
         - -1.7801908437244413e-03
         - -2.2910923662964027e-02
         - -2.6654121705659613e-03
         - -6.0078654804885164e-03
         - -7.3444879847764238e-03
         - 5.5147193023066064e-03
         - 1.1362527973614941e-02
         - 2.9236013177357596e-03
         - -6.5873497959758956e-03
         - -1.0912183050689259e-02
         - 2.7893316040528020e-02
         - -1.5110060173263636e-02
         - 1.9613379116376849e-02
         - 2.1186157654238386e-02
         - 9.2110614040983208e-04
         - -2.3510097877633652e-03
         - 1.8141616679882327e-02
         - -2.2375627418009563e-02
         - -1.9395495248034739e-03
         - -1.7250365007894385e-03
         - 1.6184096540763533e-02
         - -1.2860345926478094e-03
         - -2.5221971311932163e-02
         - 2.2725741415391756e-02
         - 1.2241268172027979e-03
         - -2.0961536807274625e-02
         - -1.5679605069002147e-02
         - 2.0030712721077537e-02
         - 1.4102086677496366e-02
         - -1.1670790941409411e-02
         - -1.5120068604407368e-02
         - -1.3958164499414775e-02
         - -2.3797899410475561e-02
         - 1.0014645413740971e-02
         - -1.6815544071717436e-02
         - -1.1219801901740812e-02
         - -7.8280833272056441e-03
         - 5.5340586983366798e-03
         - -4.5638186252576710e-03
         - 5.8593066655042219e-03
         - -9.2449869161617647e-03
         - 7.0359169612596315e-03
         - -1.1792348670995829e-02
         - -1.0966478645880818e-02
         - -2.5706645080651264e-02
         - -1.0220519225327968e-03
         - -1.0101249037915960e-02
         - -3.2288816168808687e-03
         - -6.8986177975767608e-03
         - -1.5135364893409289e-02
         - 2.0938014822039944e-02
         - -1.6662567549548254e-02
         - 6.0604070748833099e-03
         - 4.3191788349442135e-03
         - 1.5297694057313307e-02
         - 1.0950711209407139e-02
         - -1.2796512726444690e-02
         - -4.4635087399913101e-03
         - 6.3484295155462212e-03
         - 6.5202867263313945e-03
         - 2.6737969864060785e-02
         - 2.1697310458980778e-02
         - -2.3129696540829289e-02
         - 9.8173842405274454e-03
         - 4.0594533096874694e-03
         - 1.8513774914758696e-02
         - 2.2867856398240943e-02
         - 1.6359365713309586e-02
         - -1.9671180484566134e-02
         - -4.6517139018749307e-03
         - 1.1641116240006359e-03
         - 2.7139197381631789e-02
         - 1.2353755575545581e-02
         - 1.2106753530213284e-02
         - 2.4779829082496058e-02
         - 2.8591044491613479e-02
         - 2.5171702224400461e-02
         - 2.5865262563493776e-02
         - -6.9736709251828326e-03
         - -6.5627947575938707e-03
         - -1.4522500284017694e-03
         - -1.7773882394126198e-02
         - 1.8799421611613554e-03
         - -1.1238271099114365e-02
         - -9.1567187081135724e-03
         - 1.1463700848925196e-02
         - 2.4144975146211008e-02
         - -1.6329397900133272e-03
         - 6.9423862284110852e-03
         - -8.6643890560043312e-03
         - -1.1478666187916377e-02
         - -1.9020426554754135e-02
         - -2.4455406337325236e-02
         - -8.3218946040849277e-03
         - 2.5273862790216893e-02
         - -3.1724664760731658e-03
         - 1.4814623507779777e-02
         - -1.9709110069648483e-04
         - -1.0871169666808209e-02
         - -1.6226606398184764e-02
         - -2.5270695925500550e-02
         - 2.3039959578735232e-02
         - 1.9024915272014827e-02
         - 9.7280409343436514e-03
         - 5.7061788943916017e-03
         - 3.7089490058837145e-03
         - 7.2585250726639131e-03
         - -5.3563166687584634e-03
         - -1.3381518039709186e-02
         - -1.2559911087948005e-02
         - 2.1910771015151122e-02
         - 4.8286327798684355e-04
         - 2.2146738679351394e-02
         - 1.6004555456589152e-02
         - 9.5791794749889338e-03
         - -1.6546037138082594e-02
         - -9.9256438074228660e-03
         - -1.5924378995060520e-02
         - -1.4081652493708487e-02
         - -1.2258163112979890e-02
         - -2.7642139841971752e-02
         - -2.3599316206197520e-02
         - 1.8240424350265287e-02
         - 2.2274559666933067e-02
         - -1.0410447053416061e-02
         - -7.0602484794634887e-03
         - -1.3976211898787217e-02
         - -3.3243778169419580e-03
         - -2.8201255782301024e-02
         - -1.8571298497747829e-02
         - 1.1608532671288354e-02
         - 1.3639554840384517e-02
         - 2.8460085344106503e-02
         - -6.5571532806405555e-03
         - 5.1803190281854107e-03
         - 2.4160366744885996e-02
         - -1.1817742014053157e-02
         - -5.3308135396106845e-03
         - -1.4327535016767170e-02
         - 5.0324761112106441e-03
         - 5.8484265691373790e-03
         - -1.9106454854103800e-03
         - -2.4994365450188880e-02
         - 1.1651447623426273e-02
         - -2.6054116723405775e-02
         - -5.6773944511503216e-03
         - 4.0176644080919133e-03
         - 1.7532799829413939e-02
         - -7.8993997053797040e-03
         - 1.1193266003536517e-02
         - -1.7234001157591390e-02
         - 1.5287267576938617e-02
         - 1.7051211700939400e-03
         - -1.6318180237010320e-03
         - -3.4256400610616880e-03
         - -1.8942604486159229e-02
         - 2.1204540431375024e-04
         - -6.3812069587624752e-03
         - 1.9885374126563500e-02
         - 2.3802909028797281e-02
         - 2.7794344528775071e-03
         - 1.1295426306073889e-02
         - -1.6788906631515364e-02
         - 1.7760864742482323e-02
         - 2.4482396828014612e-02
         - -1.9256146634243864e-02
         - -4.2842853195055701e-03
         - -1.6160975499313696e-02
         - 1.2853793463839134e-02
         - 1.8964004499550415e-02
         - 4.7803845783649639e-03
         - 1.1426733019323999e-02
         - 2.2863669242927511e-02
         - 2.6024922579520937e-02
         - 7.5964982532881131e-04
         - -1.2151379393402697e-03
         - 1.1173183970994139e-02
         - 2.1019572791556192e-02
         - 2.2394712724021337e-02
         - -2.7350288797987069e-02
         - 2.4157496334057425e-02
         - -8.3577530912635600e-03
         - 2.4897076340379850e-02
         - -2.3016821959449523e-02
         - 9.5836159374375965e-03
         - 6.8986476179081872e-03
         - 1.5092581103145904e-02
         - 9.5269279026828409e-03
         - -6.6461253964685144e-03
         - -2.5602764301286683e-02
         - -1.7147915787939172e-02
         - 1.7860897325045514e-03
         - 8.6862893849869345e-03
         - -7.0392144742832284e-03
         - 2.1270232385411640e-02
         - -2.3884444694314888e-02
         - -1.2514652578604513e-02
         - -2.7758346188142321e-03
         - -5.1903475706323960e-03
         - 2.5787401639589681e-02
         - 1.3662493450962434e-02
         - 6.2688979969786427e-03
         - -1.3681615597162040e-02
         - 1.6444942359175194e-02
         - 7.3944581817426396e-03
         - -4.8203500494309309e-03
         - -2.0809174252394983e-02
         - -4.5188124293491219e-03
         - 2.8484114149207623e-02
         - -4.6509271475236712e-03
         - 2.1094199750935187e-02
         - -2.0354304486644187e-02
         - -1.3350506396320993e-02
         - 4.1844371762919412e-03
         - 2.5233309290832701e-02
         - 2.2442036652621157e-02
         - -7.9188496233449195e-03
         - 2.5361701072056594e-02
         - -2.2383791912763414e-02
         - -6.7556564985011254e-03
         - -1.6880770590637067e-02
         - -2.4067869785676276e-02
         - -5.8974441850996474e-03
         - -9.6565496255305115e-03
         - 2.0725602880532660e-02
         - 2.1254831241291992e-03
         - -1.8188831716018230e-02
         - -2.0090538238097266e-02
         - -8.9551440092667351e-04
         - -2.2136232685852998e-02
         - -7.6283741081161422e-03
         - 1.4786975762762953e-02
         - 1.3885925057763924e-02
         - -1.1358712876298305e-02
         - 1.4756368963799543e-02
         - -3.8858574403575967e-03
         - 1.7485013923552936e-02
         - 4.0275365722351368e-03
         - -2.2290616200514386e-02
         - -5.7004086607423199e-03
         - -1.4635556816202721e-02
         - -2.6070943547664850e-02
         - -1.6154745955641949e-02
         - -2.3839028427818751e-02
         - -1.7045504200895088e-02
         - -2.1963612052148626e-02
         - -1.6994567637481865e-02
         - -5.7202067740160711e-03
         - -1.0559813224774773e-02
         - 2.2180844234649007e-02
         - 1.1221906857537794e-02
         - 2.1220323581422622e-03
         - -8.5881966884202932e-04
         - 2.1787443634647928e-02
         - 2.0689654620153575e-04
         - 2.4040406193980290e-02
         - -7.6937171231155222e-03
         - -5.4014176429390158e-03
         - -1.4425677137685276e-02
         - -1.5872146264650885e-02
         - -2.7645356033637384e-02
         - 2.8569115417352377e-02
         - 2.8027773469512054e-03
         - 1.2392842755175788e-03
         - 2.2219770102409910e-02
         - 1.3591882712308252e-02
         - 5.3697639065999076e-03
         - 1.3881981709705190e-02
         - 1.0800941248216596e-02
         - 6.4129695036266293e-03
         - -4.6160241966821305e-03
         - -1.4480434266420025e-03
         - -7.3257973434245477e-03
         - 1.8023724981932075e-02
         - 2.1692810250826179e-02
         - -1.7211993348228035e-02
         - -3.1622373476334438e-04
         - -1.6373550492479384e-02
         - -6.5734141580721167e-03
         - 2.4412824439788598e-02
         - -2.6799882578080634e-03
         - 1.1327960349601688e-02
         - 5.5490512697134609e-03
         - 1.6207628737474430e-02
         - 1.7286399743967145e-03
         - 1.6555944815951733e-02
         - 1.7214295715327094e-02
         - -2.7566627948599719e-02
         - -9.9305880573349915e-03
         - -2.1826597623643699e-02
         - -8.1911291531315041e-03
         - -2.6062063427625588e-02
         - 5.7414097802063085e-04
         - -1.5492133507216833e-02
         - 1.5544773177450359e-03
         - 1.8455450622843325e-03
         - 2.6380927572519239e-02
         - 3.2024146156605839e-03
         - 1.3773275345448923e-02
         - -1.1538239102276434e-02
         - 3.0172374716408702e-02
         - -2.4634548058112115e-02
         - 1.3427892142620995e-02
         - -1.8806195103453854e-02
         - -1.3106542246515302e-02
         - 6.8915019492991544e-03
         - -5.7732011029640242e-04
         - 2.8384828175664567e-02
         - 1.8774410103567726e-02
         - -2.4610856047334297e-02
         - 2.5171701412515846e-02
         - 1.5265783026826605e-02
         - 6.9467144605676332e-03
         - 1.6777926728002847e-03
         - 5.6152359293479776e-03
         - 1.0479138982029757e-02
         - 9.0667773684588986e-03
         - -2.4938395487946591e-02
         - 1.6746648350245367e-02
         - -5.4748188475662570e-03
         - -1.5133968274355808e-02
         - -2.5499085166157971e-02
         - 9.9344514835615540e-04
         - -1.1977644223355146e-02
         - 1.8372385911065558e-02
         - -4.7895100813542457e-03
         - 7.4859141337159417e-03
         - -6.9563698381774628e-03
         - 2.0066288977230076e-02
         - 7.5865494758919532e-03
         - 1.6794717955969068e-02
         - -4.8349922037979375e-03
         - 7.5999440903267579e-05
         - -9.5711261775079000e-03
         - -1.7478784897164996e-02
         - 2.6031913396290123e-02
         - -1.0618550582765653e-02
         - -1.3565987650034425e-02
         - -2.1253600853895674e-02
         - 1.4089010590133899e-02
         - 1.7352357463684086e-02
         - -3.6174605890579282e-03
         - 1.3373495016428814e-02
         - -5.4702935281673998e-03
         - 1.0343263275435808e-02
         - 2.1769803614483099e-03
         - 2.4385628599121753e-03
         - -2.6973602193467734e-02
         - 5.1926233067413974e-03
         - 1.8451611436016802e-02
         - -7.2582646370511553e-03
         - 2.6355009233257752e-02
         - -2.4250555604788159e-03
         - -9.6576798927018002e-03
         - -1.4428122884652462e-02
         - -2.2138156111905925e-03
         - 1.7611408614419760e-02
         - -3.8763901549422170e-03
         - -1.3146448755955567e-02
         - -1.2163058257006075e-02
         - -3.6046119129117598e-03
         - -1.2468265181709860e-02
         - 2.5919470803321375e-02
         - -2.0876777455294721e-02
         - -8.0867199857361585e-03
         - 2.5715375824134593e-02
         - -2.6621514011291460e-02
         - -3.9221510799647063e-03
         - -7.6773295479903459e-03
         - 2.8077059989529845e-02
         - -1.5714198080879989e-02
         - 2.1435353035374735e-02
         - 1.4780233921493678e-04
         - -2.1058842445337265e-02
         - -2.3451473639740702e-02
         - -1.6727809698944687e-02
         - 2.6898720603017460e-02
         - 1.7923609441037155e-02
         - 2.1956599125442611e-02
         - 2.5428203838801729e-02
         - -2.3295976063885556e-02
         - -7.9809385689341168e-03
         - 2.2423213804409241e-02
         - 1.8971740256749255e-02
         - 2.3052440437463267e-02
         - -2.5347014621104728e-02
         - 1.4465348852247111e-02
         - -3.6234207365449223e-03
         - 1.0605310973131747e-02
         - 1.1657090326159774e-03
         - 3.6453258811750240e-03
         - -1.0346581809774248e-02
         - 2.7038936972434368e-03
         - 7.3349752648758787e-03
         - 9.4080277974616672e-03
         - 1.0630360220538704e-02
         - 9.0787732168212919e-03
         - -1.2990113971883368e-02
         - 2.0677307985375894e-02
         - -7.7555257528363611e-03
         - 6.1938907133550084e-03
         - -2.5217094618896888e-02
         - 7.3855128157326822e-03
         - 2.2137535920821669e-02
         - -2.4924138312260161e-02
         - -2.1143770236993799e-02
         - -1.4408471373314054e-02
         - 2.4812247323155987e-02
         - 1.1278254721187665e-02
         - 1.8306592790191523e-02
         - -8.4438763545292804e-03
         - 2.5270916570526863e-02
         - 2.6799705556949556e-02
         - -1.4016040917395046e-02
         - -2.5023140042508055e-02
         - -1.1795652531319187e-02
         - -2.9342577402875956e-03
         - 2.1303132638977856e-03
         - 1.6153001016661620e-02
         - 2.0882630330068867e-02
         - -1.4979881578361661e-02
         - -1.7071096444878441e-02
         - -1.6928915749988848e-02
         - 1.1280480995413724e-02
         - -2.7667284803396412e-02
         - -2.4434550749967920e-02
         - -2.6881688241203475e-02
         - -1.6411668151115586e-02
         - 2.2390408408663898e-02
         - 1.3580284698405392e-02
         - 7.9510867772556691e-03
         - 5.0563796482830823e-03
         - 2.7044820844741298e-02
         - -1.3297598865612374e-02
         - -2.4913850752741936e-02
         - -1.7960594105278810e-02
         - 2.8734371254277608e-02
         - 8.4783491505124667e-03
         - -1.6360662770082919e-02
         - -2.3375554126656244e-02
         - -2.3220723129518388e-02
         - -1.3692400065716577e-02
         - -1.1016840559420770e-02
         - -1.3693164012829931e-02
         - -1.6199176901898996e-02
         - -2.5876745385042970e-03
         - -1.8892355078618115e-02
         - 2.5819447012026459e-02
         - -2.6872999734984054e-02
         - -2.8399481320173118e-02
         - 2.6130595673526474e-02
         - 1.4283515601739511e-02
         - 1.6942810102313528e-02
         - 2.5379371092395672e-02
         - -2.2681243141171207e-02
         - 1.8985256766892195e-02
         - 1.7966653925497674e-02
         - -2.0857468913615215e-02
         - 1.7268435551143362e-02
         - 7.4904268598849997e-03
         - -1.9524383712334267e-02
         - 2.1585593210607414e-02
         - 1.1198486918347511e-02
         - -2.4611463628032701e-03
         - -1.4993709576152777e-02
         - -1.6617937524096984e-02
         - -1.3158653761828907e-02
         - -1.5757363214652490e-02
         - -8.3023103372451782e-03
         - 1.5843323550986468e-02
         - -2.1898798769033823e-02
         - -1.0247272929592571e-02
         - -1.1393914205466331e-02
         - 8.1853410574888735e-03
         - 2.5113573302219055e-02
         - -1.7065897557835243e-02
         - -8.0922790875021435e-03
         - 2.1764829560568320e-02
         - -1.1067889071035314e-02
         - -1.4327367179803594e-02
         - 8.8877774121618926e-03
         - 1.7796500682157698e-02
         - -9.5095701630274043e-03
         - 2.0113388607681703e-02
         - -4.3273933195441868e-03
         - 2.5243556664820092e-03
         - -8.6894728617248167e-03
         - -1.3812445192662831e-02
         - -4.4785702168912960e-03
         - -2.9761060914081230e-02
         - -1.6295329963204687e-02
         - 1.1170668936431623e-02
         - -9.1156116299643125e-03
         - 1.6695113516897197e-04
         - -2.3280207698634512e-02
         - 2.4009216977200779e-02
         - -2.9658784706682057e-02
         - -1.5608131532933632e-02
         - 2.5021156066596991e-02
         - 4.8635523482114127e-04
         - -1.2772061406403608e-02
         - -7.3110015010791809e-03
         - -8.7310745307996769e-03
         - -1.7120691973893081e-02
         - -8.9803160152171068e-04
         - 4.9546663365240334e-03
         - 1.9519931022525902e-02
         - -1.4995293838974360e-02
         - -5.5288999417486837e-03
         - 1.0238694581878736e-02
         - -2.4774389325326270e-02
         - 1.6492718189920038e-02
         - 3.6822576934113400e-04
         - -6.0721163249732079e-03
         - 1.6892635521824937e-02
         - 9.3265974616066395e-05
         - 2.5180407396744466e-02
         - -2.7529775119563442e-02
         - -1.6319631685020743e-02
         - -1.2362441232416144e-02
         - 8.4739045930775133e-03
         - -2.1586062720395302e-02
         - 2.5774833173931408e-02
         - -1.1766780529832380e-02
         - -1.2116048030810208e-02
         - 2.3686569732972566e-02
         - -8.2747913837760978e-03
         - -2.0318837900755751e-02
         - -1.3639971745160474e-02
         - 2.4526425102134056e-02
         - -1.2451687808166221e-02
         - 8.2700603929724021e-03
         - -2.3321344192113399e-02
         - -1.9330838308493432e-02
         - -2.4356760533741716e-02
         - 1.5339649637275760e-02
         - -1.5943264559746873e-02
         - -1.2399574918900515e-02
         - -1.7059488234580523e-02
         - 1.6166939865305287e-02
         - 1.2418764876886805e-02
         - -9.2528256065481044e-03
         - 1.5492356477791534e-02
         - 2.5536181836565038e-02
         - -1.5096303382532183e-02
         - 5.8514526759120304e-03
         - -8.2355968614039148e-03
         - 1.9640360194648807e-02
         - 1.5152149730441973e-02
         - 1.0799639494096366e-03
         - 2.4383788186239638e-02
         - -2.3435564056413595e-02
         - 1.2157121496570542e-02
         - -2.4225340889655035e-02
         - -8.8105901342859626e-03
         - 2.3374395527488944e-02
         - 1.4986098827067166e-02
         - 8.8854048921766220e-03
         - -7.4614020450566399e-04
         - -2.6500123503089196e-02
         - 2.1430696721682636e-02
         - -2.3209530298663898e-02
         - -1.5475384749274892e-02
         - -2.4488315346173930e-02
         - -1.1887908097590532e-02
         - -2.6525326965295862e-03
         - 1.8402493793150048e-02
         - -2.0718897384164187e-02
         - -8.8006558817951535e-03
         - 2.0038318917021760e-02
         - 1.4478197356622697e-02
         - -1.2504026457357535e-02
         - -6.3567752338511863e-04
         - -2.7686011357323553e-02
         - -1.1768756146842264e-02
         - -2.2501097357225868e-02
         - -2.6538830801065696e-02
         - 2.5557851133521246e-03
         - 2.8769563194475985e-03
         - 2.2784332331636264e-02
         - -2.4856200668052747e-02
         - 7.2564237505761044e-03
         - 2.4320159668791547e-02
         - -8.1467092530630690e-03
         - -2.1465510706247234e-02
         - -1.2348428545812510e-02
         - -2.1721894040387879e-02
         - -2.2213669274118331e-02
         - 1.9409158037514189e-02
         - -2.3009674169713661e-02
         - -2.0600728719789716e-02
         - -8.3371431308188037e-03
         - -9.0095297831776291e-03
         - 1.8528681667552560e-02
         - 6.2736245117931211e-03
         - -1.1724949486318310e-02
         - 1.8834580754003061e-02
         - -2.3496132721511128e-03
         - -1.3119943983309812e-02
         - 2.3570922605266841e-02
         - -1.6874627552301263e-02
         - -2.3013544344415660e-02
         - 1.2114982456070188e-02
         - 6.5110460422831626e-03
         - 6.1179268010682032e-03
         - -2.4422423022382057e-02
         - -1.4399243233859734e-02
         - 2.3025366636117765e-02
         - -2.4797530578229612e-02
         - -1.1910585077797742e-02
         - 1.3900214385261005e-02
         - 1.7128779363629772e-02
         - 7.2780369639975102e-03
         - 3.2242693857988244e-03
         - 1.1837964550754138e-02
         - 2.2535795407330101e-02
         - -2.8464462980331517e-02
         - -1.3940972793330116e-02
         - -2.8164640626040894e-02
         - -1.0779749764994309e-02
         - -2.0403139071614170e-02
         - 1.5245265841626481e-02
         - -1.2314825285466027e-02
         - 2.4740774769943710e-02
         - 1.3612389373135827e-03
         - -2.4070335246573947e-02
         - 8.2469012795263561e-03
         - 4.0682323007632036e-05
         - 1.0794466720042990e-02
         - 2.0829178950221228e-02
         - 1.9483823049174967e-02
         - -2.5074836108191740e-02
         - 4.4070024606721481e-03
         - 1.5712361812333989e-02
         - -2.6482678015444495e-03
         - -1.3550686382851122e-02
         - 7.5959193075091315e-03
         - 2.2098077778809230e-02
         - -1.5682682375534773e-02
         - -8.8216946982048738e-03
         - -5.4104003161634367e-03
         - 1.9125196388204778e-02
         - 6.7808548015414437e-03
         - -1.0684076819292759e-02
         - -5.4412738920233718e-03
         - 1.0584214905552388e-02
         - 2.6133492585709996e-02
         - -7.2354984915171047e-03
         - -6.2519896922895004e-03
         - 1.9257512859000422e-03
         - -8.6391184268024262e-03
         - -1.6593966241627421e-02
         - 9.8402686369039247e-03
         - -1.3826515330396782e-02
         - -1.2639970395880858e-02
         - 8.5720040986282647e-03
         - 1.0504986492122993e-02
         - -9.3515499118740700e-03
         - -2.1866816117152483e-02
         - -1.8556718779136422e-02
         - 1.8687031050211626e-02
         - 2.5370663462358140e-02
         - 8.8500546581129595e-03
         - -1.7773149820542695e-02
         - 1.0016973081010769e-02
         - 2.1148354081881975e-02
         - -1.2090432049876028e-03
         - -1.3879585431096877e-02
         - -2.6075897827556847e-02
         - 1.9489801911860491e-02
         - 2.2540002331010327e-02
         - -1.0422147074988487e-02
         - -2.3750996357850874e-02
         - -5.2840693353075298e-03
         - -9.1582389160718685e-03
         - 2.2066178360889345e-02
         - 4.8956744816873992e-03
         - -6.0467673817360531e-03
         - -2.6433616591096387e-02
         - 5.7903799611570888e-03
         - -4.2289790450570457e-03
         - 5.1446688472974178e-03
         - 2.1261016159237152e-02
         - 6.7461489747092590e-03
         - -2.3315497705390775e-02
         - 2.4359065612261702e-02
         - -7.2581300249990191e-03
         - -5.1661390604742618e-04
         - 1.8518659445098038e-02
         - 2.0789079695350012e-02
         - -2.7193239571394360e-02
         - -1.2255753654039640e-02
         - -1.2381376876852946e-02
         - 8.4866986148378377e-03
         - 1.1970790671209670e-02
         - -2.0006148457500424e-02
         - 1.0392011678525362e-02
         - -4.5235674905504467e-03
         - 2.5146026450919474e-02
         - -1.6087887994839085e-02
         - 1.1504793470684416e-02
         - 2.1981291119187597e-02
         - -1.3709784010934048e-02
         - -2.5182495335058723e-02
         - -1.4235507648529728e-02
         - -2.3630108299773890e-02
         - -2.3610123478436752e-02
         - 2.2522156314281470e-02
         - 2.0743967285260071e-02
         - 1.7096722364410368e-02
         - 6.7156536111598452e-03
         - 5.4870696038070970e-03
         - 2.5795629627558554e-02
         - 3.2146223410774262e-03
         - -1.4225315158871984e-02
         - -2.5252443144254375e-02
         - 5.6377756674226677e-03
         - -1.7848212617624582e-02
         - -2.5053929073337405e-02
         - 7.2712455372003779e-03
         - 2.8055811174916678e-02
         - 2.5598103272116323e-02
         - -2.0960454896805699e-02
         - -1.8789436578179060e-02
         - -1.9066685380738375e-02
         - 8.3427726111218840e-03
         - -1.2854257953124920e-02
         - 2.4011253303413936e-03
         - -1.0927126075510128e-02
         - 1.4630140130168424e-02
         - -1.5959638088148844e-02
         - -2.2024550559046948e-02
         - -8.4077931480400787e-03
         - -2.0330502699386084e-02
         - -2.7100241800823613e-02
         - -1.0286736327661878e-02
         - 1.4537532564908874e-02
         - 5.0984973140459832e-03
         - -2.2403961600745200e-02
         - 2.0694834088868706e-02
         - -1.5980136276755142e-02
         - 2.2638793799665786e-02
         - 1.5814162732922288e-02
         - -2.1728721700931587e-02
         - 1.0142294386591644e-02
         - 1.7378075171909577e-02
         - -1.6768097683239991e-03
         - -7.6825720092128002e-03
         - -1.1213565798353010e-02
         - -1.0268082169432792e-02
         - 1.0484016783506356e-02
         - -5.2028871764593383e-03
         - -2.1558240788681431e-03
         - 1.0983172808912247e-02
         - -1.6706837731811395e-02
         - -9.1623177562631108e-03
         - 2.4716961875292398e-03
         - 1.7590635711529960e-02
         - 1.3738581953828786e-02
         - -1.3275355592265444e-02
         - 8.4233819759649900e-03
         - -1.7098825541935654e-02
         - 1.3985610173181966e-02
         - 1.3229398867082038e-02
         - -1.7229605001605766e-02
         - 4.9713949859296709e-03
         - -9.9205920580530231e-03
         - -9.6353010428309894e-03
         - -1.3808629975540139e-02
         - 1.4456819229073006e-02
         - 1.5081155530505761e-02
         - 1.8714090297760572e-02
         - 1.0097944690491476e-02
         - 5.6887889512957177e-03
         - -1.7445086934644562e-02
         - -9.4625305757702408e-03
         - 1.9084332247517780e-02
         - 2.5741713984928048e-02
         - 1.0459302874149170e-02
         - -8.1561305269608874e-03
         - -1.8627396465199107e-03
         - 2.7502526882602883e-02
         - -1.3421476696744858e-02
         - -2.7998140463343528e-02
         - 9.9023555157897142e-04
         - -2.0599877661544586e-02
         - 1.4694802821391887e-02
         - -2.1848620334036950e-02
         - 2.5176438600151896e-02
         - 2.7347391660861704e-02
         - -1.6782267020008297e-02
         - 2.3515736510131707e-02
         - -4.0820581507166002e-03
         - -2.4582541287836091e-02
         - 2.2649522589368514e-02
         - 1.1414097678934610e-03
         - -2.9519080458978012e-03
         - 1.9260985930581506e-02
         - 7.2794223565672243e-03
         - 6.1901190080724351e-03
         - -1.0625708251249413e-02
         - -5.0005867078624991e-03
         - 2.9676046293485125e-03
         - -1.7602657070326176e-03
         - -9.9801937290527731e-03
         - -8.8779692803253997e-04
         - 2.5757273079191133e-02
         - -1.0103732917899783e-02
         - -1.7890990255226624e-02
         - 9.5418791009753250e-03
         - 1.2720946116024276e-02
         - 1.9519901928000499e-02
         - 1.3568992247417470e-02
         - 6.4592042605643692e-03
         - 1.0060071418002725e-02
         - 1.9609327153819849e-02
         - 1.6856792265555091e-02
         - -1.9773340988166639e-02
         - 1.6667616926669290e-02
         - 1.5260306430766491e-02
         - 2.1844819219309041e-02
         - -1.2517136672645084e-02
         - -2.5976404417569939e-02
         - -7.5827946087306201e-03
         - -2.0155464955249808e-02
         - -2.9553490935119377e-03
         - 2.0056142494540723e-02
         - 7.0377947888795502e-03
         - 4.1620991455995539e-03
         - 2.2730943463478252e-02
         - 1.1418733597593399e-02
         - 1.0468866937853347e-02
         - 1.4322670295185587e-02
         - 6.8909163309196940e-03
         - 2.5237887435926795e-02
         - 1.0751674515194470e-02
         - -4.7655030579549958e-03
         - -4.6061290169701237e-03
         - -2.0798973525124605e-02
         - -2.2005265491656538e-02
         - -1.4902501311481889e-02
         - 1.4165462643770645e-02
         - -1.8473104386957514e-03
         - -5.6645913830050427e-03
         - -1.5634917284304734e-02
         - -1.5180025259321637e-02
         - -6.3902662871931533e-03
         - 7.6196666968926631e-03
         - -1.6172318598839656e-02
         - -2.3176030919032937e-02
         - 1.7113977099123129e-02
         - 1.7997705482632523e-02
         - -8.2203656722707862e-03
         - 2.3721894085056133e-02
         - 7.6238061090304369e-03
         - 1.5893667809752487e-02
         - -1.9377556619858193e-02
         - 1.5255151658409684e-02
         - -1.2918333802762255e-03
         - -5.9170033423584728e-03
         - -1.3335543837422369e-02
         - 4.1951499925689754e-03
         - -8.7053094972071848e-03
         - -2.9001194434483675e-03
         - 1.0469029914629275e-02
         - -2.3558806411077405e-03
         - -1.9288688363421808e-02
         - -1.2593698272947096e-02
         - -2.6131269570997210e-02
         - -2.7859729405624149e-02
         - -2.2071183408783064e-02
         - 1.2638154656040429e-02
         - 1.1675722259816136e-03
         - -2.2992926514229118e-02
         - -7.5211529766210927e-03
         - 1.1128023819717163e-02
         - -1.4444864140877214e-02
         - 6.0561835388824349e-03
         - 1.0958506091677310e-02
         - 2.4009880721295781e-02
         - 2.2411115269316474e-02
         - 7.5719988977729392e-03
         - 9.2963058775397314e-03
         - 9.1314675003880668e-03
         - -8.0683767638439954e-03
         - 2.6438045236707682e-02
         - 1.4727848394893474e-02
         - -1.9762651048079231e-02
         - -7.2562268863544917e-03
         - 2.1701172966481740e-02
         - -1.6711699910837148e-03
         - 4.6337000155253737e-03
         - 1.3868335165840413e-02
         - -1.9921269012962910e-02
         - -7.8449822922309787e-04
         - -6.0720089066510401e-03
         - -3.9364151062629919e-03
         - 2.2583010580027818e-02
         - -1.8202156573990363e-02
         - -1.4344805745169742e-02
         - -1.3884988645238875e-02
         - 9.3872251755319370e-03
         - 1.6406209933083615e-02
         - -5.3153213311186590e-03
         - 1.8475869160134754e-03
         - 1.3172776094671469e-02
         - -1.1961482576699245e-02
         - -2.6241315673609263e-02
         - -2.1468766307494006e-02
         - 2.0711466321460740e-03
         - 1.6533626554389072e-02
         - 7.6269230985232615e-03
         - -3.3305619739454175e-03
         - 1.8287802589189376e-03
         - 8.0308734904936379e-03
         - 3.8135581305663894e-04
         - 2.1342289487511067e-02
         - -1.8030573711381531e-02
         - -7.5701748240393227e-03
         - -2.0979502262809271e-02
         - 1.2210143265365998e-02
         - 1.8186224377576291e-02
         - -1.7397285533098054e-02
         - 1.5450469721172224e-02
         - 1.7290711246371292e-02
         - -3.5495298809699858e-03
         - 8.2599928936286527e-03
         - 2.1371295841384860e-02
         - -1.6744858676982954e-02
         - -2.5752976757737914e-03
         - -1.6702251549678253e-03
         - -2.0785919253639314e-02
         - 7.7030313071400633e-03
         - -2.2767169883164868e-02
         - -1.5738023164221668e-02
         - 1.0862510106973108e-02
         - -6.1255186328769400e-03
         - -9.4046067941691448e-03
         - 1.2317587631470684e-02
         - -1.0438680149722835e-02
         - 1.1628657507133366e-05
         - -2.4976912018701919e-02
         - 2.3716929525695842e-02
         - -1.4070870105190281e-02
         - -1.5070136215068248e-02
         - 8.9562970627574633e-04
         - -1.9258087152023831e-02
         - -1.6874658653091179e-02
         - -2.7800005930048631e-02
         - 2.2084775048932239e-03
         - 1.0454223259250182e-02
         - 2.0770287587121881e-02
         - -2.3063282314936043e-02
         - -2.1424196174576235e-02
         - 1.1858343714985915e-02
         - 2.4067549481231746e-02
         - -1.5185269056015924e-02
         - -2.8878879673969950e-03
         - 8.7538288257436054e-03
         - 1.8405275397085211e-02
         - -1.7521165439589891e-02
         - -1.0940086256186074e-02
         - 2.1496890367805339e-02
         - 6.7919124638841488e-03
         - 2.8469251899052731e-03
         - 1.8375540097114895e-02
         - 1.7662380311737773e-02
         - -2.5330756145828300e-02
         - -2.5099355792031069e-02
         - -2.4696615660295660e-02
         - -1.3306972624118788e-02
         - 7.4791196960124335e-04
         - -5.9708432873362745e-03
         - 2.1781172903880840e-02
         - 6.6997032327733470e-03
         - -2.5331093137652867e-02
         - -2.0437412071428857e-03
         - -1.9472708384190782e-02
         - 2.1498500862820936e-02
         - -1.5102879688137751e-02
         - -1.2465971652233943e-02
         - -1.7001979275860522e-02
         - 1.6936456856499051e-02
         - -6.9808994070645943e-03
         - -1.1382902945628912e-02
         - 1.8081787077579042e-02
         - 2.1517774194356833e-02
         - 1.9578873762649652e-02
         - 1.9552384001381283e-02
         - 2.6514453608170230e-02
         - -3.8215709884754979e-03
         - 2.0607957946514308e-02
         - 2.2483462127120570e-02
         - -1.1469586721348754e-02
         - 2.1930443496966486e-02
         - -1.1170319659074954e-02
         - -2.7285058771641342e-02
         - -1.4375016414833462e-02
         - -2.3945488472488265e-03
         - 1.6864059444413680e-02
         - -2.3196099762314297e-03
         - 2.1085995117576691e-02
         - 1.7518843001840256e-02
         - -1.7996663284566811e-02
         - 1.1808534333248388e-02
         - 1.6590266788230841e-02
         - -4.3223146383484503e-03
         - -8.8094716367924097e-03
         - 1.7097096379233640e-02
         - -2.3927687727901107e-02
         - -3.9194513105520285e-03
         - 2.1991228389928133e-02
         - -1.2067833059850655e-04
         - -8.7216454243699282e-03
         - -1.7515776159107616e-02
         - 9.0559342477324392e-04
         - 1.4747389518270130e-02
         - 2.1637719895875171e-03
         - 3.4694737073293451e-03
         - 8.0595772544316360e-04
         - -1.6517992257768985e-02
         - -9.9012328067417821e-03
         - 4.0832371773842436e-03
         - 1.8459451371367456e-02
         - 2.0233788903835707e-02
         - 1.3417871295510709e-02
         - -1.1293280926794539e-03
         - 2.5953744028124802e-02
         - 1.7009030094945237e-02
         - 6.5137424839307586e-03
         - -1.8549709583650386e-02
         - 4.4338324754707691e-03
         - -2.4838805232100959e-02
         - 1.6001669170236977e-02
         - -2.3867846026135266e-02
         - 1.1444210275768751e-02
         - 2.4441455917096604e-02
         - -1.2125865376161150e-02
         - 3.7260153210262083e-03
         - 1.5979631426052479e-02
         - -1.8921764683150287e-02
         - 1.7416304116763617e-02
         - 1.7385699107665242e-02
         - -1.1770475688756070e-02
         - 1.6414455610493421e-02
         - -1.3094223935552186e-02
         - -7.3901403412763602e-04
         - 2.1918870436551663e-02
         - -1.6981715708481591e-02
         - 1.3986726346493695e-02
         - -2.1119355737628236e-02
         - 1.3494677166130982e-02
         - 2.0371116550006469e-02
         - -7.6601782828099839e-03
         - 2.2356129232575933e-02
         - -1.1914959474899558e-02
         - 1.5137867748262784e-02
         - 3.4010303549532419e-03
         - -7.3603314848744617e-04
         - 2.6480983688952280e-02
         - 1.4608713233771432e-02
         - -5.4700244730296150e-03
         - -2.2886542621910116e-02
         - -1.5800919728819983e-03
         - 1.1597589705350209e-02
         - -1.2185900307752783e-02
         - -8.6145947084563593e-03
         - -1.4425241046690030e-02
         - 3.1858789639637639e-03
         - 2.6978405869914242e-02
         - 2.5337882708308931e-02
         - 1.4196823150799202e-02
         - 1.1765857116723627e-02
         - 2.3118796430108536e-02
         - -1.1559411952019760e-02
         - 2.4637401499519217e-02
         - 2.8453639721921119e-02
         - 7.0165881310789479e-03
         - 3.1438813654455656e-04
         - 5.7351462494568328e-03
         - 8.0175191335528761e-03
         - 4.9331150207354492e-04
         - -1.3298851523629081e-03
         - 2.6250482284300446e-02
         - 2.4818461066681455e-02
         - 8.9265484491733770e-04
         - -1.4005493938969223e-02
         - -1.1792531135363804e-02
         - -1.1932848489571290e-03
         - -2.4202556540681215e-02
         - 1.5643292759684117e-02
         - 1.2672321458111918e-02
         - 2.1042709638659330e-02
         - 3.8301722323058184e-03
         - 5.9180452931812582e-03
         - 2.5055753075403090e-02
         - 9.4775585225305447e-04
         - -1.6725962769815039e-02
         - -2.5832960094838615e-02
         - -1.7257724904236951e-02
         - -2.3346681106410486e-02
         - -7.6504732648316719e-03
         - -9.2726680959294757e-03
         - 2.3547992691371630e-02
         - 4.5595034064790192e-04
         - 2.0005729689132671e-02
         - 2.0793074118909717e-03
         - -7.5965128810615143e-03
         - -1.7670370020845601e-02
         - -1.0249367377269480e-02
         - -2.5657566924688853e-02
         - 1.7440406383924863e-02
         - 1.6124428237755433e-02
         - -2.0880766424345925e-02
         - -1.0959466028693769e-02
         - 2.3892933762164878e-02
         - 4.4427754467711448e-03
         - -2.1285666874000506e-02
         - -9.7905405538111986e-04
         - -7.9827162921970382e-03
         - -9.8178831389880272e-03
         - -1.3437994168059195e-02
         - 1.4287270507663452e-02
         - -1.1521996652886920e-02
         - 2.0819010730938815e-02
         - -1.0800691047256556e-02
         - -4.2310805742387821e-04
         - -2.1098335881925750e-02
         - -4.0234901249402979e-03
         - -5.4296097377404835e-03
         - -2.2297075696101457e-02
         - 8.1811646382802718e-03
         - -1.3770444273737713e-02
         - -1.5987059514244430e-02
         - 1.4872909380485704e-02
         - -2.5646584022314591e-02
         - 7.0794949125573669e-03
         - 2.5191543928751201e-02
         - -8.2982107456869487e-04
         - 2.4911586238268696e-02
         - -2.0576516435196542e-02
         - 1.2974701905276727e-02
         - 2.3714896189875365e-02
         - -4.8847892974603390e-03
         - -1.9058367736942881e-02
         - -2.3399372645276452e-02
         - -2.0443325003493967e-02
         - 2.4625375022397766e-02
         - 4.7375905937974000e-03
         - -1.2007385642432312e-03
         - 1.3214563459698557e-02
         - 4.4862882144759021e-03
         - -8.3429766642999052e-03
         - -1.4909427974753281e-02
         - 1.9809935530435436e-02
         - -5.6736515268687639e-03
         - -1.4458636036552088e-02
         - 2.2383087959468254e-02
         - -2.7050057027097770e-03
         - -1.1500515946803798e-02
         - 7.9360301942758716e-03
         - -3.4643136299576083e-03
         - -2.3432667644526957e-02
         - 8.6576114804287098e-04
         - 1.6004338882037051e-02
         - 3.7517615233947973e-03
         - -1.4212407231355272e-02
         - -2.4374222961338707e-02
         - 1.7247277189999032e-02
         - -3.4259444103828980e-03
         - -1.3998600568164871e-02
         - 1.5293881532328763e-02
         - -1.1306908090134984e-02
         - -1.2663944412781658e-02
         - -3.1858954575368398e-03
         - -2.6788459221955323e-02
         - 1.5501865753386140e-02
         - 9.9474648285751109e-03
         - 2.9558607215389066e-03
         - -2.5646278894479780e-02
         - -2.7616733023720447e-02
         - -8.0857669947226093e-03
         - -1.4006470874307260e-02
         - -1.7413530884086040e-02
         - -2.0403692775766560e-02
         - 2.7598437475000990e-02
         - 4.1917739662629501e-03
         - -7.5280478991894889e-03
         - -4.5299438986901230e-03
         - -8.1873892909669396e-03
         - -2.3485284230956950e-02
         - 7.6640393929027139e-03
         - 5.9581623181923869e-03
         - -1.5405312534899962e-02
         - 1.7807648818637480e-02
         - -6.8795748543712676e-03
         - -1.9935727256664818e-02
         - -1.7340832357820576e-02
         - -2.1665160857205633e-03
         - -9.9275324056821608e-03
         - -1.7630351692210521e-02
         - -2.7715118426819934e-02
         - 1.9881257348629767e-02
         - 2.6980709387515135e-03
         - -5.9381317249959549e-03
         - 4.6894914461215412e-03
         - 1.4775086782166019e-02
         - 1.6922125806476229e-02
         - -2.6286970903943933e-02
         - 2.0841075443811231e-02
         - -1.4985225837329488e-02
         - 1.4030052694972555e-02
         - -1.8827182325152066e-02
         - 2.6521407596445681e-02
         - -2.8246994546721046e-03
         - 8.2563147591464543e-04
         - 1.4838577273649026e-02
         - -1.3774450374168631e-02
         - -1.8684333905344911e-02
         - 1.7510381812999597e-02
         - -2.0633240221672452e-02
         - -7.6693752495668767e-03
         - -8.1165875512171064e-03
         - 1.0212549480160872e-02
         - -2.1930427636004394e-02
         - -7.9038093530272354e-03
         - 1.1049145272407196e-02
         - -1.6825762479151823e-02
         - 4.3486819717061826e-03
         - -7.0071416664029664e-03
         - 6.7202694460566318e-03
         - 1.5521402742787438e-02
         - 1.2016179833480576e-02
         - -7.2230001406519660e-03
         - -1.6140840390378525e-02
         - 3.3454080673582846e-03
         - 1.7226009654487732e-02
         - -2.1663136714060196e-02
         - 5.3922752160243453e-03
         - 2.2402719128497509e-02
         - -7.3024597707605572e-04
         - 2.1976501215188154e-02
         - 2.7578926711991521e-02
         - 1.2465829575362249e-02
         - 1.2154142523591182e-02
         - -1.4619666454892761e-02
         - 1.5361127870715308e-02
         - 1.4223364617595520e-02
         - -1.7516213998730174e-02
         - -7.7722499216621218e-03
         - 4.8559763598710328e-03
         - -5.8595118652590705e-03
         - -6.0978589606650946e-03
         - 4.8632480451520710e-03
         - 2.6976300322457323e-02
         - 1.4729120507128336e-02
         - -1.6335760250581389e-04
         - 3.2241599934322257e-03
         - 1.1734015844298120e-02
         - -2.6629885162226450e-02
         - -1.4511199647916976e-02
         - -1.9595855433728000e-02
         - -1.4506914725997865e-02
         - -2.4399265697714244e-02
         - -3.6792809787511769e-03
         - -1.4620926012230395e-02
         - -9.7045255978597360e-03
         - 2.4067401214684443e-02
         - 2.1627822735764080e-02
         - 1.4986619644652590e-02
         - -1.9910031921876917e-02
         - 4.9094912299115553e-03
         - -5.5580479988251510e-03
         - -2.1372520853535412e-02
         - -3.5262550872279209e-03
         - 9.3572239327853468e-03
         - 2.6864001003904750e-02
         - -2.4244942015326048e-02
         - 8.1383826396735689e-03
         - -1.1529848507800105e-02
         - -2.3556147441384203e-02
         - -1.9350211352228926e-02
         - -1.6190564915496270e-02
         - -2.5421958017943318e-02
         - -7.7417650493996262e-03
         - 2.1029920640083476e-02
         - 1.9107054750099720e-02
         - -1.3512747628229051e-03
         - 1.5582428690138161e-02
         - 5.1560239782159753e-03
         - 1.7638450170745560e-02
         - 1.7466133236265700e-02
         - 1.9163388706450579e-02
         - -1.3106663215552074e-02
         - 2.5202856022793735e-02
         - 7.9613504490250945e-04
         - 3.5054858012443920e-03
         - -1.1411537498890347e-02
         - -1.0201363672632503e-04
         - 6.5624151980716392e-03
         - 9.5974956108940343e-03
         - -8.8131211262589583e-03
         - -3.6284208036302776e-03
         - -3.0630131937103437e-04
         - -2.0607677484487268e-02
         - 1.8137154276017250e-02
         - 2.0558318289577736e-02
         - 1.6253110539178729e-03
         - -2.3052463226271150e-02
         - 3.7043284384337768e-04
         - 1.9636485905274718e-02
         - 2.1305208323411469e-03
         - -1.6741514249392391e-02
         - 2.3881748578774061e-02
         - -2.3289757110129310e-02
         - -1.2203810485372391e-02
         - 7.5767141955005429e-03
         - 2.3323078740367882e-02
         - -1.1158062823445381e-02
         - 2.3282885637819498e-02
         - -1.9739533827272761e-02
         - -1.7441963056864258e-02
         - -2.5741281889920298e-02
         - 2.8282465625612461e-02
         - -9.6777397290413424e-03
         - -4.3165572990712317e-03
         - -4.9384505554560046e-03
         - 2.3407834390208812e-02
         - 4.8931232609239288e-04
         - 5.3153437473482191e-03
         - 2.5048204589259705e-02
         - 2.7306491318685851e-02
         - -2.5927552170946666e-02
         - 1.5545335051158661e-02
         - -2.5667296168293129e-02
         - -2.6891912333061158e-03
         - -9.8716649553134122e-03
         - 3.9599796414500994e-03
         - 1.3753786956410146e-02
         - -1.1503482419463440e-02
         - 3.7702506522637102e-03
         - 2.0861876746441129e-02
         - 1.3571407346710798e-02
         - -1.6816286729439075e-02
         - 5.1378368005870661e-03
         - 1.5259316220695825e-02
         - -4.2510012321665012e-03
         - 1.6400896911239270e-02
         - 7.8058264287286412e-03
         - -2.9417216000475258e-02
         - -1.4580941156314232e-02
         - 1.2457845566669340e-02
         - 2.4669683170576745e-02
         - -6.6059727396584195e-03
         - -1.7630837423478419e-02
         - 1.1930358630238329e-02
         - -5.8566653642173226e-03
         - 1.7446297447568121e-02
         - -1.6583118297780280e-02
         - -3.8251881923673059e-03
         - -1.0073809255073268e-02
         - -8.2488891807295552e-04
         - 3.9714977766252667e-03
         - 2.7284762349529670e-02
         - 1.9981063692916461e-02
         - -1.0488763711392480e-02
         - 3.2965758302996614e-03
         - -7.7184083857332018e-03
         - -1.9606631033150967e-02
         - 1.3678061615538129e-02
         - 7.0961049066245643e-03
         - -2.4727426538788396e-02
         - -2.8838528021935539e-02
         - 1.6028500145447211e-02
         - -2.7415914202820225e-02
         - -2.3751829034680387e-03
         - 4.8653115142656645e-03
         - -2.3651835592322878e-02
         - 2.1201427712896619e-02
         - -1.9399474644850605e-03
         - -9.2770115106671769e-03
         - 5.5790657446632688e-04
         - 2.4819297181728334e-02
         - 4.6230412465939792e-03
         - -8.1655410034175129e-03
         - 1.4853585532617317e-02
         - -2.4140222966443203e-02
         - -1.3284004826707467e-02
         - 1.3535020917154717e-02
         - 2.4698556209706797e-02
         - 9.7159805737694980e-03
         - 2.1079535786198790e-02
