%YAML:1.0
---
opencv_ml_ann_mlp:
   format: 3
   layer_sizes: [ 72, 64, 32, 2 ]
   activation_function: SIGMOID_SYM
   f_param1: 6.6666666666666663e-01
   f_param2: 1.7159000000000000e+00
   min_val: 0.
   max_val: 0.
   min_val1: 0.
   max_val1: 0.
   training_params:
      train_method: BACKPROP
      dw_scale: 1.0000000000000001e-01
      moment_scale: 0.
      term_criteria:
         epsilon: 1.0000000000000000e-02
         iterations: 1000
   input_scale:
      - 1.
      - -8.6846090853214264e-02
      - 1.
      - -9.1881997883319855e-02
      - 1.
      - -1.3376045227050781e-01
      - 1.
      - -2.2049787640571594e-01
      - 1.
      - -1.9783751666545868e-01
      - 1.
      - -1.2761493027210236e-01
      - 1.
      - -1.2378139048814774e-01
      - 1.
      - -7.5317792594432831e-02
      - 1.
      - -1.0083670169115067e-01
      - 1.
      - -5.8173649013042450e-02
      - 1.
      - -1.1853712052106857e-01
      - 1.
      - -2.4663214385509491e-01
      - 1.
      - -2.5737261772155762e-01
      - 1.
      - -2.5737261772155762e-01
      - 1.
      - -2.5600925087928772e-01
      - 1.
      - -1.7671957612037659e-01
      - 1.
      - -1.0435620695352554e-01
      - 1.
      - -7.1999706327915192e-02
      - 1.
      - -9.0978272259235382e-02
      - 1.
      - -9.0230263769626617e-02
      - 1.
      - -1.4844343066215515e-01
      - 1.
      - -1.9127593934535980e-01
      - 1.
      - -1.5804292261600494e-01
      - 1.
      - -1.1756066977977753e-01
      - 1.
      - -1.2529338896274567e-01
      - 1.
      - -1.0033486038446426e-01
      - 1.
      - -1.0461115837097168e-01
      - 1.
      - -1.0219262540340424e-01
      - 1.
      - -1.1838682740926743e-01
      - 1.
      - -1.7261379957199097e-01
      - 1.
      - -2.5737261772155762e-01
      - 1.
      - -2.5737261772155762e-01
      - 1.
      - -2.5737261772155762e-01
      - 1.
      - -2.3965923488140106e-01
      - 1.
      - -1.8198382854461670e-01
      - 1.
      - -1.0332994908094406e-01
      - 1.
      - -8.1928804516792297e-02
      - 1.
      - -5.2211612462997437e-02
      - 1.
      - -7.7788971364498138e-02
      - 1.
      - -3.0192050337791443e-01
      - 1.
      - -3.0192050337791443e-01
      - 1.
      - -2.2082233428955078e-01
      - 1.
      - -8.4021620452404022e-02
      - 1.
      - -5.8573983609676361e-02
      - 1.
      - -7.5722366571426392e-02
      - 1.
      - -4.9228340387344360e-02
      - 1.
      - -7.3312766849994659e-02
      - 1.
      - -1.6414649784564972e-01
      - 1.
      - -2.6112309098243713e-01
      - 1.
      - -3.0192050337791443e-01
      - 1.
      - -2.1531283855438232e-01
      - 1.
      - -1.0305498540401459e-01
      - 1.
      - -4.3748531490564346e-02
      - 1.
      - -4.8604700714349747e-02
      - 1.
      - -5.9531293809413910e-02
      - 1.
      - -6.4564034342765808e-02
      - 1.
      - -1.6320952773094177e-01
      - 1.
      - -3.0192050337791443e-01
      - 1.
      - -3.0192050337791443e-01
      - 1.
      - -1.6545177996158600e-01
      - 1.
      - -8.1302583217620850e-02
      - 1.
      - -6.2854677438735962e-02
      - 1.
      - -5.3396172821521759e-02
      - 1.
      - -4.3167740106582642e-02
      - 1.
      - -5.3398326039314270e-02
      - 1.
      - -1.5287487208843231e-01
      - 1.
      - -2.3618076741695404e-01
      - 1.
      - -3.0192050337791443e-01
      - 1.
      - -1.8379817903041840e-01
      - 1.
      - -9.7127929329872131e-02
      - 1.
      - -3.8997422903776169e-02
      - 1.
      - -4.0588088333606720e-02
   output_scale:
      - 1.
      - 1.
      - 1.
      - 0.
   inv_output_scale:
      - 1.
      - -1.
      - 1.
      - 0.
   weights:
      -
         - -7.9517104674150050e-03
         - -1.1582934627674321e-03
         - 2.4340715927656666e-02
         - 1.7276187095169315e-02
         - -2.8483392297757627e-03
         - 2.6336596952000604e-02
         - -1.5570005523189176e-02
         - -2.4871362942987876e-02
         - -9.3079073074263993e-03
         - -8.6341293768826596e-03
         - -1.1661729337122551e-02
         - -1.1516105579223846e-02
         - -4.3631849015134949e-03
         - 2.0734543348063617e-02
         - 1.5687274894654435e-02
         - -9.4296647118960273e-03
         - -2.5474611401826039e-02
         - 1.5261957666489644e-02
         - 5.2949741947197152e-03
         - 1.7020516002828442e-02
         - 1.5055536905929820e-02
         - 1.5317290041960528e-02
         - -1.7502528119836151e-02
         - -1.9469036864873515e-02
         - -1.7012510352003633e-02
         - -9.1547875340963029e-03
         - 1.6076112319353523e-02
         - -2.3086740265675670e-02
         - 2.4995677227783578e-02
         - -1.8221670523303477e-03
         - 4.7842490046427473e-04
         - -7.4642587436755670e-03
         - 1.6528773552360192e-02
         - 3.1677391098278167e-03
         - -2.5398561311458435e-02
         - 1.2925618601451644e-02
         - 2.1825047050494224e-02
         - -1.3760924287212532e-02
         - 9.2067061174924865e-03
         - 1.4997279053322031e-02
         - 1.7380193045149325e-03
         - -6.4765936543568423e-03
         - -2.1550561545647499e-02
         - 1.2583544786678946e-02
         - -1.4048892168025394e-02
         - 4.6683081329717468e-03
         - -1.5829573972077945e-02
         - -1.2198681123163121e-02
         - -2.4932339508273615e-02
         - -5.2245678019041805e-04
         - 2.7269133770994686e-02
         - 2.1378397557526328e-02
         - -1.3333826933609159e-02
         - 2.2445819711119867e-02
         - -2.1164736248994738e-02
         - -2.5916537326149482e-02
         - 8.5950722377219711e-03
         - 2.2789673563853533e-02
         - 1.5510979962557655e-02
         - -1.0381727455315109e-02
         - -4.9186723147763133e-03
         - 1.2920820034030948e-02
         - -9.2320358643143072e-03
         - 1.9576422294590820e-02
         - -6.7837752061325118e-03
         - -6.4900650453124098e-03
         - 1.9942471926970660e-02
         - -1.3504639030669428e-02
         - 1.9670320686853864e-02
         - -2.4622068369465646e-02
         - 8.3411294167845072e-03
         - 2.5295750087659764e-02
         - 9.9836822308767247e-03
         - 2.0730882042692356e-02
         - 1.6212842405753287e-02
         - -2.5219281902720443e-02
         - -2.5594111795487318e-02
         - -5.9103842408317342e-03
         - -1.4327474311042804e-02
         - -8.3673414798632779e-03
         - 1.4548904612084863e-02
         - -1.7620736180220487e-04
         - 2.7603858253860181e-02
         - 1.5584745726798856e-02
         - 8.4821428917694393e-03
         - -1.2720372340958958e-03
         - -8.1469968561715851e-03
         - 1.8058159486758214e-02
         - 1.5351364767790015e-02
         - -2.0666718533010543e-02
         - -2.4808886997854943e-02
         - -1.6817760776569032e-02
         - 2.0777692698125204e-02
         - -5.7960541544255229e-03
         - -1.2485476515507351e-02
         - 1.5915405088625240e-02
         - -2.4788590572238749e-02
         - -2.3585258251994465e-04
         - -1.5926710250615164e-02
         - 1.4970309422290351e-02
         - -1.4672989780915111e-02
         - 2.3889580257749697e-02
         - 1.6505774521291539e-02
         - -1.1895962812893996e-02
         - -1.5075358132671751e-02
         - 1.1120818007790223e-02
         - 1.3401369308505063e-02
         - 2.3063767600873284e-02
         - 1.8317740502481795e-02
         - -8.0311555520941966e-03
         - -5.3379447196925433e-03
         - 1.8342237050012217e-02
         - -2.8171789581648010e-03
         - -2.2798847158621394e-02
         - 1.4157752001133164e-02
         - 1.3383656996941976e-02
         - 1.6355843689056078e-02
         - 2.3380824005429273e-02
         - -2.2680698437527526e-06
         - 2.9790266908452191e-02
         - -1.1360817436947892e-02
         - -1.0575477054408429e-02
         - -2.0026704310218680e-02
         - 2.5877522430068373e-02
         - -1.8688695923834334e-02
         - -2.5967671534397791e-02
         - 2.7669703124576953e-02
         - -2.3348167533406870e-02
         - -2.3240979012860940e-02
         - -1.9514767311225745e-02
         - -2.0664001221596322e-02
         - -2.3423148996083816e-03
         - -7.9122057969860295e-03
         - 8.2303564077772211e-03
         - -5.6867217444734157e-03
         - 8.3606248658726172e-03
         - 2.5618072374208743e-02
         - -2.0578093676641769e-02
         - 1.5812256749977719e-02
         - -5.9062496616138580e-03
         - -1.4947597471429703e-02
         - -4.5473133974276073e-05
         - 2.6163599552234865e-02
         - 8.2649340809293429e-03
         - -7.8453886054975063e-03
         - 8.1600901669765871e-03
         - 1.9005840775375128e-02
         - 1.1831486019547295e-02
         - 1.8002045010873408e-02
         - 1.4542150084888935e-02
         - 3.3692777540023150e-03
         - -4.7785306294846142e-03
         - -1.6764896419609416e-03
         - 1.7791813708353944e-03
         - 4.3749777118968938e-04
         - -9.9272990414587588e-03
         - -2.4744450632741837e-03
         - -1.7805679259973225e-02
         - 1.4492285344748239e-02
         - -6.1893165642239384e-04
         - 5.6167299394140630e-03
         - 2.1953320829027182e-02
         - -2.3942600965659862e-03
         - -1.5497685563357629e-02
         - -2.4457076684332748e-02
         - 6.4674469956814669e-03
         - 6.5758961386391456e-03
         - 6.2681743101249132e-03
         - -2.4717517127895983e-02
         - 1.8566366474161010e-03
         - -1.5747550936791702e-02
         - -3.1775395101801010e-02
         - -1.5234598173927295e-02
         - -1.2201864773044012e-02
         - -1.2327722743357533e-02
         - 3.8194916230130109e-03
         - -1.1620678646552646e-03
         - -1.1545102020037244e-02
         - 8.5463605672253637e-04
         - 2.1618553912568339e-02
         - 2.7913402303768264e-02
         - -1.1503437021838437e-02
         - 2.9145193603535889e-04
         - 7.6479102354393615e-03
         - 2.4138103494048017e-03
         - -1.5940277036783905e-03
         - -1.2488765140600634e-02
         - 1.0783787447583140e-02
         - 2.5056162636416433e-02
         - 6.7484398793273689e-03
         - 3.4817878161806800e-03
         - -1.7449744084044264e-02
         - 1.5863768000872476e-02
         - -9.6101534017119950e-03
         - 8.9378041484990504e-03
         - -2.7313208841736231e-02
         - 3.6377185499214884e-03
         - 2.5413623970106040e-02
         - -4.8308740951682949e-03
         - -1.6175248934484153e-02
         - 2.5638282441788247e-02
         - -1.8390851148342515e-02
         - 2.2827413283334611e-02
         - 7.3935371012423552e-03
         - -1.6818473207393221e-02
         - -1.5022938914106194e-03
         - 1.7082517478615063e-02
         - -1.1935224925619121e-02
         - -6.8512324112354212e-03
         - 2.5269365562856024e-02
         - -9.7165256920755672e-03
         - 9.4262110705678071e-03
         - 7.3532887226592522e-03
         - -7.8165215850917579e-03
         - -1.1043166383697865e-02
         - -2.0111613144654490e-02
         - 7.1052528811777144e-03
         - -2.2197125736734484e-02
         - 1.6748272905567244e-02
         - -3.9837223582271791e-03
         - -2.1978754222553513e-02
         - 2.0153655645953478e-02
         - -1.3730464206648564e-03
         - -1.0196584393696037e-02
         - -9.3327309321919356e-03
         - 2.4235803632682906e-02
         - 4.5627916388927452e-03
         - -7.2081098081724342e-03
         - 2.3744086968842160e-02
         - 9.7655958041046008e-03
         - -1.2193699999337049e-02
         - -6.1483987603715385e-03
         - 4.8779060244749052e-03
         - 2.1868638454258165e-02
         - -2.2642137615732499e-02
         - 4.5250156722195289e-05
         - 2.1208890995897831e-02
         - -2.6659152212906337e-02
         - -4.4123177834900973e-03
         - 7.2093442090762965e-03
         - -1.6431301378960751e-02
         - -1.8674364989298947e-02
         - 2.7172664618225390e-02
         - -2.4230068314968010e-02
         - -1.7620752332165718e-02
         - -1.5877474625228052e-02
         - -1.5520123567905168e-02
         - 3.4651714072536370e-03
         - 9.7303306014034155e-03
         - -2.0743634668722526e-02
         - 5.7048068584964074e-03
         - -1.6561263052871582e-02
         - -2.1477429562000619e-02
         - 1.4775464341933551e-02
         - 1.8872299599232867e-02
         - 1.3141440553004100e-02
         - -2.3924076042849608e-02
         - -1.5477793914489089e-02
         - -1.6824284536679394e-02
         - -1.5831834777864654e-02
         - 2.4748687501757551e-02
         - 5.3434375271404384e-03
         - -1.6394060890661619e-02
         - -7.3556130459938576e-03
         - 2.2415756852952821e-02
         - -1.1012436326077003e-02
         - 7.3892262563032777e-03
         - -6.1983858596765563e-03
         - -7.2297319026227080e-04
         - -2.4975112258214083e-02
         - 2.7824417532653273e-02
         - 9.1822966682628075e-03
         - 2.8116788192333344e-02
         - 2.7110843611968739e-02
         - -2.0423244420272702e-02
         - 2.4513736475998232e-02
         - -3.1617622388917296e-03
         - 8.4951980278953603e-03
         - -6.1292561275236050e-03
         - -2.0035608578376864e-02
         - 1.1519180808097586e-02
         - 1.4033257919913264e-02
         - -2.1179484214696089e-02
         - -2.1752383955567559e-02
         - -9.4420121501374178e-03
         - -2.3133246767580662e-02
         - -7.1611875393801268e-03
         - 1.0985825627494795e-02
         - -2.0071363912387476e-05
         - 1.4935697293351915e-02
         - 1.9773252853523441e-02
         - 1.5772638592803794e-02
         - 2.4521974332349050e-02
         - -1.4213511109348468e-02
         - -2.2389908907512024e-02
         - 2.7198586206850964e-02
         - 1.9238171553443591e-02
         - -1.5171717290979613e-02
         - -2.0856218625598926e-02
         - 4.7244941014644090e-04
         - -1.3193107476685484e-02
         - 2.1346412715330266e-02
         - -1.3581251524436499e-03
         - 2.6255575825579434e-03
         - -1.2592556520505394e-02
         - -2.0145480041133822e-02
         - 2.7682350952038999e-03
         - 2.2851901663903707e-02
         - 6.6130437937357853e-03
         - -2.3927961570441473e-02
         - -2.7053507069256799e-02
         - 8.3842366129018384e-03
         - -3.2529817737214270e-03
         - 2.4696941008650559e-02
         - 1.7707181873214742e-02
         - 2.0091984608076114e-02
         - 6.0740900506433626e-03
         - 1.9999383962413339e-02
         - -9.9012569806956711e-03
         - -2.7620514098187540e-02
         - 5.4391040895388938e-03
         - 1.8607951367688978e-02
         - 1.6090488797190407e-02
         - -1.1331919227092343e-02
         - -1.0024473437725681e-02
         - 1.0119009888233653e-02
         - -2.0478616338487885e-02
         - -1.8748856561224173e-02
         - 3.2032978698040703e-03
         - 1.1090766021157021e-02
         - -2.6416580976804484e-04
         - 5.4145336713321583e-03
         - 2.1938767846348631e-02
         - -2.1748393537017116e-02
         - 1.3005371203791782e-02
         - 8.6199577965527935e-03
         - -3.0228010474429006e-03
         - -2.9085811307689075e-02
         - 3.6913391536709372e-03
         - 7.9422812106626026e-03
         - 1.7715352583597618e-02
         - -2.1832848904925973e-02
         - 5.3494737325756974e-04
         - 1.5877134652537012e-02
         - -1.4379033002929368e-02
         - -2.4867263568972738e-02
         - 2.1926599227609683e-02
         - -2.0745122382591102e-02
         - -1.0218795944822253e-02
         - 1.0280032747208038e-02
         - 1.0362536396687494e-02
         - -2.6919134616263000e-02
         - 7.7482079633473444e-04
         - -1.1372747256791080e-02
         - -5.8611970946085262e-03
         - -5.7746326837630384e-03
         - -1.7751433904156896e-02
         - 8.1429001474283922e-03
         - -1.7917055254225853e-02
         - 2.8072598607978751e-02
         - -6.1586845031919666e-03
         - -4.5942691709101521e-03
         - -2.8781128402310921e-03
         - -1.3572150832860877e-02
         - 2.1714865941001818e-02
         - -4.8144591163819953e-03
         - -2.0322737452129491e-02
         - 8.7845264896913959e-03
         - 4.0530827089812066e-03
         - 1.9387551207867674e-02
         - -7.2407487729089339e-03
         - 9.5675626303029400e-03
         - -5.2463383970568437e-03
         - 1.8333482596476307e-02
         - 1.4560698931359405e-02
         - -3.1813112394963009e-03
         - 2.7297048148318025e-02
         - -1.6472807280080146e-02
         - 5.2796192256099389e-03
         - 1.8320646271747316e-03
         - 1.3605828996557625e-02
         - 1.0884491012820130e-02
         - -2.2916468108184308e-02
         - -1.4355462307665981e-02
         - 2.4692697548197525e-02
         - 1.6862182364725552e-02
         - 1.7250400397848538e-02
         - -2.6332663107947529e-02
         - -3.5393363720554018e-03
         - -2.1837765157244633e-02
         - 1.3747121128693026e-02
         - 1.1149895968934925e-02
         - 4.0996759544652886e-03
         - -6.6494654150060376e-03
         - 2.4864207867011719e-02
         - 1.6359698837249814e-02
         - 2.4602246246434858e-03
         - 2.0800634359763884e-02
         - -1.9476763021165186e-03
         - -7.6496409894793787e-03
         - -1.9938350803327069e-02
         - 7.8234386287346844e-03
         - 1.3950335782040933e-02
         - -1.6036847825373377e-02
         - -2.3281143631759944e-02
         - -1.4128416788449788e-02
         - 4.4036838708882090e-03
         - 8.8235956960879876e-03
         - 8.2860403948444329e-03
         - -1.6312539605761053e-02
         - -1.3059895450557052e-03
         - 8.0735420446029042e-03
         - -1.8040102564913646e-02
         - 5.7748808715763133e-03
         - -2.0737770319051437e-02
         - -1.0639116468382790e-02
         - 2.2584056572910002e-02
         - 8.5074731135913947e-03
         - -3.8170386753562601e-03
         - 2.4615246020430075e-02
         - -2.8042408083129656e-04
         - 2.5240398813455196e-03
         - 5.0863455139561944e-03
         - -2.3105315114435945e-02
         - -2.2969270615988045e-02
         - 1.7097460455851275e-02
         - 3.2841882528184237e-03
         - 1.5382473586404053e-02
         - -2.1879855754195817e-02
         - 9.7684976947954513e-03
         - 2.5124380454464468e-02
         - -2.3154426333531521e-02
         - 2.3233527871173294e-02
         - -2.4567689117956003e-02
         - -1.3075763170880907e-02
         - 1.6866241600525703e-02
         - 1.0974071861099265e-02
         - 2.5369368211114140e-02
         - -2.6945653496018636e-02
         - 4.3216348880968135e-03
         - -2.0533468468505098e-02
         - -7.5501538940012016e-03
         - -7.4816185893119046e-03
         - 2.9697582387311345e-03
         - 1.2010190019425319e-02
         - -2.0265772523776749e-02
         - -2.0038964536613975e-02
         - -1.5464332577751245e-02
         - -3.1827844025218276e-03
         - -3.2962864558687410e-03
         - -1.9230178525796098e-02
         - -2.1207535071932064e-02
         - -1.9315454151496109e-03
         - 1.1910038721877373e-03
         - 2.1098273205132447e-03
         - -7.6514696985788859e-03
         - -6.4660172195983301e-03
         - -1.6390825644272529e-02
         - 2.4047967506078908e-02
         - -1.7764487247848810e-02
         - -1.5217771728417933e-02
         - -2.2509662090353242e-02
         - -1.6935011303346233e-02
         - -7.8367652590598698e-03
         - 1.9971251557390959e-02
         - -7.9374409338230220e-04
         - 2.6064032928677667e-02
         - -1.0929955638301828e-02
         - -9.8037062415212480e-03
         - 2.0300915119998635e-02
         - -3.1941414947607896e-02
         - 4.5890507355347736e-03
         - -1.5431142344166494e-02
         - -1.4636821104633369e-02
         - -2.0124966599320990e-02
         - -1.7197420375115163e-02
         - 4.1599206000619794e-03
         - -5.1778297121485789e-03
         - 2.1490242939175386e-02
         - -3.8318120661458384e-03
         - 9.6698102472979092e-04
         - 8.2736499575653908e-03
         - 2.7843511298920487e-02
         - -2.8962626435450750e-03
         - -1.4420650647937187e-02
         - 2.6575100241388341e-02
         - -2.6053795214187280e-02
         - 3.7856296909788293e-03
         - 1.5073911073075345e-02
         - 2.5115451732419022e-02
         - 1.2308720609132299e-02
         - -1.7152523538556400e-02
         - -2.0199065244565217e-02
         - 1.1622439795162854e-02
         - 1.1108300801585142e-02
         - 1.8011958366466234e-02
         - 5.9955186774662481e-03
         - -2.0832363890753148e-02
         - -2.6686207329704191e-02
         - -8.8510095476005222e-03
         - 1.0104207850695301e-02
         - 7.3139855373978799e-03
         - -1.5875340502507020e-02
         - 1.2224758337819861e-02
         - -4.6619681073670144e-03
         - 4.2983843385239117e-03
         - -2.0251753094058203e-02
         - 8.1857774203630846e-03
         - 1.6952688029688499e-02
         - 1.5169012870037236e-02
         - -1.6755559395811352e-02
         - 2.1321179159512659e-02
         - -9.8396006296393706e-03
         - -1.5061459991083029e-02
         - 3.7110173159708572e-03
         - 1.5183211764940426e-02
         - -1.7019645017882543e-02
         - -2.9528748152449085e-02
         - 7.3436481342187060e-03
         - 5.7666564366688905e-03
         - -4.2451917471464070e-03
         - -6.2609187454863487e-03
         - -1.9316146957070741e-02
         - 2.4258393258836383e-02
         - 2.1268378532047612e-02
         - -2.0605065162549750e-02
         - 2.5198085636163232e-02
         - -1.4603601388169886e-02
         - -2.2246918807443315e-02
         - 5.0296133160923628e-04
         - 1.2435019584026347e-02
         - -9.3500683253585348e-03
         - -6.6081174493177568e-03
         - 1.2260311804323914e-02
         - -1.5309906824360005e-02
         - 8.3369390512201443e-03
         - -2.3116123295651998e-05
         - -1.3861051446380435e-02
         - -2.5295657024393847e-02
         - 1.4740886222161759e-02
         - 2.0186794884154032e-02
         - 1.8336586222437161e-02
         - 2.3817698989615159e-02
         - 8.7092608996880358e-03
         - -4.9967226021957935e-03
         - -1.1980763182926126e-02
         - -6.2951787134834045e-03
         - -2.0461667352036646e-02
         - -6.9596690951817071e-03
         - 1.8515583594886347e-02
         - 1.0560957388693096e-02
         - -1.2624776116549248e-02
         - 1.8687680186477325e-02
         - -1.3591614118678630e-02
         - -1.0940046455534121e-02
         - -2.0107010212288983e-02
         - -9.3100911611271684e-03
         - -8.6170013125654605e-03
         - -1.9021107747980024e-02
         - 2.5444907984296761e-02
         - -1.5048621007248507e-02
         - -1.7700478204511993e-02
         - -3.1475899141392553e-03
         - 2.6549893443378339e-02
         - -9.2594900464307173e-03
         - -1.2844814006122010e-02
         - 9.0316260089582882e-03
         - 1.6304881258309010e-02
         - -8.9436619314533315e-03
         - 1.8653763409045498e-03
         - 2.0397364418432420e-03
         - 1.1728329958572663e-02
         - -7.6833661303226828e-03
         - -1.2452860479028554e-02
         - -1.1302574994849001e-02
         - 1.9460283688104617e-02
         - -1.5938310117881809e-02
         - -2.0504667434039352e-04
         - 2.1420962685038251e-04
         - -1.4146965367869356e-02
         - 1.5854801456259275e-02
         - 1.7276695075748291e-02
         - -2.0212620999324134e-02
         - -2.0700925643071764e-02
         - 1.7938322464081728e-02
         - 2.5121781048056038e-02
         - 1.1680150827957829e-02
         - 1.5679267966523605e-03
         - 2.0774594819468434e-02
         - 3.4036092461075529e-03
         - 9.6171530523463233e-03
         - 1.7265244905298897e-02
         - 1.7550762568937912e-02
         - 1.9125257002220064e-02
         - 2.7427444959171846e-03
         - -1.1342106891373664e-03
         - 1.1407643870978658e-02
         - 1.9882968069268894e-02
         - 4.9992370246377954e-03
         - 1.4385147583101244e-02
         - -2.4538075876818683e-02
         - -1.3773854155225647e-02
         - -1.3090880249844894e-02
         - 2.5800445021553361e-03
         - -1.4536416582595000e-02
         - 1.4648661169846134e-02
         - -1.1514282002229606e-02
         - 4.1253936395976142e-03
         - -1.2378030815747584e-02
         - 1.3017420720846835e-02
         - 1.4910123251697511e-02
         - 8.1928238377092042e-03
         - -2.5857304116550909e-02
         - -2.0239145293910035e-02
         - -1.1997712578574194e-02
         - 2.1756573921707850e-02
         - -9.8252997364523670e-03
         - -2.5831909805980515e-02
         - 1.8135093255823860e-02
         - 2.0561587833704747e-02
         - -2.3159400621913805e-02
         - 9.4956011409951750e-03
         - 7.1198072589529306e-04
         - 1.9836125436935654e-02
         - -1.0651390550032402e-02
         - -8.3130946994492173e-03
         - 2.2538593589737695e-03
         - -1.4194767703479275e-02
         - 2.7890130667045876e-02
         - -2.7835173643157808e-03
         - 1.6170171933116350e-03
         - -1.2979889769610641e-02
         - -7.0679657982246399e-03
         - -2.3784587583877540e-03
         - -2.0292387955159242e-02
         - 7.4051084526414726e-03
         - 1.8536234931746699e-02
         - 2.5841063780879987e-02
         - 9.5148954213307921e-03
         - 9.5663769872598847e-03
         - 8.1928186791200286e-03
         - 1.2302357049491629e-02
         - 2.8827464809496762e-03
         - 1.1858731835256030e-02
         - 1.5524735027806326e-02
         - -1.1538063060492803e-02
         - 4.6233097441612933e-03
         - -2.4452925477194038e-02
         - 1.7490118828048899e-02
         - 6.2690289277595335e-03
         - -1.1139341518899113e-02
         - -1.6164246461215344e-02
         - -9.6904007096653907e-03
         - -9.4604389867143667e-04
         - -1.1669824773291534e-02
         - 2.2933006551400181e-02
         - 1.8480767002144231e-02
         - -1.9127635461168135e-02
         - 2.4650304744928835e-02
         - 1.7728020976531922e-02
         - -2.6023671674684636e-02
         - -1.5147193052480286e-02
         - -2.9499851910413627e-02
         - 1.6875801671807591e-02
         - -5.5720724451693493e-03
         - -3.7154323977838931e-04
         - -1.8251509511864054e-02
         - 1.4894530266764345e-02
         - -1.8213003234119889e-02
         - -1.9431624405305683e-02
         - 9.1808443742126891e-03
         - 1.8507552144987460e-02
         - -1.9199739727302330e-02
         - -2.5899312192507528e-02
         - 2.2533312518103237e-02
         - 8.6496027841428090e-03
         - 1.7373871877817509e-02
         - 8.0594516683139827e-03
         - -1.5340505833452707e-02
         - -1.3290184511855367e-02
         - 2.4168948641127695e-02
         - 8.0814444782053435e-03
         - 1.6380666160889866e-02
         - 2.8460402602809014e-02
         - 3.9639775646805285e-03
         - 2.2798947461201095e-02
         - -2.1811612633497623e-02
         - -1.8274787801991096e-02
         - 1.1895066906889719e-02
         - 2.4469816156093279e-02
         - 6.1832385275568708e-04
         - -2.3893967583969535e-02
         - -3.5486046701562451e-03
         - -1.2709179040397256e-02
         - -1.4859276128005632e-02
         - 1.9253598367072584e-02
         - -1.8941442986159819e-03
         - 1.8785827449028448e-02
         - -1.7034406072721428e-02
         - -1.8938405125389308e-02
         - -1.7494519872835616e-02
         - -2.5776374115689914e-02
         - -2.0780559237528269e-03
         - 1.6033125456559685e-02
         - -1.3918434510129759e-03
         - -1.0903696544659882e-02
         - 1.8556030728548122e-02
         - -2.9479356950691850e-02
         - 1.0795901723315715e-02
         - -6.7946425002021705e-03
         - -2.2403864550693538e-02
         - 2.1192375017389187e-02
         - -9.8600426567326226e-03
         - -7.5140130378863051e-03
         - 1.8593285290111712e-03
         - 2.8872904013404672e-03
         - -1.4377745116322225e-02
         - -1.7207468687541357e-02
         - 5.2168121651889488e-03
         - -2.7985332366455350e-02
         - -2.7622507130938591e-02
         - 9.6337753207301254e-03
         - 9.0994657575425141e-03
         - -1.5566229424021064e-02
         - 1.6046819346907541e-02
         - -2.4866133851694779e-02
         - -9.9721246132978350e-03
         - 8.7477902959120200e-04
         - -7.2269025779960186e-03
         - 2.5908129738836131e-04
         - 2.6829064758828021e-02
         - -1.8257679278064789e-02
         - 2.3309311377713603e-02
         - 3.6949222274087813e-03
         - 2.5023982530134286e-03
         - 1.9971552662582718e-02
         - 1.0611805973058630e-02
         - 1.9037965850686088e-02
         - -7.1718451743954710e-04
         - -1.7516981049524139e-02
         - -8.9142448370924925e-03
         - 1.8703497537273930e-02
         - 1.0704130143051742e-02
         - -8.7838352504088779e-03
         - -1.3076101082487693e-02
         - 1.8846633714558862e-02
         - -4.0707192098710489e-03
         - -2.6011596388832658e-02
         - 1.5622514209051952e-02
         - -2.0336430303808668e-02
         - 2.0882229281216778e-02
         - 1.5892873679704059e-02
         - -1.8831838014135471e-02
         - 7.3255746504547574e-03
         - -1.0921503381753532e-03
         - 2.4751596339742665e-02
         - 1.0925706189722174e-02
         - 4.9081149905958856e-03
         - -1.3999863392291393e-02
         - -9.6164428883982651e-04
         - -2.1764314815987434e-02
         - -1.6527855575748419e-02
         - -3.4049344648783659e-03
         - 1.0769428577908748e-02
         - 1.9073282513355803e-02
         - -1.7660371572373816e-02
         - -2.4410989540195095e-02
         - 2.5861601603143776e-02
         - 1.8754383982625598e-02
         - 1.2946889097182727e-02
         - 2.3790787118111265e-02
         - -8.5872157726775231e-03
         - -2.0573623737279438e-02
         - -2.9289241203854847e-02
         - -1.1655729196253066e-02
         - 1.8339124839249574e-02
         - 1.5967492883877145e-02
         - 1.1286925258237188e-02
         - 1.6045635827376916e-02
         - -2.1471028582471696e-02
         - -2.1601935865057941e-02
         - -2.6754096844553358e-03
         - -1.9019777675920699e-02
         - 2.0239858001780187e-03
         - 1.2007999742194059e-03
         - 2.5077753984827426e-02
         - -1.6725426551926981e-02
         - 1.3294480454344089e-02
         - 1.1633127995689769e-02
         - 2.2093550642185360e-02
         - -4.8539601041017689e-03
         - -5.3510812830423827e-03
         - 1.8396556327898866e-02
         - -7.8696623745928302e-03
         - 1.8761510443114970e-02
         - -8.4636642773912550e-03
         - 2.5778998429758671e-02
         - 2.2591482308509287e-02
         - 3.6878695248008814e-03
         - 7.2702209710672865e-03
         - 3.7651918151481527e-03
         - 2.2931617336806983e-02
         - -1.0103355461845183e-02
         - 1.7165509990136645e-02
         - -1.2923224557057375e-02
         - 6.9175941498376033e-03
         - 1.0664325788307493e-02
         - -6.8308202926087554e-03
         - -7.3056437110797338e-03
         - -1.3825990087100098e-02
         - 2.5044391198102832e-02
         - -1.8763400907671788e-02
         - 1.5964400919860174e-02
         - 1.3673749021373719e-02
         - 5.8467112492344916e-03
         - -1.2850500347447086e-02
         - 4.3592760516882366e-03
         - -2.0558447671752123e-02
         - 1.0728329626694739e-02
         - 3.8275442838168567e-03
         - 2.8516047745458274e-03
         - 1.5634272491143583e-03
         - 1.8897456978188867e-02
         - -2.8645546004377891e-02
         - 2.2561917183172953e-02
         - 1.4254953467436628e-02
         - -2.4631303057805261e-02
         - -1.3225273669829602e-02
         - 2.3756693538880481e-02
         - -9.2294359510348388e-03
         - 2.0778244746824326e-02
         - -6.6175274321456758e-03
         - -2.5375085793768772e-02
         - 1.1155685643307984e-03
         - 9.7399592346670474e-03
         - -1.3588738176401322e-02
         - 2.3830356794700427e-02
         - 2.4212943394255147e-02
         - -1.0187494597463469e-02
         - -1.5887247185875402e-02
         - -1.4849584647011194e-02
         - 1.2235997476380510e-02
         - 1.1996960299125262e-02
         - 2.3470854336054433e-03
         - 6.7853909440762673e-03
         - 5.4647702927801646e-03
         - 1.1126167565644657e-02
         - -1.4026919066976347e-02
         - -2.4737546268244221e-02
         - -1.0917957677354515e-02
         - -2.1902972577661373e-02
         - 1.5834351782800658e-02
         - -1.4829890704088054e-02
         - -6.4002052607220203e-03
         - -2.5359795374092129e-03
         - 2.1135728221405185e-02
         - 2.8347105307160458e-02
         - -2.2716174343931174e-02
         - -1.0829551702287974e-03
         - 1.2150261124050526e-03
         - 1.7671567829751465e-03
         - 7.0668974881936963e-03
         - 4.4921263105131021e-04
         - 1.0340246569403402e-02
         - -6.7423420906636868e-03
         - 8.9222262588321329e-03
         - 1.1979386651209666e-02
         - 1.5665995086483166e-02
         - -2.2655991019916506e-02
         - 1.1083731483641740e-03
         - 2.2232713842162067e-02
         - -2.1388004201652301e-02
         - 2.1478614247136450e-02
         - -9.4169977772140274e-03
         - -1.3951976669406245e-02
         - -1.7289687235091972e-02
         - 1.2765320638381563e-02
         - 2.3432785522799208e-02
         - -1.4749385627224935e-03
         - -2.4422491950191583e-02
         - -1.6768773586880233e-02
         - -1.1526259958212010e-02
         - 8.6339610776907886e-03
         - 3.7547311558698282e-03
         - 6.3024498811689251e-03
         - 2.7320166032171647e-02
         - 1.9515926439691848e-02
         - -2.3502778122082131e-02
         - -4.5996228564959760e-03
         - 1.5400952763844875e-02
         - 1.1861015233742923e-02
         - 1.0705095045955196e-02
         - 5.6356613556989366e-03
         - -1.0652009523415787e-02
         - 1.7141703027825951e-02
         - 2.1612680874676903e-03
         - -4.0927512092847526e-04
         - 1.6737310448408569e-02
         - -6.8471917498947894e-03
         - 1.4425374740734841e-02
         - -2.3482494322340952e-02
         - -5.4284203910068222e-03
         - -2.4412118791521196e-02
         - 1.4739506412444084e-02
         - 7.9272292199914652e-03
         - -9.5395084202988967e-03
         - 4.4205881494978582e-04
         - -1.7307305842213024e-02
         - -2.1479754010195636e-02
         - -2.2770697532382506e-02
         - 4.9605257391467077e-03
         - -7.2314171615440832e-03
         - 2.4210216642976446e-02
         - 7.6705149127921134e-03
         - 1.4001223561512526e-02
         - 2.1339613990683105e-02
         - -2.7554362980652759e-02
         - -4.4294275842232163e-03
         - -3.1077574705952276e-02
         - 1.6771446481526110e-02
         - -7.5672656735110569e-03
         - -1.4803480462352454e-02
         - 6.5507360723819717e-03
         - -2.2496052238969826e-02
         - 1.5824036685803778e-02
         - 3.0087982327350908e-03
         - -2.6301955222673016e-03
         - 5.9483337185182398e-04
         - 1.6632801683418890e-02
         - -2.5337269513878061e-02
         - -1.1959797521243994e-02
         - 2.2822638501036281e-02
         - 1.4622744936575153e-02
         - -1.2075019276168145e-02
         - 4.8762459688143937e-03
         - -6.5881610568052622e-03
         - 1.9735701087014643e-02
         - -2.3253829024083759e-02
         - 2.4387938650828864e-02
         - 1.5040995730993724e-02
         - 7.8660269829964047e-03
         - -2.6312097544306467e-03
         - -7.9248909781020182e-03
         - 1.7916611420606694e-02
         - -2.2430503013355429e-02
         - 7.7098807255177276e-04
         - 2.8361413492261536e-02
         - -1.2852983755274458e-02
         - -2.4531726361691444e-02
         - 4.1298411657317473e-03
         - -2.6078698829684204e-02
         - -1.7094733404951431e-02
         - -8.5506789775160498e-03
         - -1.3558756601337915e-02
         - -1.9540447441295659e-02
         - 1.1310763648297443e-02
         - 1.4670046138720813e-02
         - 6.3537613325342218e-03
         - 1.6284112586100064e-02
         - 1.0749246075679139e-02
         - -1.7303037489987474e-02
         - 6.1178690611758194e-03
         - 1.1591585253547677e-02
         - -5.0329999409098576e-03
         - 1.4836241961548660e-02
         - -1.0253862150518021e-02
         - 9.0799529528019993e-03
         - -2.1890455574188419e-02
         - 1.4360354634226906e-02
         - -2.0421897403792893e-02
         - -3.6132138858554308e-03
         - -7.5666706774789819e-03
         - 2.4080809973994893e-02
         - -2.1584892034404508e-02
         - -2.3650389871762521e-02
         - 2.4741595087423612e-02
         - 1.9196529630718020e-03
         - 1.4868635330858217e-02
         - 1.3790052505503083e-02
         - 5.4439865709103828e-03
         - -2.9024282546157361e-02
         - -5.2332711877671051e-03
         - 2.7492090371659988e-02
         - -6.0647056194361127e-03
         - 1.7354420707633513e-02
         - -1.9193645288252486e-03
         - -1.1168344813124379e-02
         - -1.3759951387118947e-02
         - 5.0306088779291727e-03
         - -2.7122367811367569e-04
         - -2.6273405663801495e-03
         - 1.0816139258967268e-02
         - -1.8743440057006885e-02
         - -1.8586789672248149e-02
         - -1.1069185146499511e-02
         - -1.7063236862788971e-02
         - -1.4927565552205379e-02
         - 2.0388652313567648e-02
         - -7.9465110584357231e-03
         - 2.6268788257263743e-02
         - 1.2121148675631828e-02
         - 1.8888717054263763e-02
         - 2.3011771584227337e-02
         - 1.0325461451323866e-02
         - -2.0182124308101450e-02
         - 9.3260384294807652e-03
         - -1.1307164950816250e-02
         - -2.6523594918974585e-02
         - 1.8229155716131842e-02
         - -7.8769386944916153e-03
         - 3.0000662748299553e-03
         - -2.5515120351139176e-02
         - 2.6085145777513426e-03
         - -2.7126990750595461e-03
         - 1.5230556793873154e-02
         - -5.9691761761657240e-03
         - 2.5219923921483263e-02
         - 1.5178540308695856e-02
         - 2.6736655879950850e-02
         - -8.7320487650299362e-03
         - 1.9508757039875219e-02
         - -1.3971255605646054e-02
         - 1.9856164169436618e-03
         - -1.5706247556751953e-02
         - 1.9916782868396377e-02
         - -2.5470398047577347e-02
         - 3.6940913694931583e-03
         - 9.7462804767310968e-03
         - 1.5831778276185440e-02
         - 1.3437101241111160e-04
         - 1.3805023074086879e-02
         - 1.9501825436234153e-02
         - 5.0677616762111006e-03
         - 2.7205137191074098e-02
         - -2.4020708305918910e-02
         - 1.5631952990915732e-02
         - -2.3330189620545433e-03
         - 6.9259958271472161e-03
         - 2.4198218389118759e-02
         - -3.8520585528496443e-03
         - -1.6011087952478006e-02
         - 1.7243427244684438e-02
         - 1.3449418613908377e-02
         - 3.4031779866291428e-03
         - -1.1610066884220045e-02
         - -1.4828618368772205e-02
         - 2.1648047826253163e-02
         - -2.1288043967552385e-02
         - 1.3434564311760246e-02
         - -2.0576714242157377e-02
         - -2.2359201402828915e-02
         - -1.7209911787207106e-02
         - -1.5962635097181758e-02
         - -2.4581157685823998e-02
         - 2.2063398018790276e-02
         - 2.6969889641350962e-02
         - -1.3777455467071355e-02
         - -6.8059653716447234e-03
         - 5.6673612928945499e-03
         - -1.7690587624849978e-02
         - -7.4025726982263002e-03
         - -2.4782817520764999e-02
         - 2.3922180542222431e-02
         - -1.2845681823579954e-02
         - 1.6488633545972423e-02
         - 2.6625028149449875e-02
         - 1.8531219786820870e-02
         - 1.2020906192662884e-02
         - 2.2412842552479082e-02
         - -1.6301162516914013e-02
         - -6.9885454131589407e-03
         - 2.4695357894299021e-02
         - -1.8218957937430027e-02
         - 2.0982443418972645e-02
         - -1.0955157267672383e-02
         - -1.3525169757954852e-02
         - 9.7240642743516639e-03
         - 1.8932258196007628e-03
         - 1.8889931375414840e-02
         - 1.1302390167796992e-02
         - 2.6173608600052013e-02
         - -1.3770076060795604e-02
         - 2.2467934728129729e-02
         - 2.4163064331397865e-02
         - 2.0677572471501485e-02
         - 1.9159210969620512e-02
         - 3.2451864319103501e-03
         - 2.7107172768068333e-02
         - -1.7183699558911887e-03
         - 2.0118036502597508e-02
         - -4.1231466649723275e-03
         - 4.2810581932384148e-03
         - 5.8561456812528307e-04
         - -1.6680277438558499e-02
         - 2.5302798309929164e-02
         - -1.4842824623491620e-02
         - 2.8155789574110683e-02
         - 8.9154142679091376e-03
         - 2.5429425584772999e-02
         - -8.6083170075935815e-04
         - -1.4628725271945399e-02
         - -1.4692369918724234e-02
         - 3.6963238394349960e-03
         - 1.5918710339328686e-02
         - -2.7788782114784999e-02
         - -3.3661350852844194e-03
         - 1.0903411825656753e-02
         - -6.6662396927923996e-04
         - -2.2426981536128789e-03
         - 7.9503206936262834e-03
         - -1.3915142858862943e-02
         - 2.9248810518381885e-03
         - 1.5106082038815402e-03
         - 2.4571409217419193e-02
         - 2.0431818694255744e-02
         - 1.5367179731467524e-02
         - 1.2301359354583246e-03
         - -2.0303213379389586e-02
         - -2.2156521807458696e-02
         - 2.1164175273441620e-02
         - -1.5308821298971872e-02
         - -2.2821872345995576e-02
         - 7.8199566143946769e-03
         - -9.0519467324604655e-03
         - -1.4224481083966635e-02
         - -1.0769924857462310e-02
         - -1.7276737194030382e-02
         - 2.0173407671879350e-03
         - 1.6746979346910169e-02
         - 2.7495988022071476e-02
         - -1.0865718467628871e-02
         - -1.7384644143789842e-02
         - -2.3335436763330386e-02
         - -1.8111355967096995e-02
         - 1.6128123956083717e-02
         - -2.1192798876128301e-02
         - 1.1274517565305826e-02
         - -2.6029016603864707e-02
         - -1.3033486148312916e-02
         - -8.9835314390951902e-03
         - 4.1449773770356642e-03
         - -1.9801539679376298e-02
         - 1.0533670316621627e-02
         - -6.1498162328585306e-05
         - 8.2008942480719729e-03
         - -1.4185685308773644e-02
         - -2.5722444708751038e-02
         - 1.5114275435782518e-02
         - -7.7181056980693526e-03
         - 1.7027379128783025e-02
         - -2.5549941917796352e-02
         - 1.5310723396459506e-02
         - -1.1764974197588018e-02
         - 2.4358152968829289e-02
         - -2.1950888223997395e-02
         - 2.2018125030195033e-03
         - -2.5602366577093052e-02
         - -2.3536801207729757e-02
         - -2.4356774243533739e-02
         - 1.1973085172256044e-02
         - -4.0474811284758241e-03
         - -1.4721569098349152e-02
         - 3.1602185066567385e-03
         - -2.5713738479573148e-02
         - 2.6483791360055492e-02
         - -1.9518876109659865e-02
         - -4.9958429665357038e-04
         - -1.7975186286417616e-02
         - -9.7911781713384757e-03
         - 2.6319828435963571e-02
         - -1.5340783240908639e-02
         - -2.5077365337728089e-02
         - 1.7702566671192910e-02
         - -1.4508994388128615e-02
         - 1.4398657653924471e-02
         - -1.8056346885701170e-02
         - 2.5945950391000980e-02
         - -1.6313418763466982e-03
         - -2.7013243810609870e-02
         - 1.2558426076398925e-02
         - -6.6952669554864470e-03
         - 1.3484817037994958e-02
         - -9.7512616682784940e-03
         - 2.4643665915033107e-02
         - 1.4256934722917013e-02
         - 2.2270482029571863e-02
         - 1.1780532423628741e-02
         - -2.4690877430435000e-02
         - -1.6065453776631565e-02
         - -2.5469128006374978e-02
         - 2.7382705534029594e-03
         - -4.9247461238798658e-04
         - -1.8396481062517098e-03
         - 4.0510196732347920e-03
         - 9.5350866734300044e-03
         - -4.9856170089858931e-03
         - 2.4329331929475052e-03
         - -2.5639347148697141e-03
         - -1.5923724381817012e-02
         - -2.1322272074250507e-03
         - 9.0864320758866444e-03
         - 2.0886038276633261e-02
         - -2.5980182900412419e-02
         - -1.5934946412632500e-02
         - -2.5845426909782473e-02
         - -1.3516509150314970e-02
         - 9.5623527726767504e-03
         - -1.1013533705065835e-02
         - -2.3729934218137756e-02
         - 8.8219856308584829e-04
         - 2.5278119601184236e-02
         - -2.5857547497119562e-02
         - 2.3864531653199985e-02
         - -2.3853715594218151e-02
         - 1.2723392701759997e-02
         - -2.2282591021150860e-02
         - -1.7514625734095349e-02
         - 1.5776204747809202e-02
         - -1.7619887032536617e-02
         - -1.4937666447186103e-02
         - 2.0730055623699169e-02
         - -1.4717253844134618e-02
         - 1.5355431411519407e-03
         - 1.0724677851429221e-02
         - 7.5777901218411266e-03
         - 1.1657640890526975e-02
         - -1.8996678594474792e-02
         - 2.3326825310059033e-02
         - 1.1743265748118932e-02
         - 2.6847600444950583e-03
         - 8.8556007853950666e-03
         - -4.0197094455479993e-03
         - 4.1391667300667090e-03
         - 3.0021409612102135e-02
         - -1.1883455175139919e-02
         - -6.1579561578520370e-03
         - 4.0185922168148330e-04
         - 2.2876277733276926e-02
         - 2.2086713047681988e-02
         - 2.5009462482066591e-02
         - -1.5226162951724513e-02
         - 2.4838350743345085e-02
         - -7.1657106270914240e-04
         - -2.4138980630856147e-03
         - -2.1026442913121297e-02
         - 1.9259048278787707e-03
         - -1.1433581849616846e-02
         - 1.7272483223865296e-02
         - -2.0933901801299865e-02
         - -1.2019465458954763e-02
         - 2.0445726096121296e-03
         - -6.1728648371488703e-03
         - -2.3370382721217806e-02
         - 2.5823997546111220e-02
         - 2.1255791252630985e-02
         - 1.0493882190834207e-02
         - -2.2363799291704210e-02
         - 1.5007236428474178e-02
         - 2.1026935957727168e-02
         - -1.8587243549193760e-02
         - -8.1455123517486187e-03
         - 2.5470090999362826e-02
         - 1.6997946265479152e-03
         - -4.6501924004525410e-03
         - -8.4701676439012056e-03
         - 5.0442050168830969e-03
         - 1.3091154578121839e-02
         - 1.2554347954549331e-02
         - 2.5735816692499747e-02
         - 1.5346397398207715e-02
         - -2.2649222002915248e-02
         - -7.0777651376508531e-03
         - -1.1980041052580959e-02
         - -1.6330338224483119e-02
         - 1.2199999836467319e-02
         - 1.7464739130260462e-02
         - -2.1649319257170375e-02
         - -1.0860723299064885e-02
         - -1.9831087120005007e-02
         - 2.0088761149002203e-02
         - 7.5205519933303133e-03
         - -5.3684744681527716e-03
         - -1.0715520609881806e-02
         - 2.2011577865081098e-02
         - 2.4170072032455272e-02
         - 5.3309594801611597e-03
         - -1.5631219912599515e-02
         - -8.4944172922643004e-04
         - 2.6525147763077850e-02
         - 2.4593705460494688e-02
         - -2.9326257621964326e-03
         - -1.9184397829420410e-02
         - -2.0017306076971740e-03
         - -1.0639475289763896e-02
         - 1.7068056423596704e-02
         - 2.5035716358052431e-02
         - -1.3788282290049911e-03
         - -6.1278351667148666e-03
         - -7.6476550534042747e-03
         - 1.5297371069868816e-02
         - -1.9298902544442436e-05
         - 1.5505438808984173e-02
         - 1.9988550111458159e-03
         - 1.1767113182740182e-02
         - -1.6463739819317359e-02
         - -1.9328396025231721e-02
         - -1.6779003719923455e-02
         - 7.0891571175998799e-03
         - -8.3808174064830647e-03
         - 2.3391970477114919e-02
         - 1.2061880317844470e-02
         - 1.8002555489425594e-02
         - -5.6159526190749090e-03
         - -8.6711389103793536e-03
         - 7.8561756037027527e-03
         - 4.6588396327902990e-03
         - 1.9535195360259383e-02
         - 2.4704842936821802e-02
         - -2.1167289744894076e-02
         - 1.8621933254423097e-02
         - -9.3242486477302100e-03
         - 1.6793794006254404e-02
         - -1.4496916386031795e-02
         - -1.5005889620225122e-03
         - 2.0403632223211569e-02
         - 5.5272334287954292e-03
         - -1.5687244510449918e-02
         - 2.3979129409644993e-02
         - 6.7809308843872467e-03
         - 4.4701498855749750e-03
         - 8.3760282397186362e-03
         - 1.6218862177734328e-02
         - 9.4567892835761176e-03
         - -2.3578596316325789e-02
         - 2.3354252966293173e-02
         - 1.9633926726822216e-02
         - -1.8486294639303593e-02
         - 1.4090877512159211e-02
         - 2.8532166931219878e-03
         - 2.7038446706263682e-03
         - -7.6811835714097861e-03
         - -6.5951795465009275e-03
         - -1.6355576826547827e-02
         - 1.3192228294122421e-02
         - -2.3099066532769424e-02
         - 7.5077959338429806e-03
         - 2.5105740651270667e-02
         - -2.7733206714344250e-02
         - 1.9800217987277043e-02
         - -1.6630229063452854e-02
         - -2.7541574273792304e-02
         - 9.2458208685816459e-03
         - 1.9480960828850577e-02
         - -2.0742280664919423e-02
         - 7.1014461930371401e-03
         - -1.7534580329601882e-02
         - -1.2386170250394795e-02
         - 2.3185017007825767e-02
         - -1.7561350533584062e-02
         - 8.5021736506615177e-03
         - 2.1429069137970755e-02
         - -1.6835339898070997e-02
         - 5.9983880066654185e-03
         - 1.6711576935851787e-02
         - 2.8998275227770879e-02
         - 1.8983642091699917e-02
         - -7.9646928732128412e-03
         - -1.4109457919810418e-02
         - 1.5985572151660635e-02
         - 6.0425371455031926e-03
         - -1.3730704323633425e-02
         - 3.5096863099007250e-03
         - -1.4172832091659454e-02
         - 2.3947855510513608e-02
         - 2.6193927778501745e-02
         - 4.1649732825813765e-03
         - 2.1189200040585995e-02
         - 1.0352025943621347e-02
         - -2.6071559342776968e-02
         - -2.3285508652123331e-02
         - -4.1412718801054993e-07
         - 2.2951198911218922e-02
         - 3.3925920657058694e-03
         - 2.2313556427805206e-02
         - 1.0692497565866259e-02
         - 2.8016646652084445e-02
         - 3.7372699722512366e-03
         - 2.1587259110933707e-03
         - -1.4937679753218159e-02
         - -2.1051278780664640e-02
         - -1.8908409838125674e-02
         - 1.9860544373683245e-02
         - 3.0958985921432183e-03
         - 1.6144706855933468e-02
         - 2.7941334411110973e-02
         - -5.3444803694617168e-03
         - 3.6520498479804112e-03
         - -1.3773210539197453e-02
         - -5.2186083181458330e-03
         - 1.9186892484805942e-02
         - 3.0936595558851779e-06
         - -1.9261195259709867e-02
         - 2.3492242308981110e-03
         - -1.5609758608962071e-02
         - 1.9421219583139346e-02
         - 1.6749716349350262e-02
         - -2.5602192487261439e-02
         - -1.4731855913496640e-02
         - 5.5207571036682600e-03
         - 1.9092004833328236e-02
         - -1.3952426861680621e-02
         - -1.0921776141530420e-02
         - 1.8820918801672266e-02
         - -2.0224232415353770e-02
         - 1.2049653136844789e-02
         - 2.4858162430265217e-03
         - -2.4516212564646422e-02
         - -2.5353783492404044e-03
         - -1.3341299362029654e-04
         - -1.1680645416934150e-02
         - 1.4023579395517318e-02
         - 2.1866077828781118e-02
         - -8.3946119995518646e-03
         - -2.2813722902019357e-02
         - 2.4221846483578734e-02
         - -1.2467669727249788e-03
         - 1.3394487578263227e-02
         - 1.4163652884422626e-02
         - -8.9504826933627848e-03
         - 2.1119532810694314e-02
         - -2.8156130976475943e-02
         - -2.3091284491994900e-02
         - 1.3854401657841272e-02
         - 1.2468641870010344e-02
         - -2.2214126534349021e-02
         - -1.0946373681402119e-02
         - -1.4308249715237696e-02
         - 2.5311501434168771e-02
         - 1.6774868124780795e-02
         - 8.6943131782661230e-04
         - 2.5137721514936283e-02
         - -9.2135495650033251e-03
         - -2.7828181589507617e-02
         - -1.9027413760406470e-02
         - 2.1031729636615207e-02
         - -1.9276326070886648e-03
         - -8.7667762048161992e-03
         - -5.6319448858696500e-03
         - -9.4814026455052082e-03
         - -2.5791998959038477e-02
         - -9.7320735972361520e-03
         - -1.5795497970093803e-02
         - -9.6847768185620697e-03
         - -4.2791946491785018e-03
         - -2.2417502759109901e-03
         - -5.2565382958934450e-03
         - -2.1841857828185790e-02
         - 2.4802771743008642e-02
         - -2.2512009089212092e-02
         - 2.3536601767689444e-02
         - -1.3647128037024734e-02
         - 1.2737405706981710e-02
         - -1.0213791815416175e-02
         - -2.3594861292311076e-02
         - 1.3870136302035749e-02
         - 9.4463200946844992e-03
         - 2.0951049540521623e-02
         - -1.6466952886056280e-02
         - 2.1479334114408662e-02
         - 6.2452951051878607e-03
         - -1.1914455865621808e-02
         - -8.2186447454734562e-03
         - -4.2223249624228536e-03
         - 1.2420734647373727e-02
         - 3.7573902611469194e-03
         - 2.8639199354485171e-02
         - 1.5827541885733629e-02
         - 2.8385049565530469e-02
         - -1.3479477451121307e-02
         - 9.5695829844718722e-03
         - -4.7977835681345202e-03
         - 5.9248467987587806e-03
         - 2.5862125627227110e-02
         - 2.1225410747812552e-02
         - 1.6026436672374619e-02
         - -3.4235298532517403e-03
         - -1.0487592677118737e-02
         - 1.1290198640529263e-02
         - -1.5605807505682186e-02
         - 1.0203338695750143e-02
         - 2.7705268347596814e-02
         - 2.2251482752860867e-02
         - -1.2833942131610930e-02
         - 1.1446710271746085e-02
         - 1.7974970204882902e-02
         - 1.6075043995222315e-02
         - -1.8036587290794926e-02
         - 2.6605874513226907e-02
         - -1.8539190888413153e-02
         - 2.1557165466014647e-02
         - 8.1438193143100676e-03
         - -1.1241890551661101e-02
         - -1.6259123498041424e-02
         - -1.6320410338903295e-02
         - -9.0694007809345861e-03
         - -9.6486559058673611e-03
         - 1.9400191310525700e-02
         - -2.3058789021492013e-02
         - -2.3021984569845003e-02
         - 2.4116611748429318e-02
         - 1.8637989483281228e-02
         - -1.6646251041646624e-02
         - 9.3798117600101243e-03
         - -1.4386236726824717e-02
         - -5.2593814190578783e-03
         - 2.7193691765399448e-02
         - 2.1994354200950778e-02
         - -1.8218940085001429e-02
         - 8.9384746274986313e-03
         - 9.1483324129694923e-03
         - -2.2359659163301609e-02
         - -1.1809796728208205e-02
         - 2.5818734740831257e-02
         - -2.3156831248398190e-02
         - 1.2629578955795046e-02
         - 1.8309246522023887e-02
         - -3.4649843038004656e-03
         - -6.9074371705789078e-04
         - 1.4855468773227745e-03
         - 7.2955450308043986e-03
         - -2.4596260357110024e-02
         - -1.4418414920789322e-02
         - 2.2683253950492557e-02
         - 9.7289616747985880e-03
         - 2.3382492476831929e-02
         - -1.7168841951311496e-02
         - 1.6180045903466413e-02
         - 1.9808340881257915e-02
         - 2.6647778667882420e-02
         - -4.3330782411899645e-03
         - 2.3019523582997404e-02
         - -2.3321914972550650e-02
         - -2.1941338108510344e-02
         - -1.7044368186517982e-02
         - 1.1238245445807395e-03
         - -1.6159322916973085e-02
         - 2.3382430887210637e-02
         - -4.0212222129471127e-03
         - -1.6156893312224238e-02
         - 1.6422237822674410e-02
         - -2.8016112230305413e-02
         - 2.0721699448080302e-02
         - -2.6841042896086860e-02
         - -8.7301871063272304e-03
         - -8.8032770336340018e-03
         - 2.1350815466406735e-02
         - 2.1367703441027737e-02
         - 2.4879863452634710e-02
         - -1.5535327683483520e-02
         - -2.6867671463485728e-02
         - 7.7788648539673525e-03
         - 1.6448009000094577e-02
         - -1.2242183152325977e-02
         - -1.6928408775295226e-02
         - -1.6432117060196968e-02
         - -1.6867398274866042e-02
         - 8.5509264184759157e-03
         - 4.3022254237943449e-03
         - 1.7550552638275103e-02
         - 1.8709291951490788e-02
         - -2.1860084107617899e-02
         - -2.3433974332209628e-02
         - -2.3934751943384545e-02
         - 2.6202616040855910e-02
         - -3.9381048673523015e-03
         - 9.7016655522144364e-04
         - 2.1597889888168173e-02
         - 9.7357770601852692e-03
         - 1.7878240162998570e-02
         - 2.2722082643565470e-03
         - -6.0092091309007075e-03
         - 2.1122731223571564e-04
         - -1.9663902569851937e-03
         - 1.2370071976305694e-02
         - 1.0641808000429697e-02
         - 9.2804669451498796e-03
         - 2.5044509335855589e-02
         - -6.6843191349029232e-03
         - 2.2507993788524847e-02
         - -9.5741732522626483e-03
         - -1.5009469243785744e-02
         - 1.8811831405209777e-02
         - -7.3939635227676884e-03
         - -5.4794595121601709e-03
         - -1.1423767920584225e-02
         - 5.6200829338386949e-03
         - 1.3414953757203162e-02
         - -6.6138547548915665e-03
         - -7.1575509360481213e-03
         - 1.2554570857906875e-02
         - 2.3410275231312835e-02
         - -1.8597350711005232e-02
         - -8.4121896783218089e-03
         - 2.9459323602994771e-02
         - -6.4401812442788425e-03
         - -1.3820199198031426e-02
         - 1.3347763152171909e-02
         - -1.4254763159757912e-02
         - 6.3826514326874150e-03
         - 2.7204141470348062e-03
         - -5.9138291164700686e-03
         - 2.5727871190659540e-02
         - -1.4322149912251616e-02
         - 1.4338559888344388e-02
         - 2.7005525481956717e-02
         - 1.5891037323736923e-02
         - 9.3990700799632294e-03
         - -3.1378198131085267e-03
         - -1.0138199649767730e-02
         - -1.7800721448661513e-02
         - 2.1357122418642040e-02
         - -2.6732481042337893e-02
         - 1.1940318169542113e-02
         - -1.4208303539698887e-02
         - -1.1113800931381071e-02
         - 6.6046097135688932e-03
         - 2.2923715698895310e-02
         - 6.2532752668040988e-03
         - -3.8902877955025476e-03
         - 6.5304101523109247e-03
         - 1.6173265846155062e-02
         - 4.1915264637350548e-03
         - 2.4865601578513481e-02
         - -2.0742879104019472e-02
         - -3.4677850413154404e-03
         - 1.0533799223004122e-02
         - -6.4220427823879610e-03
         - 6.4307735868951584e-04
         - 2.2525145799511041e-02
         - 1.1687271859534063e-02
         - 6.5260510689920948e-03
         - -2.0468972797227217e-02
         - -2.2688749614385072e-02
         - -1.7004834596514473e-02
         - 1.1784981125519815e-02
         - 1.1078409126870155e-03
         - -1.9091039656514347e-02
         - 2.2339931342775288e-02
         - 7.7849758038288129e-03
         - 1.1186050356948881e-02
         - 1.7774309523392068e-02
         - -8.8155130993080952e-03
         - -1.9256994026314284e-02
         - -1.8766173243875538e-02
         - -1.2158520683125392e-02
         - 1.2291584643216080e-03
         - 3.3257764457646447e-03
         - 8.6954975698716082e-03
         - -4.0181884728749083e-03
         - 1.6801963079412178e-02
         - -2.1025648047091543e-02
         - -1.4943514709269483e-02
         - -1.6847568377906342e-02
         - 1.2315129684439383e-02
         - -9.7817033841938964e-03
         - 4.6491247865577991e-03
         - 4.6179941904937727e-04
         - -2.9316002912877091e-02
         - -1.9836618459665244e-02
         - 2.3297201095572331e-02
         - 1.2195608303963034e-02
         - 1.6856566962547462e-02
         - 1.4935723929867797e-02
         - 1.6389470963702052e-02
         - -5.2404266255270246e-03
         - -1.4537458936502521e-02
         - -1.5480393416873647e-02
         - -2.2187962533931047e-02
         - 2.6907181286176713e-02
         - 1.2756486985522016e-02
         - -8.9220978675110287e-03
         - -2.4541156424187888e-02
         - 2.2323196903994282e-02
         - -2.2674459198786384e-02
         - 2.2459011241018211e-03
         - -3.7501461060278249e-04
         - -1.0278805820777961e-02
         - -4.2204311402064187e-03
         - 2.1897958955129165e-02
         - 1.3403808245365335e-02
         - -1.8138024746091181e-02
         - -1.3292386876906266e-02
         - 2.2965705498606596e-02
         - 1.7438662557161106e-02
         - 2.1267403881036855e-02
         - -1.3372241133876977e-02
         - 1.7937912965479377e-02
         - -3.3810217673074832e-04
         - -4.9554144537967233e-03
         - 1.7928140921238480e-02
         - 5.2397231933124198e-03
         - -1.0908651603314874e-02
         - -9.5996688080121784e-03
         - -1.1996801988622220e-02
         - 4.8560686998163193e-03
         - -5.5033944919770307e-04
         - -1.2775281924973693e-02
         - 1.3429409477033319e-02
         - -8.6944245130045669e-03
         - 1.1161918241732837e-02
         - -1.0695169494996838e-02
         - 1.4936752705600425e-02
         - 9.9504254274019113e-03
         - 1.2190266914722766e-03
         - 4.0022872334510401e-04
         - 1.9208253634359049e-02
         - 3.0270952601944599e-02
         - 2.3970774514229048e-03
         - -1.2408125060037231e-02
         - -6.3085513238649348e-03
         - 3.6206680192665220e-03
         - 2.3452964627346848e-02
         - 2.5836620071882192e-02
         - -1.5166659585702720e-02
         - 2.4217515476840534e-02
         - -2.4044162194375267e-02
         - -2.0727938757899907e-02
         - 2.7726973550573495e-02
         - -1.6803419244700245e-03
         - -2.4117143251502451e-02
         - -1.3805344064822514e-02
         - -5.3595105026081093e-04
         - 1.8302334077957071e-02
         - -3.1667503921645711e-03
         - 1.1511096572788895e-03
         - -4.7709246398147361e-03
         - -1.7337354448969403e-02
         - 2.4973173522519088e-02
         - -9.6561841487827448e-03
         - -1.6305686160958986e-02
         - -2.3000535748789755e-02
         - 1.2303077174725931e-02
         - -8.5508751733619857e-03
         - 2.6172256807081334e-02
         - 1.1639156117772312e-02
         - -2.6536624105867709e-02
         - -1.3293418314650212e-02
         - 1.6594243887552967e-02
         - -1.8348616382481930e-02
         - -7.5706785974663186e-03
         - 8.1244477197805337e-03
         - 2.6830387877883333e-03
         - -2.8018567950851810e-04
         - 1.4120495166306127e-02
         - 3.2210133469941561e-03
         - -9.8343151390329047e-03
         - 1.9587871779332952e-02
         - -1.6398607223321266e-03
         - -1.4427346034267874e-02
         - 1.5041096051488399e-02
         - -1.3464092180490154e-02
         - 2.0324547044633025e-02
         - 2.3739826577225367e-02
         - -9.6365050289023962e-03
         - 3.3859097985993532e-03
         - -1.1213600877006699e-03
         - 1.2366786657467188e-02
         - 2.0533304375438006e-04
         - -2.4537609595996036e-02
         - -2.3505117308473284e-02
         - -1.6003922027185927e-02
         - -3.6963728431784137e-03
         - -4.0312801687428772e-03
         - 1.3523113164061814e-02
         - -1.9098062120441399e-02
         - -2.1913041336552651e-02
         - 1.6293921468224035e-02
         - -9.3376777298965069e-03
         - -2.7089222442740694e-02
         - -1.7524547542792240e-02
         - -7.5821728213252776e-03
         - -2.6290229967593278e-02
         - 2.2373450893407174e-02
         - 1.2647505144922608e-02
         - -1.7157329807085640e-02
         - 5.2010168814597586e-03
         - -1.7190403903883007e-02
         - 2.5922190549389535e-02
         - 1.9534607859049986e-02
         - -1.4104582349687955e-02
         - -2.2655708999991701e-02
         - 8.4609149096542945e-03
         - 2.6088410905322823e-02
         - -2.0658539123780548e-02
         - 1.5227817450452158e-02
         - -2.8385987875967678e-02
         - -1.1597511956841385e-02
         - 4.6362987820536246e-03
         - -2.3313265265141513e-02
         - -2.2394439916354567e-03
         - -9.9247782666012346e-03
         - -1.7735426713365626e-02
         - 2.2774100599343757e-02
         - -1.0273368190953761e-02
         - -2.7428349764292217e-03
         - 1.8532691436357399e-02
         - -5.3033073713352544e-03
         - 2.3756806069405906e-02
         - 2.2587060626825983e-02
         - 1.4652435458661415e-02
         - 1.6985033308920674e-02
         - -8.8611223984811031e-03
         - 2.0244001544560380e-02
         - 3.9897721974918371e-03
         - 1.3766540650232150e-02
         - -2.2074698805915300e-02
         - -3.9156625140317237e-03
         - -1.7218655895502495e-03
         - -2.2593204408027576e-02
         - 1.5048059992288537e-02
         - 5.7865073336936992e-03
         - 1.6358100439914303e-02
         - -1.8142107464821797e-02
         - 2.9130650570882352e-04
         - -2.1012047931257022e-02
         - -1.3374438169255395e-02
         - -6.7053046348506638e-03
         - 1.5214525025588167e-02
         - -2.5625522161686403e-03
         - -6.3485809353026864e-03
         - 4.2590631907235181e-03
         - -1.9503410288829282e-02
         - 1.7876229426635786e-02
         - -6.6314532520998113e-03
         - -2.0498740310137347e-03
         - 7.7912576241914167e-03
         - 3.7205770459905149e-03
         - -2.4690398134514391e-02
         - 2.5414801449574753e-02
         - -2.6909563519956280e-02
         - 1.5785006483708720e-02
         - -6.3516265438684138e-03
         - 1.2407738187441654e-02
         - -6.4094417356552079e-03
         - 1.4258231281085271e-02
         - -1.1274915836913920e-02
         - 2.2294960753897981e-02
         - 2.0130471092276427e-02
         - -2.4012758133655703e-02
         - 1.5967448269420478e-02
         - -8.5457238816680943e-03
         - -1.4071476352221614e-02
         - 3.0016718897968664e-03
         - 1.6483764947868802e-02
         - -2.2282153281172237e-02
         - 4.7607813765943889e-03
         - 2.5234218838219854e-02
         - 2.3241873481200839e-02
         - 5.9256483382042419e-03
         - -7.1123539414357092e-04
         - -8.7739951405688826e-03
         - 2.8505004521096962e-03
         - -5.0010057924774831e-03
         - -7.2052453228349349e-03
         - -1.3778298186081853e-02
         - 2.2642198715621446e-02
         - -1.5264099528766235e-02
         - -8.7419906220977412e-03
         - 5.8474443268296200e-03
         - 1.2523311773584126e-02
         - 2.8061180426522222e-02
         - 6.8021377765753368e-03
         - -1.2489687929420935e-03
         - -7.7004188549699999e-03
         - -2.5800534606942472e-02
         - -1.4057183910853709e-03
         - 1.5725205573826246e-03
         - -2.0709938014739301e-02
         - -2.8814738082563310e-02
         - -9.0835867269403753e-03
         - -8.7956788667334120e-03
         - 1.0421468428132541e-02
         - -1.3783041651533197e-02
         - -1.0935509754757523e-02
         - -1.3800494082983611e-02
         - -2.1206224306471625e-02
         - -5.1501043403879721e-03
         - -2.2927209927412835e-02
         - 4.2417675398259431e-03
         - 1.7722603418041480e-02
         - -2.5135395653701677e-02
         - 7.1572270976790302e-03
         - 1.2199659122043374e-02
         - -8.8172417904302421e-03
         - 2.5060686306748518e-02
         - -7.0706737592144469e-03
         - -2.4266753478604727e-02
         - -1.6094302193350844e-02
         - -3.7327328115139283e-04
         - -2.1464161233719161e-02
         - -2.1479802738648621e-02
         - 4.5556002969039987e-03
         - -2.3174759184301775e-02
         - -2.7508753989461249e-02
         - -1.1536182705318159e-02
         - 2.0544807703333137e-02
         - -2.7204305933341107e-02
         - 1.0789811484745013e-02
         - -2.4557597312430467e-02
         - 2.4686803621599453e-02
         - 1.0149473974853367e-02
         - -1.6277040270800073e-02
         - 2.0391286613001471e-02
         - 1.6366725528743874e-02
         - 2.4835757964223253e-02
         - 9.3073251561757980e-03
         - -1.2785524843508972e-02
         - 2.5083471008715708e-02
         - 4.0330231998080175e-03
         - -7.1800400375125664e-04
         - -1.5292501542420931e-02
         - 2.2113906925042299e-02
         - -2.4332038162102037e-02
         - 2.1908524680509606e-02
         - -1.6455318480724363e-02
         - 4.1795979170550042e-03
         - -1.0385554842275454e-02
         - 2.3948364927302394e-02
         - 2.6770138574720433e-02
         - -2.7762642741730317e-02
         - 1.7785281769040640e-02
         - -2.2029827566097251e-02
         - 6.5765842931042456e-03
         - 6.2332091363549898e-03
         - 2.7873429102795503e-02
         - -9.0715325244821992e-03
         - 1.1933326772786036e-02
         - 1.1168199079831128e-03
         - -2.0822109577685335e-02
         - -2.0272437754238131e-02
         - 2.2604445115473614e-02
         - 1.0340748287298817e-02
         - -1.4798768027055187e-02
         - -1.2538168799411026e-02
         - 9.2907553170229907e-03
         - 2.6153671562834987e-02
         - 2.2286000083755683e-02
         - -4.1506933324734607e-03
         - 1.2667607061924996e-02
         - -2.6227779632831495e-02
         - 6.1810865014013945e-04
         - -1.1069162266690299e-02
         - -1.3068271388664196e-02
         - -1.2064850139285089e-02
         - -1.6294031194033328e-02
         - -1.7083724308717362e-02
         - 1.1156328102242050e-02
         - 1.6145862324863858e-02
         - -8.0908108489262751e-03
         - -6.3311493506496789e-03
         - -1.3885255023186022e-02
         - 3.2270405121697749e-03
         - -1.6498493051206233e-03
         - 2.7052539386575855e-02
         - -1.6553465248946332e-02
         - 1.1370324326323341e-02
         - -1.3763489961441874e-02
         - 3.8824840012557683e-03
         - -8.2646227140480664e-03
         - -9.3584888144118382e-03
         - -1.3569049673664088e-02
         - 2.1597791516655057e-02
         - 1.9712949795068598e-02
         - -1.4522377676471061e-03
         - 1.2504641348813805e-02
         - 2.2668399350759337e-02
         - -2.9908007371580392e-02
         - -1.0188340398117340e-02
         - 1.4021606820703999e-02
         - 3.1036498115238577e-03
         - -7.2141284912227363e-03
         - 1.9835971644561353e-02
         - -6.9465196466957342e-03
         - -1.8965025739077275e-02
         - 1.9212050044471289e-02
         - -1.9078956193658285e-02
         - -2.3734830550394201e-02
         - 2.9239543766934068e-02
         - 6.6161297663262656e-03
         - 2.8885395690548248e-03
         - 1.0953633271654510e-02
         - -2.1545407906980285e-02
         - -1.6620300089895526e-02
         - -1.9483002726951068e-02
         - 2.5274885625438327e-02
         - -1.2185329899903837e-02
         - 1.3723985139451363e-02
         - -2.5344593090898742e-02
         - -1.8904169084659323e-02
         - 1.8278241324507594e-03
         - -1.7567893083298876e-02
         - -2.1301576164513759e-02
         - -7.8166194774920063e-03
         - -1.4649421066788307e-02
         - 1.7841987349139912e-02
         - 2.0038197887995941e-02
         - 2.0858609510056221e-03
         - 7.4399052607847854e-03
         - -1.0358166631221600e-02
         - 1.1157583750133059e-02
         - 1.5057671281739037e-02
         - 1.2965571467106529e-02
         - 7.0279734945052144e-03
         - -9.3375823521000666e-03
         - 2.0095562759842107e-02
         - 9.1151183277969876e-03
         - 1.3639389679586823e-02
         - -3.7874328779013543e-03
         - 1.0808647895129062e-02
         - 8.7237397797438176e-03
         - 1.2749539499727840e-02
         - -1.6134984919903186e-02
         - -3.8265809805359380e-03
         - -2.2825001866510059e-02
         - 1.4531264790387490e-02
         - -1.3261038674823105e-02
         - 2.0613621991082104e-02
         - 8.6350011502397857e-03
         - -9.2809088350964374e-03
         - -2.5142412949381882e-02
         - 2.3041711935430385e-02
         - 1.4846618322239201e-02
         - 1.1410506922862605e-02
         - 5.3598876957285319e-03
         - -2.0471374721181324e-02
         - 9.1735935202995576e-03
         - 1.4080437599715569e-03
         - 7.5070086067494839e-03
         - 9.1387518437419692e-03
         - -2.7802281863848366e-02
         - 2.7507487461528456e-03
         - -1.2111450393735379e-02
         - 1.5209010627528292e-02
         - 4.5810112734777537e-03
         - 7.7764803415774379e-03
         - -2.9197271913859132e-03
         - -4.1393493860509478e-03
         - 2.1362569659258677e-02
         - 3.2532664543707610e-03
         - -1.1316266232473442e-02
         - 2.3678515687228906e-03
         - -1.5239522518292083e-02
         - -1.1833653643612194e-02
         - 1.9738590644087839e-02
         - 1.5199512065764280e-02
         - -8.0958511721583252e-03
         - 1.8888821754907789e-02
         - -1.7266265270653284e-02
         - 2.2638934706740471e-02
         - 2.5900404260871580e-02
         - -1.8155539845574557e-02
         - 8.1189515866651341e-03
         - 1.1232823211014559e-02
         - -9.9394200491422311e-03
         - 2.3804936893445906e-02
         - 2.7965394505682733e-02
         - 9.3821483097057402e-05
         - -1.0649103852243836e-02
         - -2.6426133099250709e-02
         - -8.4107920750691109e-03
         - -1.7358564492023627e-02
         - -1.7946158579635066e-02
         - 2.3177277983609948e-03
         - -7.7468388225441593e-03
         - 2.6053133596318428e-02
         - -2.1982593692213063e-02
         - -1.9525639729847166e-02
         - -1.9126357149694271e-02
         - -2.1884008025989509e-02
         - 2.2901704016675670e-02
         - -1.8806352608189164e-02
         - -6.3476515868095881e-03
         - -5.5115020684781022e-03
         - 1.8732008014419228e-02
         - 1.7985172526038852e-03
         - -5.2593826590687457e-03
         - -1.8560716853794901e-02
         - -2.4594835862129811e-02
         - 1.6007986581322114e-02
         - 2.2950468050280774e-02
         - -8.3190271503411455e-03
         - -8.5183698490260296e-03
         - 5.0102053831131551e-03
         - 2.5158221617320075e-02
         - 2.8834190197482161e-04
         - 1.5838004951815778e-02
         - -1.2901044434699941e-02
         - -2.5302629664580949e-02
         - 1.7864676591193032e-02
         - -9.9220463302757966e-03
         - -6.9148119147225788e-03
         - 1.7490762275267122e-02
         - -8.5363616155109973e-03
         - -2.3079581068424768e-02
         - -3.7044621508907907e-03
         - -1.2881935555401701e-02
         - -1.0141748441450247e-02
         - 2.4417385999387798e-02
         - -2.2226840187429861e-02
         - 8.8530869237143216e-03
         - 7.0760664332718427e-03
         - 1.2427537022156911e-02
         - -5.0704121761817531e-03
         - -1.7900427993574088e-02
         - -2.1536564592430734e-02
         - -1.1280242285651276e-02
         - -2.4906122399278946e-02
         - 3.9781933474341852e-03
         - -2.2286181217185612e-02
         - 1.4339374673510010e-02
         - -5.0941361392121765e-03
         - -1.1200146940149711e-02
         - 6.8304926774493671e-03
         - 1.3181289453193629e-02
         - -2.1496640610679532e-02
         - 2.3750536283668692e-02
         - 1.9772072343085822e-02
         - -1.9891637179422907e-02
         - -1.6568478429061600e-02
         - 1.3841971464739634e-02
         - 2.1044324211721335e-02
         - 2.5363009221443144e-02
         - 2.3692921897212293e-02
         - 1.3708596235874292e-02
         - -1.3306680197926250e-02
         - -1.2706402241807899e-02
         - 2.6815592456780946e-02
         - 1.0179691274003616e-03
         - 1.3291462515687531e-02
         - -1.5314369117884001e-02
         - -5.2439487278442528e-03
         - 1.9714867852643585e-02
         - 2.2127648969250593e-03
         - -3.6209851600465227e-03
         - 2.0848146721992065e-02
         - 2.3050379074515324e-02
         - 2.5704336380954870e-02
         - -2.0481438370226483e-02
         - 1.6861169800656908e-02
         - -2.7448416306938943e-03
         - -1.9155765273183984e-02
         - 2.6521954193964959e-02
         - 8.6979411404346525e-03
         - -1.5556314102268726e-02
         - 5.1892701698829759e-03
         - -3.0504086025834192e-02
         - -1.9104884973415502e-03
         - 1.4771378717568602e-02
         - 2.0532474172883865e-02
         - 7.0335410803805841e-03
         - 2.1020620512435580e-02
         - 1.3021472952049491e-02
         - -4.6290589043759345e-03
         - 1.3313923007900980e-02
         - -1.6590624325813337e-04
         - 2.1702616226835482e-02
         - -2.4912757305573165e-02
         - -2.8522213201664016e-02
         - 2.8124712469919756e-02
         - 1.5562115497257967e-02
         - 1.5578991455247140e-03
         - -5.0899926061897145e-03
         - -1.0507464017314073e-02
         - 1.0205850764061180e-02
         - 7.7893172881041538e-03
         - -1.8190077352535142e-02
         - 1.0974942391505921e-02
         - -1.5242429981661454e-02
         - 1.0997094196959286e-02
         - -8.7699196506540959e-03
         - 1.3306856425266203e-02
         - 2.5227093237881631e-03
         - 1.4970319068784517e-02
         - -2.1772675596540274e-02
         - -1.4343550790315759e-02
         - 8.4078202124052166e-03
         - 1.5834806981473205e-02
         - 1.6020752060497589e-02
         - 2.0338412109079840e-03
         - 8.1042357980080516e-03
         - 2.0337173343956908e-02
         - 7.3314047257858617e-03
         - -2.1863896980423179e-03
         - 5.1594633064063035e-03
         - 2.6989638502715137e-02
         - 2.8758166688382064e-03
         - 2.2000155898068943e-02
         - 4.5054023133203024e-03
         - -3.0313898763594183e-02
         - -1.6282949381402081e-02
         - 2.6308069605349479e-03
         - -1.9622571780682697e-02
         - 1.5170351628861068e-02
         - -7.9870650938164932e-04
         - -2.1988245505174024e-02
         - 1.4411800019466426e-02
         - -7.6796836900589404e-04
         - 1.2558605038136822e-02
         - 1.0283492635228195e-02
         - -1.7457902738016629e-03
         - 2.6584581784125028e-02
         - 1.4521345126860761e-02
         - -2.1468669514067697e-02
         - -1.2451537371993804e-02
         - -4.2960849372665130e-03
         - -7.5075972266521731e-03
         - 5.7293673515749393e-03
         - -9.4354342977947588e-03
         - -7.0423977628099035e-03
         - 1.5316476589126118e-02
         - 2.0145336077832501e-02
         - -2.0746428916501011e-02
         - -1.7013032568101112e-02
         - -4.9396537600151259e-03
         - 2.4666395866545576e-02
         - 1.6447895053617323e-02
         - -1.7958861524623896e-02
         - 2.1044030941557556e-02
         - 2.8541178089946974e-02
         - 1.7284194564621772e-02
         - 2.3330840010708839e-02
         - -1.1936378967185281e-02
         - 2.4662982866518413e-02
         - -2.0268969280505162e-02
         - -1.4406146381840497e-02
         - 1.7366239910181016e-02
         - 1.5094513555427418e-02
         - 2.4104073454247286e-02
         - 2.2480150905529819e-02
         - -1.4462625784821690e-02
         - -9.7472735661351204e-03
         - -1.8106862553897311e-02
         - -2.4652905200241770e-02
         - 2.5418571896665954e-02
         - -1.7260252497907816e-02
         - 2.7084124684488342e-02
         - -2.5150943310564059e-02
         - 2.4275414301344295e-02
         - -1.9844295373887710e-02
         - 4.3989173526557112e-04
         - 5.8414452345500771e-03
         - -8.2072809961576364e-03
         - 1.6240330102816225e-02
         - -8.9619648365145237e-03
         - 1.7030410778399244e-02
         - 1.2978670423116265e-02
         - -1.6782310814182241e-02
         - -2.7543898541110935e-02
         - 8.2700068977791686e-03
         - -8.6210603998678487e-03
         - -6.8540188845528137e-03
         - -1.1064592633382372e-02
         - -2.2736423090904054e-02
         - 1.4014957336919872e-02
         - 1.2467354650251176e-02
         - 1.2435221104172283e-02
         - -1.1934655776324082e-02
         - -2.2502691148069590e-02
         - -1.1120496363754930e-02
         - 1.7858670364040954e-02
         - -1.1390611851453573e-02
         - -2.2460168094785772e-02
         - -4.0220969489261219e-03
         - 1.0158295332701144e-02
         - -2.4486640277932379e-02
         - 1.8716783071547271e-03
         - -1.9940191573395900e-02
         - -2.8532844245698304e-03
         - 1.6955332008412486e-02
         - 1.4394070193860539e-02
         - -1.3229682886345991e-02
         - -1.1901300891147153e-02
         - 2.2341061578641998e-02
         - 6.6949920292152017e-03
         - 2.0308039283066369e-02
         - 1.2139924263309638e-02
         - -4.7366954990324823e-04
         - -1.2768702023231418e-02
         - 1.6677667790445612e-02
         - -2.3964571073553102e-02
         - 7.2475239769185561e-03
         - 6.2913910269455113e-03
         - 2.7073231171676537e-02
         - -2.1977988965039653e-02
         - 2.7324846138328061e-02
         - -1.4297809377064300e-02
         - 2.0497775515585237e-02
         - -1.8098653094199484e-02
         - 6.8002330386114813e-03
         - 6.4984693998651694e-03
         - 1.1874101754603551e-02
         - -1.0890719848309060e-02
         - 1.8750019340196460e-03
         - -6.9560721965610762e-03
         - 1.2890195400042510e-02
         - 2.3462426040007464e-02
         - 1.8681469690647320e-02
         - -2.2474593730255942e-03
         - 1.4345316310841225e-02
         - 5.4331760908782820e-03
         - -2.6733328254329621e-03
         - -1.6549051581386184e-02
         - -2.5988746296957556e-02
         - 9.7558461595472264e-03
         - 3.4220729651155690e-03
         - -2.4757874698490170e-03
         - -1.9315996701953268e-02
         - -2.5399249166118285e-02
         - 2.3393443368836253e-02
         - -1.5128713466932139e-02
         - 2.5049159510959106e-02
         - 1.6023615122014313e-02
         - -7.3434224698855121e-03
         - 2.0727434777180066e-02
         - -1.9709757276784316e-02
         - 2.0521962559714210e-02
         - -1.7188450691617808e-03
         - 5.5973949670296346e-03
         - 1.9715895558071420e-02
         - 2.4496332802318645e-02
         - -2.4093426127011746e-02
         - 1.9092299868531264e-02
         - -1.7879251724888513e-02
         - 1.6366060859783316e-02
         - -2.4932438066280201e-02
         - 1.2353081710099993e-02
         - -1.3933122869927147e-02
         - -2.7863778972066914e-03
         - -1.1033456047469161e-02
         - -2.0054811476730685e-02
         - -1.0595985886782811e-02
         - 6.8371425390043256e-03
         - 2.0838159052406442e-02
         - 2.3512259199212616e-02
         - -1.4376717848895689e-02
         - 1.9779433899763377e-02
         - -1.2511841127789762e-02
         - -2.8798767434097466e-02
         - -1.4134181377657038e-02
         - 2.3368768052947939e-02
         - -1.4107337481906146e-02
         - 8.1119355804877384e-03
         - 1.2595153782473993e-02
         - -6.3587463411823976e-03
         - 1.0056273856879242e-02
         - 2.5385767929385634e-02
         - -3.3283708855305345e-03
         - 1.7716136341238978e-02
         - -4.7867569876680139e-03
         - 1.8194660634414179e-02
         - 6.6764189038399776e-03
         - -1.9055349904478346e-02
         - 2.0410374618791652e-02
         - 2.6850491925775721e-03
         - 1.1646038876864700e-02
         - -1.8640842427052870e-02
         - 5.8677495761381539e-03
         - 8.5226594871719488e-03
         - 9.8661074067187843e-03
         - -8.1074489648253496e-03
         - -1.4658781791862738e-02
         - 7.1760010595477695e-04
         - 2.3353432924307121e-02
         - -2.2995505757951111e-02
         - -1.9578604461442679e-02
         - 1.6075681124632264e-02
         - 1.6395346441457466e-02
         - -8.3463936596834282e-03
         - -2.3504971533571836e-02
         - 1.5276488202554171e-02
         - -2.1659434403361918e-02
         - -2.4194801955389471e-02
         - 1.9798339980243614e-03
         - 1.2949649794204760e-02
         - -2.8101063369235929e-02
         - 2.2241648943724827e-02
         - 2.6949552288478271e-02
         - 1.0968387402796487e-02
         - -5.9408574219569331e-04
         - -2.4346128870293242e-02
         - -2.1202076314862924e-02
         - -2.4448823643286415e-02
         - 1.2934329576824821e-03
         - 1.7712516022801106e-02
         - -1.6944609790860456e-02
         - 2.1623796773920543e-02
         - 2.3367179979807841e-02
         - -1.6552547494838653e-02
         - -9.0092882337885014e-03
         - 7.6275497344758508e-03
         - -2.0568338519471499e-02
         - -5.1415990322279496e-03
         - -3.7263492249032891e-04
         - 1.8116929102205182e-02
         - -2.2926607355967049e-02
         - 2.1157453962558814e-02
         - 2.5094007123521007e-02
         - -3.1860969086110655e-03
         - 1.5109714714907293e-02
         - 4.9701419252052544e-03
         - 8.1706982082054517e-03
         - 8.2691397532512045e-03
         - 2.9603961584729536e-03
         - 1.9215826822162711e-02
         - -1.5952550597084932e-03
         - -7.2927275639469184e-03
         - -1.8866269838512102e-02
         - -9.2161724222392782e-03
         - -1.6007866381097195e-02
         - -1.7219827197706358e-02
         - 1.2754840057459730e-02
         - 8.3357721615044782e-03
         - -2.3195823113349362e-02
         - -5.8206950789099453e-03
         - 1.4242489763901231e-02
         - 1.3416507282039978e-02
         - -2.1752894288853783e-02
         - 2.4898176839607940e-02
         - 1.6677950919511783e-02
         - -4.9759440506752378e-03
         - -1.8438358895998427e-02
         - 1.3156781438718951e-02
         - -1.7802357037194488e-02
         - 1.4275703647500590e-02
         - -2.1983470010059437e-02
         - -1.2807095187797135e-02
         - 2.2158147678405793e-02
         - -1.9615024279269928e-02
         - -6.8581793393852689e-03
         - -1.2313626737526562e-02
         - 1.0484151438734827e-02
         - 4.4315238465866547e-03
         - -1.7781196824256416e-02
         - 2.2538030848441810e-02
         - -2.6059161251460749e-02
         - 8.5684123121157717e-03
         - -2.1160808775385752e-02
         - -2.4838015484812691e-02
         - 1.4003462309126937e-02
         - -1.0897836257886734e-02
         - -6.8846508233964048e-03
         - -1.5912462265879345e-02
         - 1.9929840941714815e-02
         - 1.6832136583778381e-02
         - -2.4112619325094436e-02
         - 8.8891136631969320e-03
         - -2.2179005635183484e-02
         - -9.4358160284083569e-03
         - -3.9635170663331306e-03
         - 2.2452878634275714e-02
         - 9.8248577698408154e-03
         - 1.0537613324333478e-02
         - 7.8363922968253067e-03
         - 4.6893403861203520e-03
         - 1.8174617834199578e-02
         - 9.1811485718750873e-03
         - -1.7376943683417299e-03
         - -5.9672653313385393e-03
         - -3.0974531180551698e-03
         - -1.0052490869045451e-02
         - 2.4160452764583111e-02
         - 3.0176244316256408e-02
         - -5.1663735818113284e-03
         - -6.6492733709988400e-03
         - 8.5520649724528202e-04
         - 1.0495693408177019e-02
         - 1.1461570136691959e-02
         - -3.9015429163167673e-03
         - 1.2381975364503457e-02
         - 7.4100187222501130e-03
         - -1.0485749344487941e-02
         - -2.5381666929445441e-02
         - 5.5433659567777618e-03
         - 1.1084292102200428e-02
         - 2.9922065219852488e-02
         - 2.1133762718655517e-02
         - -1.3821281659751543e-02
         - -2.3314932233040053e-02
         - 5.6834268258480378e-04
         - 1.7008081432773142e-02
         - 1.4392802394243185e-02
         - 6.7219518186301510e-03
         - -7.1986584025966029e-03
         - 2.3134753553118260e-02
         - 1.5527225285231466e-02
         - -1.5913311404333475e-03
         - 2.2946843074760349e-02
         - -2.6171132646707418e-03
         - 1.5983964397485475e-02
         - -2.4161756926815393e-03
         - -7.2296842448174919e-03
         - 4.6107001138745865e-03
         - -1.8336214426378176e-02
         - -2.1173250570973097e-03
         - -1.0666795951264482e-02
         - -2.8022810947744788e-02
         - -2.2468791705484398e-02
         - -1.5187281083826238e-02
         - 6.5500388191141465e-03
         - 7.4083066249477098e-03
         - -1.2920110005906012e-02
         - -8.1869262397338619e-03
         - -1.6485442199052621e-02
         - 3.6503007000624670e-04
         - 2.3885422161657604e-02
         - -6.7113172718178292e-03
         - -2.6599501667644188e-02
         - 7.9705710631531295e-03
         - 3.2661717481622991e-02
         - -2.1246086205099969e-02
         - -2.4350553616944701e-02
         - -1.0499058088453018e-02
         - 2.4665077972526434e-04
         - 8.1896932844208285e-03
         - 2.5034187399326194e-03
         - 5.4810064278510056e-03
         - 2.2714915036676771e-02
         - 2.0460707089009853e-02
         - 1.3629237335333128e-02
         - -2.1052828971305872e-02
         - 5.6762608876907740e-03
         - 9.4992651369260475e-04
         - 3.6638634197274349e-03
         - -2.1682497157122494e-02
         - -6.9717622615559326e-03
         - 1.2932838461870603e-02
         - 5.8047383638672517e-03
         - 2.5902572081315325e-02
         - 3.9066040207217040e-03
         - 1.6886776323863040e-02
         - 1.6518460496325903e-02
         - -1.4064344378056355e-02
         - -1.3925256568805384e-03
         - 2.5840723170276809e-02
         - -2.3770191245487033e-02
         - 8.4643104422144864e-03
         - 2.1522900985121787e-02
         - -5.0784587643459981e-03
         - -1.5000806272005932e-02
         - -2.2832106986910836e-02
         - 6.7172253443764773e-03
         - 8.0085261436776516e-03
         - -1.5224786128600452e-02
         - -2.4971878320692014e-02
         - 7.6477678608816895e-03
         - 8.4183518320481033e-03
         - 7.5899405828350110e-03
         - 6.6914142169357434e-03
         - -2.0429891265604423e-02
         - 1.7985370547546460e-02
         - 8.1319089036163816e-03
         - -1.3702299620944354e-02
         - 4.7255488169334449e-03
         - -6.4410608231021717e-03
         - 1.2518502058317645e-02
         - 1.3836033630703936e-02
         - 4.3164433758932320e-03
         - -8.8267373013405839e-03
         - 1.9437853917354007e-02
         - 8.1621917463361928e-04
         - 1.0786654129787894e-02
         - -2.3865507776951785e-02
         - -2.8105546900476686e-03
         - 8.5173929978182485e-03
         - 1.2714601538055488e-02
         - -7.8802322975894731e-03
         - -1.5522134360090719e-03
         - 2.3065464713132817e-02
         - -1.4055119679760867e-02
         - 5.0792745334399996e-03
         - -2.6398956117105457e-03
         - 2.6277134173566592e-02
         - -2.3521823730266452e-02
         - -2.6773135019783182e-02
         - -2.1047141443410231e-02
         - 1.2387442309461347e-02
         - -4.3229832959605008e-03
         - -2.0145122626209950e-02
         - 2.3193860309708155e-02
         - -1.6916675688189893e-03
         - -1.6459638937606411e-02
         - -2.6726657215593710e-02
         - 2.0502315708608717e-02
         - 1.4627455360617599e-02
         - 1.0270924803616769e-02
         - 2.2807708776245552e-03
         - -2.1831458377031751e-03
         - 3.5128476421347967e-03
         - 1.5394556618454607e-02
         - 1.1879752120873945e-02
         - 2.0215511098246243e-02
         - 2.6789278337735895e-02
         - -1.6174485437244673e-02
         - -3.4078284623558297e-03
         - 1.2936239569067316e-02
         - 2.2390407552395603e-02
         - -1.4765279858857361e-02
         - 1.9144463795254462e-03
         - -1.9606795182668703e-02
         - 2.4133047000617372e-02
         - 6.6466783175102989e-03
         - 1.9302063151726242e-03
         - -3.5473974582617379e-04
         - 1.4003136592133660e-03
         - 2.4610046835058675e-02
         - 2.7654551033283084e-02
         - -2.2755688702637895e-02
         - 1.2042227939054446e-02
         - -1.3522389426288122e-02
         - -2.8166386746187643e-03
         - 1.7458769566511340e-02
         - 2.8261924720988222e-03
         - 1.8855773156368365e-02
         - -2.0671045435639763e-02
         - -2.5141290270413966e-02
         - 6.8040042734615058e-03
         - -1.6428063416579104e-02
         - -1.5436159831642259e-03
         - 1.3297715673242092e-02
         - -2.8032766272919632e-02
         - -1.0143719600608662e-02
         - 1.5278982772888017e-03
         - 2.7025585737999454e-02
         - 2.7900992092069643e-02
         - -1.5069665509724602e-02
         - -6.1424696957252901e-03
         - -2.2422658446043946e-02
         - 6.3873670647800369e-03
         - -1.5174264213396883e-02
         - -1.8253990972079949e-02
         - 8.1823181674903853e-03
         - -2.5585325011769886e-02
         - 1.0073594932503449e-02
         - 6.6657214966082583e-03
         - -5.8170250202578778e-03
         - -5.4663356644160613e-03
         - 3.7157967977401226e-03
         - 1.5914132360672923e-02
         - -8.4799480473131180e-03
         - -1.5265064522333237e-02
         - 2.0514234148642306e-02
         - 4.7164831868234088e-03
         - -1.5767695199643807e-02
         - 2.1111273168383599e-02
         - 2.6611467679190762e-02
         - -1.5565756512617709e-02
         - -7.4192264492279935e-03
         - 1.4641610869407252e-02
         - -3.4133222553762469e-03
         - 1.1587835614081384e-02
         - 1.6278609916173380e-02
         - -1.5933350153417174e-02
         - -2.3068543877870062e-02
         - 1.5703949178182318e-02
         - 1.0229587888012646e-02
         - -2.7659184327596723e-03
         - 1.2952484876929213e-02
         - 8.0083282878065534e-04
         - -6.3208350135468576e-03
         - -2.5335734414965873e-02
         - -7.3637717368509707e-03
         - 3.4703544257423309e-03
         - 4.2622549825645194e-03
         - -2.4462323809968677e-02
         - 1.8808201788246375e-02
         - 2.2294072605593258e-02
         - 1.7310131272268839e-02
         - -2.6625079901404676e-02
         - -2.3688877939941174e-02
         - 2.5184686853548854e-02
         - -1.6802148146464482e-02
         - 2.4701919542485424e-02
         - -2.0510033443054243e-02
         - 5.5401817980374459e-03
         - -1.2715751827262771e-02
         - -2.2826884403615768e-02
         - -1.3947397587580353e-02
         - 8.0818208808904543e-03
         - 7.2872967394875853e-03
         - 1.6059145831145163e-02
         - 2.1646238351119784e-02
         - -1.7308554586781839e-02
         - 1.4373049155802698e-02
         - -1.7860935791028782e-02
         - -2.6696015620240238e-02
         - 2.2077828698317089e-02
         - -1.8954621248239083e-02
         - 7.9252073177918797e-03
         - -1.6001732890355270e-02
         - -2.6395490437025947e-02
         - 1.6497535138857277e-02
         - -1.7097800139102434e-02
         - 2.2514332780848079e-02
         - -1.7557021767379111e-02
         - -2.5584153288598185e-02
         - -8.1584181765624441e-03
         - -2.5643834507334932e-02
         - -7.1116128754672011e-03
         - -2.4330211646190359e-02
         - -2.2155706832965032e-03
         - -2.6668435673136068e-02
         - 3.5216274836566263e-03
         - -2.1807371035245687e-02
         - -1.7267606346008588e-02
         - 6.8666695838843781e-03
         - 1.5277694591922851e-03
         - -1.6043813612897509e-03
         - 9.7033130266883632e-03
         - 2.4304997703015623e-02
         - -1.2586825748800087e-03
         - 2.4517506244029957e-02
         - 1.5876364484338795e-02
         - 5.3604420601422479e-03
         - -1.3786808110816911e-02
         - -2.1205181275701510e-02
         - -1.9040170680246192e-03
         - 1.4951133922163259e-02
         - -8.0680551715342182e-04
         - -2.4844423201629350e-02
         - 1.2642918944991399e-02
         - 2.2982393154391732e-02
         - 2.9414422722330524e-02
         - 7.9715797089877655e-03
         - -2.3058842768091014e-02
         - 2.9182284030370355e-02
         - 6.7146446529513012e-03
         - 2.1063354552064907e-02
         - -1.9324140699864148e-03
         - 1.2202302193189808e-03
         - -1.9698042173662157e-02
         - 3.1511811066855253e-03
         - 1.8256615996829671e-02
         - 1.6098082756519728e-02
         - 6.7045171799306495e-03
         - 2.9813105040980992e-02
         - -1.7839497305506529e-02
         - -7.7058117363498256e-03
         - 2.3416565959674722e-02
         - 2.0568572203095575e-02
         - -4.7821078465166067e-03
         - 1.4841838201201059e-02
         - 2.2118072042297848e-02
         - -2.2408383521439427e-02
         - -9.4544199511981607e-04
         - -6.8119528402017047e-03
         - 6.2211946480096097e-03
         - -1.4168367176443881e-02
         - 1.3211429707848157e-02
         - 8.3648184307171646e-03
         - -4.0648530998733398e-03
         - -4.2239171638056505e-04
         - -1.8113618444863793e-02
         - -1.7902316689185023e-02
         - -1.0475737380852713e-02
         - 1.3664375352549598e-02
         - 2.4074088099526523e-02
         - -2.2883500732483394e-02
         - 2.5385134830800307e-02
         - 2.3719459944599383e-02
         - -4.9559627560430168e-03
         - -1.1672992234356498e-02
         - -1.4757584980645883e-02
         - -4.7856587353111756e-03
         - 1.3054189190159920e-02
         - -2.2761183422174071e-02
         - 7.5080326828972426e-03
         - -1.9750611107183968e-02
         - 6.6604216656402232e-03
         - -5.2139208048184527e-03
         - -2.4151705440267325e-02
         - -1.9737996341356548e-02
         - 2.0569323012048765e-02
         - 2.5302905181963240e-02
         - 5.9987659232684258e-03
         - -2.1597677338913494e-02
         - 2.1240498509675441e-02
         - -2.7098234436595502e-02
         - -1.7588181620706314e-02
         - -1.3434158562851942e-02
         - 2.1102505846200131e-02
         - -1.2470188333367251e-02
